<?xml version="1.0"?>
<opencv_storage>
<cascade>
  <stageType>BOOST</stageType>
  <featureType>HAAR</featureType>
  <height>20</height>
  <width>20</width>
  <stageParams>
    <boostType>GAB</boostType>
    <minHitRate>9.9500000476837158e-01</minHitRate>
    <maxFalseAlarm>5.0000000000000000e-01</maxFalseAlarm>
    <weightTrimRate>9.4999999999999996e-01</weightTrimRate>
    <maxDepth>1</maxDepth>
    <maxWeakCount>100</maxWeakCount></stageParams>
  <featureParams>
    <maxCatCount>0</maxCatCount>
    <featSize>1</featSize>
    <mode>BASIC</mode></featureParams>
  <stageNum>19</stageNum>
  <stages>
    <!-- stage 0 -->
    <_>
      <maxWeakCount>10</maxWeakCount>
      <stageThreshold>-2.0633020401000977e+00</stageThreshold>
      <weakClassifiers>
        <_>
          <internalNodes>
            0 -1 288 -1.5698483586311340e-01</internalNodes>
          <leafValues>
            -7.8454935550689697e-01 3.4594595432281494e-01</leafValues></_>
        <_>
          <internalNodes>
            0 -1 216 -5.6097269058227539e-02</internalNodes>
          <leafValues>
            2.6753666996955872e-01 -5.8975541591644287e-01</leafValues></_>
        <_>
          <internalNodes>
            0 -1 120 -5.3258657455444336e-02</internalNodes>
          <leafValues>
            3.9112362265586853e-01 -5.1270544528961182e-01</leafValues></_>
        <_>
          <internalNodes>
            0 -1 618 4.9668806605041027e-03</internalNodes>
          <leafValues>
            -3.9450839161872864e-01 5.0769895315170288e-01</leafValues></_>
        <_>
          <internalNodes>
            0 -1 256 -6.3024736940860748e-02</internalNodes>
          <leafValues>
            -9.3535459041595459e-01 1.5542638301849365e-01</leafValues></_>
        <_>
          <internalNodes>
            0 -1 9 -4.4123578071594238e-01</internalNodes>
          <leafValues>
            2.5520861148834229e-01 -4.9186652898788452e-01</leafValues></_>
        <_>
          <internalNodes>
            0 -1 324 -2.4612825363874435e-02</internalNodes>
          <leafValues>
            4.0302237868309021e-01 -2.5012755393981934e-01</leafValues></_>
        <_>
          <internalNodes>
            0 -1 65 -1.2312030419707298e-02</internalNodes>
          <leafValues>
            3.9273479580879211e-01 -2.3534975945949554e-01</leafValues></_>
        <_>
          <internalNodes>
            0 -1 513 -5.3767129778862000e-02</internalNodes>
          <leafValues>
            4.8048949241638184e-01 -1.5718004107475281e-01</leafValues></_>
        <_>
          <internalNodes>
            0 -1 382 -4.5942537486553192e-02</internalNodes>
          <leafValues>
            3.6118790507316589e-01 -2.1847939491271973e-01</leafValues></_></weakClassifiers></_>
    <!-- stage 1 -->
    <_>
      <maxWeakCount>14</maxWeakCount>
      <stageThreshold>-1.8228199481964111e+00</stageThreshold>
      <weakClassifiers>
        <_>
          <internalNodes>
            0 -1 332 -1.3655047118663788e-01</internalNodes>
          <leafValues>
            -8.1353384256362915e-01 -1.0921985656023026e-01</leafValues></_>
        <_>
          <internalNodes>
            0 -1 62 -2.7738953940570354e-03</internalNodes>
          <leafValues>
            2.2305944561958313e-01 -5.6148487329483032e-01</leafValues></_>
        <_>
          <internalNodes>
            0 -1 484 -3.2567393034696579e-02</internalNodes>
          <leafValues>
            -6.0095477104187012e-01 1.7709186673164368e-01</leafValues></_>
        <_>
          <internalNodes>
            0 -1 9 -4.4399785995483398e-01</internalNodes>
          <leafValues>
            1.8782444298267365e-01 -5.1537704467773438e-01</leafValues></_>
        <_>
          <internalNodes>
            0 -1 489 -2.1164380013942719e-03</internalNodes>
          <leafValues>
            7.8425008058547974e-01 -1.2934362888336182e-01</leafValues></_>
        <_>
          <internalNodes>
            0 -1 623 8.0555733293294907e-03</internalNodes>
          <leafValues>
            -1.7508584260940552e-01 4.8527869582176208e-01</leafValues></_>
        <_>
          <internalNodes>
            0 -1 224 -1.2914543971419334e-02</internalNodes>
          <leafValues>
            3.1089058518409729e-01 -3.1722855567932129e-01</leafValues></_>
        <_>
          <internalNodes>
            0 -1 166 -9.6512630581855774e-02</internalNodes>
          <leafValues>
            2.6332858204841614e-01 -3.9972090721130371e-01</leafValues></_>
        <_>
          <internalNodes>
            0 -1 47 -2.0141354762017727e-03</internalNodes>
          <leafValues>
            7.8785675764083862e-01 -1.1211138218641281e-01</leafValues></_>
        <_>
          <internalNodes>
            0 -1 226 1.7564084846526384e-03</internalNodes>
          <leafValues>
            -9.9168121814727783e-02 7.6589238643646240e-01</leafValues></_>
        <_>
          <internalNodes>
            0 -1 326 -2.2927438840270042e-03</internalNodes>
          <leafValues>
            8.4620624780654907e-01 -8.5786938667297363e-02</leafValues></_>
        <_>
          <internalNodes>
            0 -1 392 -9.5646545290946960e-02</internalNodes>
          <leafValues>
            -7.0443201065063477e-01 1.4917489886283875e-01</leafValues></_>
        <_>
          <internalNodes>
            0 -1 539 -2.3302435874938965e-03</internalNodes>
          <leafValues>
            8.3524125814437866e-01 -1.2343368679285049e-01</leafValues></_>
        <_>
          <internalNodes>
            0 -1 557 -1.5366605948656797e-03</internalNodes>
          <leafValues>
            6.5201783180236816e-01 -1.0798048973083496e-01</leafValues></_></weakClassifiers></_>
    <!-- stage 2 -->
    <_>
      <maxWeakCount>13</maxWeakCount>
      <stageThreshold>-1.7026365995407104e+00</stageThreshold>
      <weakClassifiers>
        <_>
          <internalNodes>
            0 -1 294 -1.4519886672496796e-01</internalNodes>
          <leafValues>
            -8.1034481525421143e-01 1.7338709533214569e-01</leafValues></_>
        <_>
          <internalNodes>
            0 -1 328 -2.6643663644790649e-01</internalNodes>
          <leafValues>
            -6.3183146715164185e-01 1.0135982930660248e-01</leafValues></_>
        <_>
          <internalNodes>
            0 -1 69 -4.8326868563890457e-03</internalNodes>
          <leafValues>
            3.9431762695312500e-01 -3.2754456996917725e-01</leafValues></_>
        <_>
          <internalNodes>
            0 -1 586 1.2248129583895206e-02</internalNodes>
          <leafValues>
            -2.0402947068214417e-01 4.7444009780883789e-01</leafValues></_>
        <_>
          <internalNodes>
            0 -1 19 -8.4358379244804382e-03</internalNodes>
          <leafValues>
            2.0642267167568207e-01 -5.3201609849929810e-01</leafValues></_>
        <_>
          <internalNodes>
            0 -1 437 -3.5407975316047668e-02</internalNodes>
          <leafValues>
            3.4924578666687012e-01 -2.5284716486930847e-01</leafValues></_>
        <_>
          <internalNodes>
            0 -1 459 -3.0094704031944275e-01</internalNodes>
          <leafValues>
            -9.5965892076492310e-01 7.7938094735145569e-02</leafValues></_>
        <_>
          <internalNodes>
            0 -1 330 -1.8928039819002151e-02</internalNodes>
          <leafValues>
            4.2818790674209595e-01 -1.9162932038307190e-01</leafValues></_>
        <_>
          <internalNodes>
            0 -1 398 3.6527868360280991e-03</internalNodes>
          <leafValues>
            -1.6803508996963501e-01 4.3835932016372681e-01</leafValues></_>
        <_>
          <internalNodes>
            0 -1 275 -7.2176575660705566e-02</internalNodes>
          <leafValues>
            1.3865412771701813e-01 -5.8535981178283691e-01</leafValues></_>
        <_>
          <internalNodes>
            0 -1 427 -3.2455078326165676e-03</internalNodes>
          <leafValues>
            -1.2026464194059372e-01 7.1686887741088867e-01</leafValues></_>
        <_>
          <internalNodes>
            0 -1 83 -1.5347911044955254e-02</internalNodes>
          <leafValues>
            4.3860355019569397e-01 -1.4492809772491455e-01</leafValues></_>
        <_>
          <internalNodes>
            0 -1 553 4.2684911750257015e-03</internalNodes>
          <leafValues>
            1.2371010333299637e-01 -5.4289281368255615e-01</leafValues></_></weakClassifiers></_>
    <!-- stage 3 -->
    <_>
      <maxWeakCount>14</maxWeakCount>
      <stageThreshold>-1.8631643056869507e+00</stageThreshold>
      <weakClassifiers>
        <_>
          <internalNodes>
            0 -1 393 -4.9238707870244980e-02</internalNodes>
          <leafValues>
            -2.4293784797191620e-01 -8.1818181276321411e-01</leafValues></_>
        <_>
          <internalNodes>
            0 -1 78 -3.2715317793190479e-03</internalNodes>
          <leafValues>
            1.6722084581851959e-01 -5.6839746236801147e-01</leafValues></_>
        <_>
          <internalNodes>
            0 -1 298 1.0383794084191322e-02</internalNodes>
          <leafValues>
            -2.1199645102024078e-01 6.1055225133895874e-01</leafValues></_>
        <_>
          <internalNodes>
            0 -1 15 -7.2302438318729401e-02</internalNodes>
          <leafValues>
            3.0795580148696899e-01 -3.4582746028900146e-01</leafValues></_>
        <_>
          <internalNodes>
            0 -1 628 4.2506745085120201e-03</internalNodes>
          <leafValues>
            -2.7240356802940369e-01 3.9493846893310547e-01</leafValues></_>
        <_>
          <internalNodes>
            0 -1 104 -1.4890441298484802e-01</internalNodes>
          <leafValues>
            3.2963323593139648e-01 -3.8935303688049316e-01</leafValues></_>
        <_>
          <internalNodes>
            0 -1 45 1.3627476990222931e-02</internalNodes>
          <leafValues>
            -2.9981821775436401e-01 3.2671034336090088e-01</leafValues></_>
        <_>
          <internalNodes>
            0 -1 115 -1.3437202572822571e-01</internalNodes>
          <leafValues>
            -6.6931003332138062e-01 1.0454999655485153e-01</leafValues></_>
        <_>
          <internalNodes>
            0 -1 314 -2.8974089026451111e-01</internalNodes>
          <leafValues>
            -9.0400618314743042e-01 8.7770603597164154e-02</leafValues></_>
        <_>
          <internalNodes>
            0 -1 371 -9.8919514566659927e-03</internalNodes>
          <leafValues>
            6.1682367324829102e-01 -1.6308663785457611e-01</leafValues></_>
        <_>
          <internalNodes>
            0 -1 329 -2.3169571533799171e-02</internalNodes>
          <leafValues>
            3.8213714957237244e-01 -1.6743442416191101e-01</leafValues></_>
        <_>
          <internalNodes>
            0 -1 381 -3.7305261939764023e-02</internalNodes>
          <leafValues>
            2.2035546600818634e-01 -3.4060516953468323e-01</leafValues></_>
        <_>
          <internalNodes>
            0 -1 141 -5.7673554867506027e-02</internalNodes>
          <leafValues>
            3.1120055913925171e-01 -2.4666486680507660e-01</leafValues></_>
        <_>
          <internalNodes>
            0 -1 118 -1.2172970920801163e-02</internalNodes>
          <leafValues>
            4.9497580528259277e-01 -1.3644169270992279e-01</leafValues></_></weakClassifiers></_>
    <!-- stage 4 -->
    <_>
      <maxWeakCount>20</maxWeakCount>
      <stageThreshold>-1.9029828310012817e+00</stageThreshold>
      <weakClassifiers>
        <_>
          <internalNodes>
            0 -1 368 1.3990595936775208e-02</internalNodes>
          <leafValues>
            -7.7982646226882935e-01 -3.0607476830482483e-01</leafValues></_>
        <_>
          <internalNodes>
            0 -1 140 -4.9385419487953186e-01</internalNodes>
          <leafValues>
            8.9638270437717438e-02 -6.5665072202682495e-01</leafValues></_>
        <_>
          <internalNodes>
            0 -1 135 3.5349354147911072e-03</internalNodes>
          <leafValues>
            -3.3717444539070129e-01 2.9104864597320557e-01</leafValues></_>
        <_>
          <internalNodes>
            0 -1 26 -2.4382652714848518e-02</internalNodes>
          <leafValues>
            2.7747166156768799e-01 -2.6682385802268982e-01</leafValues></_>
        <_>
          <internalNodes>
            0 -1 445 -4.5198544859886169e-02</internalNodes>
          <leafValues>
            3.8657841086387634e-01 -2.3966927826404572e-01</leafValues></_>
        <_>
          <internalNodes>
            0 -1 395 -4.5747412368655205e-03</internalNodes>
          <leafValues>
            3.9986655116081238e-01 -1.9467175006866455e-01</leafValues></_>
        <_>
          <internalNodes>
            0 -1 627 2.1719601936638355e-03</internalNodes>
          <leafValues>
            -2.4647602438926697e-01 3.1356781721115112e-01</leafValues></_>
        <_>
          <internalNodes>
            0 -1 433 4.0099764009937644e-04</internalNodes>
          <leafValues>
            1.2793734669685364e-01 -5.5697649717330933e-01</leafValues></_>
        <_>
          <internalNodes>
            0 -1 409 -4.0114838629961014e-03</internalNodes>
          <leafValues>
            3.7801560759544373e-01 -1.7801450192928314e-01</leafValues></_>
        <_>
          <internalNodes>
            0 -1 30 -6.4459018409252167e-02</internalNodes>
          <leafValues>
            -8.1329429149627686e-01 8.7673515081405640e-02</leafValues></_>
        <_>
          <internalNodes>
            0 -1 193 8.7124696001410484e-03</internalNodes>
          <leafValues>
            -1.7631545662879944e-01 4.3819487094879150e-01</leafValues></_>
        <_>
          <internalNodes>
            0 -1 72 -2.7983677573502064e-03</internalNodes>
          <leafValues>
            2.7370235323905945e-01 -2.3345662653446198e-01</leafValues></_>
        <_>
          <internalNodes>
            0 -1 157 -1.4168124645948410e-02</internalNodes>
          <leafValues>
            3.3492049574851990e-01 -1.5397737920284271e-01</leafValues></_>
        <_>
          <internalNodes>
            0 -1 143 -2.4059984833002090e-02</internalNodes>
          <leafValues>
            2.7459087967872620e-01 -2.1008069813251495e-01</leafValues></_>
        <_>
          <internalNodes>
            0 -1 419 -2.0475842058658600e-02</internalNodes>
          <leafValues>
            2.3778533935546875e-01 -2.1141356229782104e-01</leafValues></_>
        <_>
          <internalNodes>
            0 -1 417 -4.6140812337398529e-03</internalNodes>
          <leafValues>
            5.2468425035476685e-01 -9.4050578773021698e-02</leafValues></_>
        <_>
          <internalNodes>
            0 -1 46 3.3829666674137115e-02</internalNodes>
          <leafValues>
            -1.0962926596403122e-01 4.5793873071670532e-01</leafValues></_>
        <_>
          <internalNodes>
            0 -1 357 -1.8987804651260376e-03</internalNodes>
          <leafValues>
            3.4223759174346924e-01 -1.4834508299827576e-01</leafValues></_>
        <_>
          <internalNodes>
            0 -1 357 2.3764423094689846e-03</internalNodes>
          <leafValues>
            -1.3293913006782532e-01 3.7870112061500549e-01</leafValues></_>
        <_>
          <internalNodes>
            0 -1 102 -1.4134332537651062e-01</internalNodes>
          <leafValues>
            5.9400524944067001e-02 -8.4605258703231812e-01</leafValues></_></weakClassifiers></_>
    <!-- stage 5 -->
    <_>
      <maxWeakCount>26</maxWeakCount>
      <stageThreshold>-1.7350418567657471e+00</stageThreshold>
      <weakClassifiers>
        <_>
          <internalNodes>
            0 -1 337 -1.3223841786384583e-01</internalNodes>
          <leafValues>
            -7.4855488538742065e-01 -2.3397435247898102e-01</leafValues></_>
        <_>
          <internalNodes>
            0 -1 5 -4.7513954341411591e-02</internalNodes>
          <leafValues>
            1.9366912543773651e-01 -4.0570750832557678e-01</leafValues></_>
        <_>
          <internalNodes>
            0 -1 564 1.0678592370823026e-03</internalNodes>
          <leafValues>
            -3.5093536972999573e-01 2.3239804804325104e-01</leafValues></_>
        <_>
          <internalNodes>
            0 -1 595 -3.1351104378700256e-02</internalNodes>
          <leafValues>
            3.5235780477523804e-01 -2.1830226480960846e-01</leafValues></_>
        <_>
          <internalNodes>
            0 -1 160 1.7471726983785629e-02</internalNodes>
          <leafValues>
            -9.0721197426319122e-02 5.6388729810714722e-01</leafValues></_>
        <_>
          <internalNodes>
            0 -1 179 -4.5185573399066925e-02</internalNodes>
          <leafValues>
            7.9097993671894073e-02 -6.9800889492034912e-01</leafValues></_>
        <_>
          <internalNodes>
            0 -1 161 -2.3919490631669760e-03</internalNodes>
          <leafValues>
            1.2220066785812378e-01 -3.5695791244506836e-01</leafValues></_>
        <_>
          <internalNodes>
            0 -1 60 -7.0413788780570030e-03</internalNodes>
          <leafValues>
            2.6719596982002258e-01 -1.7669188976287842e-01</leafValues></_>
        <_>
          <internalNodes>
            0 -1 302 -2.0731605589389801e-02</internalNodes>
          <leafValues>
            -4.6767485141754150e-01 1.2466355413198471e-01</leafValues></_>
        <_>
          <internalNodes>
            0 -1 575 -3.1884990166872740e-03</internalNodes>
          <leafValues>
            1.4880445599555969e-01 -3.1206822395324707e-01</leafValues></_>
        <_>
          <internalNodes>
            0 -1 493 -1.1592302471399307e-03</internalNodes>
          <leafValues>
            3.5406285524368286e-01 -1.4439930021762848e-01</leafValues></_>
        <_>
          <internalNodes>
            0 -1 374 9.0690618380904198e-03</internalNodes>
          <leafValues>
            -7.9273954033851624e-02 5.3309452533721924e-01</leafValues></_>
        <_>
          <internalNodes>
            0 -1 617 1.3030986301600933e-02</internalNodes>
          <leafValues>
            -1.0648843646049500e-01 3.7187284231185913e-01</leafValues></_>
        <_>
          <internalNodes>
            0 -1 429 -8.5033534560352564e-04</internalNodes>
          <leafValues>
            -7.2910621762275696e-02 6.2579965591430664e-01</leafValues></_>
        <_>
          <internalNodes>
            0 -1 464 -3.8560070097446442e-02</internalNodes>
          <leafValues>
            2.7916851639747620e-01 -1.5414193272590637e-01</leafValues></_>
        <_>
          <internalNodes>
            0 -1 571 1.1678640730679035e-03</internalNodes>
          <leafValues>
            -1.7221257090568542e-01 2.6304942369461060e-01</leafValues></_>
        <_>
          <internalNodes>
            0 -1 171 -6.3922733068466187e-02</internalNodes>
          <leafValues>
            3.8798862695693970e-01 -1.0810469090938568e-01</leafValues></_>
        <_>
          <internalNodes>
            0 -1 130 2.6436654850840569e-02</internalNodes>
          <leafValues>
            -1.4333072304725647e-01 3.6319914460182190e-01</leafValues></_>
        <_>
          <internalNodes>
            0 -1 403 -1.5075890114530921e-03</internalNodes>
          <leafValues>
            3.2753750681877136e-01 -1.1364573240280151e-01</leafValues></_>
        <_>
          <internalNodes>
            0 -1 411 -3.0695689842104912e-02</internalNodes>
          <leafValues>
            3.8158881664276123e-01 -1.0561908781528473e-01</leafValues></_>
        <_>
          <internalNodes>
            0 -1 39 -8.1597939133644104e-03</internalNodes>
          <leafValues>
            2.6127940416336060e-01 -1.6201791167259216e-01</leafValues></_>
        <_>
          <internalNodes>
            0 -1 255 -1.8464991450309753e-01</internalNodes>
          <leafValues>
            -9.0737783908843994e-01 4.0571652352809906e-02</leafValues></_>
        <_>
          <internalNodes>
            0 -1 123 -8.3222739398479462e-02</internalNodes>
          <leafValues>
            1.7909574508666992e-01 -2.2804661095142365e-01</leafValues></_>
        <_>
          <internalNodes>
            0 -1 16 -2.3153251409530640e-01</internalNodes>
          <leafValues>
            2.7459347248077393e-01 -1.6029126942157745e-01</leafValues></_>
        <_>
          <internalNodes>
            0 -1 360 7.6995755080133677e-04</internalNodes>
          <leafValues>
            -1.4127330482006073e-01 3.1320098042488098e-01</leafValues></_>
        <_>
          <internalNodes>
            0 -1 477 2.7127848006784916e-03</internalNodes>
          <leafValues>
            -1.4629665017127991e-01 2.8432530164718628e-01</leafValues></_></weakClassifiers></_>
    <!-- stage 6 -->
    <_>
      <maxWeakCount>25</maxWeakCount>
      <stageThreshold>-1.6622366905212402e+00</stageThreshold>
      <weakClassifiers>
        <_>
          <internalNodes>
            0 -1 289 -1.6527670621871948e-01</internalNodes>
          <leafValues>
            -7.4609375000000000e-01 -2.6380369067192078e-01</leafValues></_>
        <_>
          <internalNodes>
            0 -1 579 -6.3910119235515594e-02</internalNodes>
          <leafValues>
            1.7426668107509613e-01 -3.4956938028335571e-01</leafValues></_>
        <_>
          <internalNodes>
            0 -1 537 7.7162496745586395e-03</internalNodes>
          <leafValues>
            -2.5358101725578308e-01 2.2867731750011444e-01</leafValues></_>
        <_>
          <internalNodes>
            0 -1 121 -1.4773613214492798e-01</internalNodes>
          <leafValues>
            3.2555887103080750e-01 -1.8227243423461914e-01</leafValues></_>
        <_>
          <internalNodes>
            0 -1 8 -3.7197582423686981e-02</internalNodes>
          <leafValues>
            2.0402915775775909e-01 -3.0228170752525330e-01</leafValues></_>
        <_>
          <internalNodes>
            0 -1 365 -3.0348967760801315e-02</internalNodes>
          <leafValues>
            3.5739278793334961e-01 -1.2697660923004150e-01</leafValues></_>
        <_>
          <internalNodes>
            0 -1 415 -1.1145357973873615e-02</internalNodes>
          <leafValues>
            5.6510388851165771e-01 -6.5491542220115662e-02</leafValues></_>
        <_>
          <internalNodes>
            0 -1 340 1.5747845172882080e-02</internalNodes>
          <leafValues>
            -9.6745081245899200e-02 5.2072519063949585e-01</leafValues></_>
        <_>
          <internalNodes>
            0 -1 14 -1.4232009649276733e-01</internalNodes>
          <leafValues>
            2.8888896107673645e-01 -1.7197847366333008e-01</leafValues></_>
        <_>
          <internalNodes>
            0 -1 70 4.9764118157327175e-03</internalNodes>
          <leafValues>
            -1.6403013467788696e-01 2.6753816008567810e-01</leafValues></_>
        <_>
          <internalNodes>
            0 -1 175 -8.9288376271724701e-02</internalNodes>
          <leafValues>
            6.4283676445484161e-02 -6.7505639791488647e-01</leafValues></_>
        <_>
          <internalNodes>
            0 -1 280 -9.3407049775123596e-02</internalNodes>
          <leafValues>
            -4.9445497989654541e-01 8.4045656025409698e-02</leafValues></_>
        <_>
          <internalNodes>
            0 -1 12 2.5272101163864136e-01</internalNodes>
          <leafValues>
            4.4201552867889404e-02 -9.0642565488815308e-01</leafValues></_>
        <_>
          <internalNodes>
            0 -1 598 -6.1447661370038986e-02</internalNodes>
          <leafValues>
            1.2082636356353760e-01 -3.5334908962249756e-01</leafValues></_>
        <_>
          <internalNodes>
            0 -1 344 -3.6430463194847107e-02</internalNodes>
          <leafValues>
            4.7225549817085266e-01 -9.1117292642593384e-02</leafValues></_>
        <_>
          <internalNodes>
            0 -1 259 -2.9098181985318661e-03</internalNodes>
          <leafValues>
            -1.1658257246017456e-01 3.2026654481887817e-01</leafValues></_>
        <_>
          <internalNodes>
            0 -1 625 5.8612944558262825e-03</internalNodes>
          <leafValues>
            -1.6601805388927460e-01 2.4861162900924683e-01</leafValues></_>
        <_>
          <internalNodes>
            0 -1 589 -2.2988831624388695e-03</internalNodes>
          <leafValues>
            -7.3279345035552979e-01 4.9942359328269958e-02</leafValues></_>
        <_>
          <internalNodes>
            0 -1 412 -1.3826584443449974e-02</internalNodes>
          <leafValues>
            4.3854832649230957e-01 -9.6360877156257629e-02</leafValues></_>
        <_>
          <internalNodes>
            0 -1 54 -2.4524286389350891e-02</internalNodes>
          <leafValues>
            3.8519999384880066e-01 -1.0811158269643784e-01</leafValues></_>
        <_>
          <internalNodes>
            0 -1 182 1.6980969812721014e-03</internalNodes>
          <leafValues>
            7.5284585356712341e-02 -4.9429237842559814e-01</leafValues></_>
        <_>
          <internalNodes>
            0 -1 401 9.6983034163713455e-03</internalNodes>
          <leafValues>
            -1.1471538245677948e-01 3.4286895394325256e-01</leafValues></_>
        <_>
          <internalNodes>
            0 -1 203 -1.0160434059798717e-02</internalNodes>
          <leafValues>
            -4.6321079134941101e-01 8.1367574632167816e-02</leafValues></_>
        <_>
          <internalNodes>
            0 -1 364 -2.4089993909001350e-02</internalNodes>
          <leafValues>
            5.2015513181686401e-01 -8.3610638976097107e-02</leafValues></_>
        <_>
          <internalNodes>
            0 -1 315 -3.0904853343963623e-01</internalNodes>
          <leafValues>
            -6.6723632812500000e-01 5.4553169757127762e-02</leafValues></_></weakClassifiers></_>
    <!-- stage 7 -->
    <_>
      <maxWeakCount>34</maxWeakCount>
      <stageThreshold>-1.7139034271240234e+00</stageThreshold>
      <weakClassifiers>
        <_>
          <internalNodes>
            0 -1 244 -1.6552788019180298e-01</internalNodes>
          <leafValues>
            -7.3854315280914307e-01 -2.6953747868537903e-01</leafValues></_>
        <_>
          <internalNodes>
            0 -1 461 4.0261477231979370e-02</internalNodes>
          <leafValues>
            -3.8709956407546997e-01 6.3947141170501709e-02</leafValues></_>
        <_>
          <internalNodes>
            0 -1 89 1.2923313770443201e-03</internalNodes>
          <leafValues>
            8.7788708508014679e-02 -4.6629971265792847e-01</leafValues></_>
        <_>
          <internalNodes>
            0 -1 119 -1.2394791096448898e-01</internalNodes>
          <leafValues>
            1.9374755024909973e-01 -2.1351063251495361e-01</leafValues></_>
        <_>
          <internalNodes>
            0 -1 618 4.9678348004817963e-03</internalNodes>
          <leafValues>
            -2.0411425828933716e-01 2.1951460838317871e-01</leafValues></_>
        <_>
          <internalNodes>
            0 -1 327 -1.6511457040905952e-02</internalNodes>
          <leafValues>
            2.1492494642734528e-01 -2.1929912269115448e-01</leafValues></_>
        <_>
          <internalNodes>
            0 -1 511 1.9532581791281700e-03</internalNodes>
          <leafValues>
            -7.1123614907264709e-02 4.4961822032928467e-01</leafValues></_>
        <_>
          <internalNodes>
            0 -1 414 -8.1545095890760422e-03</internalNodes>
          <leafValues>
            4.4176924228668213e-01 -7.8885473310947418e-02</leafValues></_>
        <_>
          <internalNodes>
            0 -1 27 5.4592482745647430e-02</internalNodes>
          <leafValues>
            -1.3159629702568054e-01 2.9321086406707764e-01</leafValues></_>
        <_>
          <internalNodes>
            0 -1 331 5.1525238901376724e-02</internalNodes>
          <leafValues>
            -4.9299221485853195e-02 6.5124559402465820e-01</leafValues></_>
        <_>
          <internalNodes>
            0 -1 460 -3.2956630457192659e-04</internalNodes>
          <leafValues>
            1.4536121487617493e-01 -2.5559598207473755e-01</leafValues></_>
        <_>
          <internalNodes>
            0 -1 195 -1.4538806676864624e-01</internalNodes>
          <leafValues>
            -7.9499226808547974e-01 4.9400892108678818e-02</leafValues></_>
        <_>
          <internalNodes>
            0 -1 566 4.2177006253041327e-04</internalNodes>
          <leafValues>
            1.4344333112239838e-01 -2.6265925168991089e-01</leafValues></_>
        <_>
          <internalNodes>
            0 -1 67 -4.3985218508169055e-04</internalNodes>
          <leafValues>
            1.4209337532520294e-01 -2.3446747660636902e-01</leafValues></_>
        <_>
          <internalNodes>
            0 -1 341 -8.2296272739768028e-03</internalNodes>
          <leafValues>
            2.4795150756835938e-01 -1.3792058825492859e-01</leafValues></_>
        <_>
          <internalNodes>
            0 -1 199 3.5749208182096481e-02</internalNodes>
          <leafValues>
            5.8152832090854645e-02 -6.5521812438964844e-01</leafValues></_>
        <_>
          <internalNodes>
            0 -1 204 -9.3362294137477875e-03</internalNodes>
          <leafValues>
            -4.3403965234756470e-01 7.1448504924774170e-02</leafValues></_>
        <_>
          <internalNodes>
            0 -1 444 3.4404568374156952e-02</internalNodes>
          <leafValues>
            3.5867556929588318e-02 -8.2496273517608643e-01</leafValues></_>
        <_>
          <internalNodes>
            0 -1 267 1.1648482643067837e-02</internalNodes>
          <leafValues>
            -1.3080509006977081e-01 2.6670590043067932e-01</leafValues></_>
        <_>
          <internalNodes>
            0 -1 496 -7.3345634154975414e-04</internalNodes>
          <leafValues>
            2.2927092015743256e-01 -1.5045152604579926e-01</leafValues></_>
        <_>
          <internalNodes>
            0 -1 209 1.9167293794453144e-03</internalNodes>
          <leafValues>
            5.2475482225418091e-02 -6.5904647111892700e-01</leafValues></_>
        <_>
          <internalNodes>
            0 -1 213 -2.4251791834831238e-01</internalNodes>
          <leafValues>
            -7.1464198827743530e-01 3.9831798523664474e-02</leafValues></_>
        <_>
          <internalNodes>
            0 -1 23 2.4551160633563995e-02</internalNodes>
          <leafValues>
            6.9384619593620300e-02 -4.9823132157325745e-01</leafValues></_>
        <_>
          <internalNodes>
            0 -1 501 -1.2364331632852554e-02</internalNodes>
          <leafValues>
            -8.1494414806365967e-01 2.9608661308884621e-02</leafValues></_>
        <_>
          <internalNodes>
            0 -1 467 -1.9207525765523314e-03</internalNodes>
          <leafValues>
            2.4703477323055267e-01 -1.2563855946063995e-01</leafValues></_>
        <_>
          <internalNodes>
            0 -1 248 -5.9581436216831207e-02</internalNodes>
          <leafValues>
            -8.1522434949874878e-02 3.8681876659393311e-01</leafValues></_>
        <_>
          <internalNodes>
            0 -1 162 -6.1430595815181732e-02</internalNodes>
          <leafValues>
            2.5389572978019714e-01 -1.3214646279811859e-01</leafValues></_>
        <_>
          <internalNodes>
            0 -1 110 -1.2206753715872765e-02</internalNodes>
          <leafValues>
            3.3748024702072144e-01 -9.5978267490863800e-02</leafValues></_>
        <_>
          <internalNodes>
            0 -1 498 1.0141427628695965e-03</internalNodes>
          <leafValues>
            -1.1747952550649643e-01 2.8295162320137024e-01</leafValues></_>
        <_>
          <internalNodes>
            0 -1 379 -5.6977635249495506e-03</internalNodes>
          <leafValues>
            3.3400166779756546e-02 -9.5224034786224365e-01</leafValues></_>
        <_>
          <internalNodes>
            0 -1 98 -1.4236904098652303e-04</internalNodes>
          <leafValues>
            -2.3342373967170715e-01 1.1618354171514511e-01</leafValues></_>
        <_>
          <internalNodes>
            0 -1 96 -3.3712369203567505e-01</internalNodes>
          <leafValues>
            3.8511220365762711e-02 -7.4642711877822876e-01</leafValues></_>
        <_>
          <internalNodes>
            0 -1 250 -1.4679098129272461e-01</internalNodes>
          <leafValues>
            -1.4284716546535492e-01 2.5674024224281311e-01</leafValues></_>
        <_>
          <internalNodes>
            0 -1 603 -8.5301194339990616e-03</internalNodes>
          <leafValues>
            2.6274776458740234e-01 -1.3846309483051300e-01</leafValues></_></weakClassifiers></_>
    <!-- stage 8 -->
    <_>
      <maxWeakCount>32</maxWeakCount>
      <stageThreshold>-1.5615330934524536e+00</stageThreshold>
      <weakClassifiers>
        <_>
          <internalNodes>
            0 -1 69 -2.4166756775230169e-03</internalNodes>
          <leafValues>
            -4.8295453190803528e-01 -7.8947371244430542e-01</leafValues></_>
        <_>
          <internalNodes>
            0 -1 491 -6.2065020203590393e-02</internalNodes>
          <leafValues>
            1.5368941426277161e-01 -3.0049908161163330e-01</leafValues></_>
        <_>
          <internalNodes>
            0 -1 287 -3.5796418786048889e-02</internalNodes>
          <leafValues>
            3.1891521811485291e-01 -1.4521740376949310e-01</leafValues></_>
        <_>
          <internalNodes>
            0 -1 385 -6.7576512694358826e-02</internalNodes>
          <leafValues>
            -3.2909354567527771e-01 1.3351900875568390e-01</leafValues></_>
        <_>
          <internalNodes>
            0 -1 628 5.5844588205218315e-03</internalNodes>
          <leafValues>
            -1.4080548286437988e-01 3.0949756503105164e-01</leafValues></_>
        <_>
          <internalNodes>
            0 -1 388 6.5984856337308884e-03</internalNodes>
          <leafValues>
            -1.0044143348932266e-01 4.5669758319854736e-01</leafValues></_>
        <_>
          <internalNodes>
            0 -1 234 -1.4674028381705284e-02</internalNodes>
          <leafValues>
            3.1190472841262817e-01 -1.3134826719760895e-01</leafValues></_>
        <_>
          <internalNodes>
            0 -1 99 4.3134815990924835e-02</internalNodes>
          <leafValues>
            -1.4639864861965179e-01 2.7247375249862671e-01</leafValues></_>
        <_>
          <internalNodes>
            0 -1 387 -5.4856324568390846e-03</internalNodes>
          <leafValues>
            4.6104457974433899e-01 -6.9347597658634186e-02</leafValues></_>
        <_>
          <internalNodes>
            0 -1 431 -1.9384013116359711e-01</internalNodes>
          <leafValues>
            5.5552244186401367e-02 -7.4482542276382446e-01</leafValues></_>
        <_>
          <internalNodes>
            0 -1 561 -4.2202589102089405e-03</internalNodes>
          <leafValues>
            -1.0814470052719116e-01 3.2736068964004517e-01</leafValues></_>
        <_>
          <internalNodes>
            0 -1 638 -6.9222440943121910e-03</internalNodes>
          <leafValues>
            4.5967321842908859e-02 -7.1599346399307251e-01</leafValues></_>
        <_>
          <internalNodes>
            0 -1 189 -1.8930141814053059e-03</internalNodes>
          <leafValues>
            2.9231101274490356e-01 -1.1916961520910263e-01</leafValues></_>
        <_>
          <internalNodes>
            0 -1 378 -1.8114101141691208e-02</internalNodes>
          <leafValues>
            3.7091320753097534e-01 -8.8541276752948761e-02</leafValues></_>
        <_>
          <internalNodes>
            0 -1 525 -1.8958538770675659e-02</internalNodes>
          <leafValues>
            2.4040366709232330e-01 -1.4597998559474945e-01</leafValues></_>
        <_>
          <internalNodes>
            0 -1 334 2.5755112990736961e-02</internalNodes>
          <leafValues>
            6.7816816270351410e-02 -4.8185929656028748e-01</leafValues></_>
        <_>
          <internalNodes>
            0 -1 112 -9.8927706480026245e-02</internalNodes>
          <leafValues>
            -4.6195262670516968e-01 6.7928686738014221e-02</leafValues></_>
        <_>
          <internalNodes>
            0 -1 355 3.1788259744644165e-01</internalNodes>
          <leafValues>
            2.7594340965151787e-02 -9.7689008712768555e-01</leafValues></_>
        <_>
          <internalNodes>
            0 -1 38 -1.5439394861459732e-02</internalNodes>
          <leafValues>
            -8.0190974473953247e-01 2.8204914182424545e-02</leafValues></_>
        <_>
          <internalNodes>
            0 -1 137 -1.5995637513697147e-03</internalNodes>
          <leafValues>
            1.7518429458141327e-01 -1.9693526625633240e-01</leafValues></_>
        <_>
          <internalNodes>
            0 -1 504 4.7132857143878937e-03</internalNodes>
          <leafValues>
            -1.4881879091262817e-01 1.9973967969417572e-01</leafValues></_>
        <_>
          <internalNodes>
            0 -1 505 -1.7951200716197491e-03</internalNodes>
          <leafValues>
            3.4969606995582581e-01 -1.0082060098648071e-01</leafValues></_>
        <_>
          <internalNodes>
            0 -1 577 1.7675987910479307e-03</internalNodes>
          <leafValues>
            -1.3629104197025299e-01 2.3653490841388702e-01</leafValues></_>
        <_>
          <internalNodes>
            0 -1 225 -1.2446823716163635e-01</internalNodes>
          <leafValues>
            1.0043534636497498e-01 -3.1816291809082031e-01</leafValues></_>
        <_>
          <internalNodes>
            0 -1 211 -9.3875359743833542e-03</internalNodes>
          <leafValues>
            2.9936277866363525e-01 -1.1836091428995132e-01</leafValues></_>
        <_>
          <internalNodes>
            0 -1 18 1.9320659339427948e-02</internalNodes>
          <leafValues>
            5.8545880019664764e-02 -5.8866620063781738e-01</leafValues></_>
        <_>
          <internalNodes>
            0 -1 367 -1.6882289201021194e-02</internalNodes>
          <leafValues>
            -2.9712060093879700e-01 1.0115103423595428e-01</leafValues></_>
        <_>
          <internalNodes>
            0 -1 249 -1.3848161324858665e-02</internalNodes>
          <leafValues>
            4.0929651260375977e-01 -8.4359198808670044e-02</leafValues></_>
        <_>
          <internalNodes>
            0 -1 133 -2.5915899313986301e-03</internalNodes>
          <leafValues>
            -8.7969380617141724e-01 3.9890639483928680e-02</leafValues></_>
        <_>
          <internalNodes>
            0 -1 358 -3.6673671565949917e-03</internalNodes>
          <leafValues>
            2.9950046539306641e-01 -1.0691751539707184e-01</leafValues></_>
        <_>
          <internalNodes>
            0 -1 271 -4.0435895323753357e-02</internalNodes>
          <leafValues>
            -7.3908305168151855e-01 4.8925414681434631e-02</leafValues></_>
        <_>
          <internalNodes>
            0 -1 439 -1.4189419150352478e-01</internalNodes>
          <leafValues>
            -8.0554342269897461e-01 3.0057536438107491e-02</leafValues></_></weakClassifiers></_>
    <!-- stage 9 -->
    <_>
      <maxWeakCount>40</maxWeakCount>
      <stageThreshold>-1.6423701047897339e+00</stageThreshold>
      <weakClassifiers>
        <_>
          <internalNodes>
            0 -1 59 -1.3833805918693542e-02</internalNodes>
          <leafValues>
            -2.3499999940395355e-01 -6.9826084375381470e-01</leafValues></_>
        <_>
          <internalNodes>
            0 -1 2 -4.5226562768220901e-02</internalNodes>
          <leafValues>
            8.4665566682815552e-02 -3.3638030290603638e-01</leafValues></_>
        <_>
          <internalNodes>
            0 -1 466 -1.9362135790288448e-03</internalNodes>
          <leafValues>
            4.3423721194267273e-01 -1.0414318740367889e-01</leafValues></_>
        <_>
          <internalNodes>
            0 -1 465 -1.1749914847314358e-03</internalNodes>
          <leafValues>
            4.0483537316322327e-01 -1.1048628389835358e-01</leafValues></_>
        <_>
          <internalNodes>
            0 -1 591 3.8311019307002425e-04</internalNodes>
          <leafValues>
            -2.7320680022239685e-01 1.5844532847404480e-01</leafValues></_>
        <_>
          <internalNodes>
            0 -1 338 1.6162935644388199e-03</internalNodes>
          <leafValues>
            -8.6020298302173615e-02 3.5015493631362915e-01</leafValues></_>
        <_>
          <internalNodes>
            0 -1 279 9.1656955191865563e-04</internalNodes>
          <leafValues>
            -1.2326191365718842e-01 3.0124458670616150e-01</leafValues></_>
        <_>
          <internalNodes>
            0 -1 612 1.4092910103499889e-02</internalNodes>
          <leafValues>
            -8.3825111389160156e-02 4.2919737100601196e-01</leafValues></_>
        <_>
          <internalNodes>
            0 -1 235 8.5147342178970575e-04</internalNodes>
          <leafValues>
            -1.2259219586849213e-01 2.7302905917167664e-01</leafValues></_>
        <_>
          <internalNodes>
            0 -1 227 -7.0082074962556362e-03</internalNodes>
          <leafValues>
            1.1045697331428528e-01 -2.8531935811042786e-01</leafValues></_>
        <_>
          <internalNodes>
            0 -1 486 -1.4672150835394859e-02</internalNodes>
          <leafValues>
            1.3240903615951538e-01 -2.5511652231216431e-01</leafValues></_>
        <_>
          <internalNodes>
            0 -1 63 1.3492819853127003e-03</internalNodes>
          <leafValues>
            -1.2794077396392822e-01 2.7534961700439453e-01</leafValues></_>
        <_>
          <internalNodes>
            0 -1 542 -1.2823527213186026e-03</internalNodes>
          <leafValues>
            3.1079873442649841e-01 -1.0263559222221375e-01</leafValues></_>
        <_>
          <internalNodes>
            0 -1 351 -3.0661435797810555e-02</internalNodes>
          <leafValues>
            -1. 3.6174662411212921e-02</leafValues></_>
        <_>
          <internalNodes>
            0 -1 473 1.0790535807609558e-01</internalNodes>
          <leafValues>
            2.3825170472264290e-02 -7.9666727781295776e-01</leafValues></_>
        <_>
          <internalNodes>
            0 -1 575 -3.3419760875403881e-03</internalNodes>
          <leafValues>
            1.1392575502395630e-01 -2.7932947874069214e-01</leafValues></_>
        <_>
          <internalNodes>
            0 -1 265 5.2300896495580673e-03</internalNodes>
          <leafValues>
            -1.5460245311260223e-01 1.9747394323348999e-01</leafValues></_>
        <_>
          <internalNodes>
            0 -1 348 8.2795917987823486e-03</internalNodes>
          <leafValues>
            -4.8972208052873611e-02 5.9352332353591919e-01</leafValues></_>
        <_>
          <internalNodes>
            0 -1 357 2.7208994142711163e-03</internalNodes>
          <leafValues>
            -9.4928875565528870e-02 3.1410568952560425e-01</leafValues></_>
        <_>
          <internalNodes>
            0 -1 270 -8.0374747514724731e-02</internalNodes>
          <leafValues>
            -7.6368826627731323e-01 4.3379478156566620e-02</leafValues></_>
        <_>
          <internalNodes>
            0 -1 393 -4.9276776611804962e-02</internalNodes>
          <leafValues>
            1.4319431781768799e-01 -1.9516210258007050e-01</leafValues></_>
        <_>
          <internalNodes>
            0 -1 106 -5.1633059978485107e-02</internalNodes>
          <leafValues>
            3.8102960586547852e-01 -9.0418353676795959e-02</leafValues></_>
        <_>
          <internalNodes>
            0 -1 377 -3.5423124209046364e-03</internalNodes>
          <leafValues>
            3.0415105819702148e-01 -1.0854048281908035e-01</leafValues></_>
        <_>
          <internalNodes>
            0 -1 376 6.6834143362939358e-03</internalNodes>
          <leafValues>
            -1.0045293718576431e-01 3.0463045835494995e-01</leafValues></_>
        <_>
          <internalNodes>
            0 -1 604 4.9690355081111193e-04</internalNodes>
          <leafValues>
            9.0026773512363434e-02 -3.8367059826850891e-01</leafValues></_>
        <_>
          <internalNodes>
            0 -1 92 6.1625338275916874e-05</internalNodes>
          <leafValues>
            9.7353391349315643e-02 -3.0325657129287720e-01</leafValues></_>
        <_>
          <internalNodes>
            0 -1 242 2.9199920594692230e-02</internalNodes>
          <leafValues>
            -9.5398098230361938e-02 3.4286987781524658e-01</leafValues></_>
        <_>
          <internalNodes>
            0 -1 434 -1.2857781257480383e-03</internalNodes>
          <leafValues>
            3.3214807510375977e-01 -9.6263810992240906e-02</leafValues></_>
        <_>
          <internalNodes>
            0 -1 442 -4.5973155647516251e-03</internalNodes>
          <leafValues>
            -1.4603845775127411e-01 1.9324670732021332e-01</leafValues></_>
        <_>
          <internalNodes>
            0 -1 192 -2.0412094891071320e-02</internalNodes>
          <leafValues>
            3.2149732112884521e-02 -9.0520608425140381e-01</leafValues></_>
        <_>
          <internalNodes>
            0 -1 13 -3.3464343287050724e-03</internalNodes>
          <leafValues>
            1.4382307231426239e-01 -2.0964576303958893e-01</leafValues></_>
        <_>
          <internalNodes>
            0 -1 310 -1.1369286105036736e-02</internalNodes>
          <leafValues>
            5.0261682271957397e-01 -5.4159056395292282e-02</leafValues></_>
        <_>
          <internalNodes>
            0 -1 308 2.8187192510813475e-03</internalNodes>
          <leafValues>
            -1.0999444872140884e-01 2.6793089509010315e-01</leafValues></_>
        <_>
          <internalNodes>
            0 -1 97 1.0227607935667038e-01</internalNodes>
          <leafValues>
            3.5039518028497696e-02 -8.7596261501312256e-01</leafValues></_>
        <_>
          <internalNodes>
            0 -1 550 -2.4823327548801899e-03</internalNodes>
          <leafValues>
            -4.5179781317710876e-01 5.2255723625421524e-02</leafValues></_>
        <_>
          <internalNodes>
            0 -1 394 -1.0009782854467630e-03</internalNodes>
          <leafValues>
            1.9711254537105560e-01 -1.3242942094802856e-01</leafValues></_>
        <_>
          <internalNodes>
            0 -1 570 2.7981940656900406e-02</internalNodes>
          <leafValues>
            3.5441759973764420e-02 -7.5085443258285522e-01</leafValues></_>
        <_>
          <internalNodes>
            0 -1 25 1.5472017694264650e-03</internalNodes>
          <leafValues>
            4.9118299037218094e-02 -4.5064151287078857e-01</leafValues></_>
        <_>
          <internalNodes>
            0 -1 534 -5.0237472169101238e-04</internalNodes>
          <leafValues>
            2.1068446338176727e-01 -1.2888485193252563e-01</leafValues></_>
        <_>
          <internalNodes>
            0 -1 529 3.5773818381130695e-03</internalNodes>
          <leafValues>
            -1.1224828660488129e-01 2.8876650333404541e-01</leafValues></_></weakClassifiers></_>
    <!-- stage 10 -->
    <_>
      <maxWeakCount>44</maxWeakCount>
      <stageThreshold>-1.5429569482803345e+00</stageThreshold>
      <weakClassifiers>
        <_>
          <internalNodes>
            0 -1 611 -1.1280210688710213e-02</internalNodes>
          <leafValues>
            -4.5951220393180847e-01 -7.3373132944107056e-01</leafValues></_>
        <_>
          <internalNodes>
            0 -1 366 -6.4669832587242126e-02</internalNodes>
          <leafValues>
            -4.1851571202278137e-01 1.9948048517107964e-02</leafValues></_>
        <_>
          <internalNodes>
            0 -1 62 -3.7030819803476334e-03</internalNodes>
          <leafValues>
            1.7489878833293915e-01 -2.4732422828674316e-01</leafValues></_>
        <_>
          <internalNodes>
            0 -1 108 -5.5227410048246384e-03</internalNodes>
          <leafValues>
            1.8164329230785370e-01 -1.9500222802162170e-01</leafValues></_>
        <_>
          <internalNodes>
            0 -1 81 -5.3154807537794113e-03</internalNodes>
          <leafValues>
            2.0325468480587006e-01 -1.5317404270172119e-01</leafValues></_>
        <_>
          <internalNodes>
            0 -1 220 -1.2056098319590092e-02</internalNodes>
          <leafValues>
            4.2973976582288742e-02 -6.3543498516082764e-01</leafValues></_>
        <_>
          <internalNodes>
            0 -1 167 -3.4002482891082764e-02</internalNodes>
          <leafValues>
            1.3825932145118713e-01 -2.1261575818061829e-01</leafValues></_>
        <_>
          <internalNodes>
            0 -1 66 -1.5055902767926455e-03</internalNodes>
          <leafValues>
            -4.1291871666908264e-01 7.4669905006885529e-02</leafValues></_>
        <_>
          <internalNodes>
            0 -1 339 -1.5039172023534775e-02</internalNodes>
          <leafValues>
            5.2955275774002075e-01 -6.8127691745758057e-02</leafValues></_>
        <_>
          <internalNodes>
            0 -1 272 -2.5342982262372971e-02</internalNodes>
          <leafValues>
            1.2411846965551376e-01 -2.6399493217468262e-01</leafValues></_>
        <_>
          <internalNodes>
            0 -1 138 1.3540970161557198e-02</internalNodes>
          <leafValues>
            -1.1031233519315720e-01 2.9071846604347229e-01</leafValues></_>
        <_>
          <internalNodes>
            0 -1 404 2.1265484392642975e-03</internalNodes>
          <leafValues>
            -1.1012641340494156e-01 2.3695948719978333e-01</leafValues></_>
        <_>
          <internalNodes>
            0 -1 605 7.5546430889517069e-04</internalNodes>
          <leafValues>
            1.1447254568338394e-01 -2.4218681454658508e-01</leafValues></_>
        <_>
          <internalNodes>
            0 -1 520 9.6441910136491060e-04</internalNodes>
          <leafValues>
            -1.9996654987335205e-01 1.3041877746582031e-01</leafValues></_>
        <_>
          <internalNodes>
            0 -1 616 1.5120831318199635e-02</internalNodes>
          <leafValues>
            -9.7738549113273621e-02 2.7197429537773132e-01</leafValues></_>
        <_>
          <internalNodes>
            0 -1 633 7.3426641756668687e-04</internalNodes>
          <leafValues>
            7.7136896550655365e-02 -3.2975155115127563e-01</leafValues></_>
        <_>
          <internalNodes>
            0 -1 600 1.6653418540954590e-02</internalNodes>
          <leafValues>
            2.7074415236711502e-02 -8.5706305503845215e-01</leafValues></_>
        <_>
          <internalNodes>
            0 -1 569 1.3252153992652893e-02</internalNodes>
          <leafValues>
            -1.5413737297058105e-01 1.7756880819797516e-01</leafValues></_>
        <_>
          <internalNodes>
            0 -1 345 2.3764465004205704e-03</internalNodes>
          <leafValues>
            3.8936786353588104e-02 -7.1393901109695435e-01</leafValues></_>
        <_>
          <internalNodes>
            0 -1 517 2.8589658904820681e-03</internalNodes>
          <leafValues>
            -5.8353319764137268e-02 5.2657502889633179e-01</leafValues></_>
        <_>
          <internalNodes>
            0 -1 435 1.5828316099941730e-03</internalNodes>
          <leafValues>
            -9.6559137105941772e-02 2.5434565544128418e-01</leafValues></_>
        <_>
          <internalNodes>
            0 -1 172 -5.4460363462567329e-03</internalNodes>
          <leafValues>
            -1.9110222160816193e-01 1.2728267908096313e-01</leafValues></_>
        <_>
          <internalNodes>
            0 -1 36 -2.6065204292535782e-02</internalNodes>
          <leafValues>
            1.5243642032146454e-01 -1.9434718787670135e-01</leafValues></_>
        <_>
          <internalNodes>
            0 -1 223 -2.2262835502624512e-01</internalNodes>
          <leafValues>
            4.6418402343988419e-02 -6.4002001285552979e-01</leafValues></_>
        <_>
          <internalNodes>
            0 -1 522 7.0859137922525406e-03</internalNodes>
          <leafValues>
            -5.9910710901021957e-02 5.2203792333602905e-01</leafValues></_>
        <_>
          <internalNodes>
            0 -1 468 -5.6047160178422928e-03</internalNodes>
          <leafValues>
            4.0330684185028076e-01 -5.9808578342199326e-02</leafValues></_>
        <_>
          <internalNodes>
            0 -1 335 -3.0272030271589756e-03</internalNodes>
          <leafValues>
            1.6913093626499176e-01 -1.4272320270538330e-01</leafValues></_>
        <_>
          <internalNodes>
            0 -1 246 -2.0718542858958244e-02</internalNodes>
          <leafValues>
            -7.2407796978950500e-02 3.2701131701469421e-01</leafValues></_>
        <_>
          <internalNodes>
            0 -1 305 -8.7433919543400407e-04</internalNodes>
          <leafValues>
            3.0142173171043396e-02 -8.2908529043197632e-01</leafValues></_>
        <_>
          <internalNodes>
            0 -1 606 3.5640108399093151e-04</internalNodes>
          <leafValues>
            9.1931112110614777e-02 -2.4731259047985077e-01</leafValues></_>
        <_>
          <internalNodes>
            0 -1 31 -9.3708559870719910e-02</internalNodes>
          <leafValues>
            -6.8213766813278198e-01 3.3201068639755249e-02</leafValues></_>
        <_>
          <internalNodes>
            0 -1 386 7.3189148679375648e-04</internalNodes>
          <leafValues>
            -1.1530529707670212e-01 2.2139194607734680e-01</leafValues></_>
        <_>
          <internalNodes>
            0 -1 462 -3.9692188147455454e-04</internalNodes>
          <leafValues>
            1.1728149652481079e-01 -2.0778863131999969e-01</leafValues></_>
        <_>
          <internalNodes>
            0 -1 487 -1.5969421714544296e-02</internalNodes>
          <leafValues>
            -5.0938332080841064e-01 4.7552157193422318e-02</leafValues></_>
        <_>
          <internalNodes>
            0 -1 183 -1.6024924814701080e-02</internalNodes>
          <leafValues>
            5.7409548759460449e-01 -4.6027015894651413e-02</leafValues></_>
        <_>
          <internalNodes>
            0 -1 148 -9.4992697238922119e-02</internalNodes>
          <leafValues>
            -8.5874092578887939e-01 3.1904969364404678e-02</leafValues></_>
        <_>
          <internalNodes>
            0 -1 174 2.8313943184912205e-03</internalNodes>
          <leafValues>
            3.1644791364669800e-02 -5.8064407110214233e-01</leafValues></_>
        <_>
          <internalNodes>
            0 -1 41 4.3064411729574203e-03</internalNodes>
          <leafValues>
            -9.8217822611331940e-02 2.5146126747131348e-01</leafValues></_>
        <_>
          <internalNodes>
            0 -1 601 -3.2730977982282639e-03</internalNodes>
          <leafValues>
            -4.5944860577583313e-01 5.1952399313449860e-02</leafValues></_>
        <_>
          <internalNodes>
            0 -1 217 -4.7813467681407928e-02</internalNodes>
          <leafValues>
            3.6638802289962769e-01 -7.2217375040054321e-02</leafValues></_>
        <_>
          <internalNodes>
            0 -1 427 -4.3014576658606529e-03</internalNodes>
          <leafValues>
            -8.8722459971904755e-02 2.5789320468902588e-01</leafValues></_>
        <_>
          <internalNodes>
            0 -1 349 -2.4947659112513065e-03</internalNodes>
          <leafValues>
            2.2401840984821320e-01 -1.0825507342815399e-01</leafValues></_>
        <_>
          <internalNodes>
            0 -1 508 -3.6806471180170774e-03</internalNodes>
          <leafValues>
            2.6328718662261963e-01 -9.7554728388786316e-02</leafValues></_>
        <_>
          <internalNodes>
            0 -1 587 -3.5732223186641932e-03</internalNodes>
          <leafValues>
            -4.0239205956459045e-01 6.5012060105800629e-02</leafValues></_></weakClassifiers></_>
    <!-- stage 11 -->
    <_>
      <maxWeakCount>45</maxWeakCount>
      <stageThreshold>-1.4601238965988159e+00</stageThreshold>
      <weakClassifiers>
        <_>
          <internalNodes>
            0 -1 585 3.7666731514036655e-03</internalNodes>
          <leafValues>
            -7.6512455940246582e-01 -4.8262548446655273e-01</leafValues></_>
        <_>
          <internalNodes>
            0 -1 492 6.6683381795883179e-02</internalNodes>
          <leafValues>
            -2.7916535735130310e-01 1.6600795090198517e-01</leafValues></_>
        <_>
          <internalNodes>
            0 -1 78 -3.2610166817903519e-03</internalNodes>
          <leafValues>
            1.2466128170490265e-01 -2.6391720771789551e-01</leafValues></_>
        <_>
          <internalNodes>
            0 -1 532 -3.1440950930118561e-02</internalNodes>
          <leafValues>
            -1.8697763979434967e-01 1.7923896014690399e-01</leafValues></_>
        <_>
          <internalNodes>
            0 -1 495 -1.3534012250602245e-03</internalNodes>
          <leafValues>
            3.6259600520133972e-01 -4.7682859003543854e-02</leafValues></_>
        <_>
          <internalNodes>
            0 -1 558 -1.0094018653035164e-02</internalNodes>
          <leafValues>
            -2.9429879784584045e-01 8.5974916815757751e-02</leafValues></_>
        <_>
          <internalNodes>
            0 -1 241 -5.7698551565408707e-02</internalNodes>
          <leafValues>
            -5.7202571630477905e-01 5.7003557682037354e-02</leafValues></_>
        <_>
          <internalNodes>
            0 -1 495 6.8249809555709362e-04</internalNodes>
          <leafValues>
            -1.1818827688694000e-01 2.4204081296920776e-01</leafValues></_>
        <_>
          <internalNodes>
            0 -1 107 -2.8452589176595211e-03</internalNodes>
          <leafValues>
            9.6940986812114716e-02 -2.6474678516387939e-01</leafValues></_>
        <_>
          <internalNodes>
            0 -1 420 8.5512846708297729e-03</internalNodes>
          <leafValues>
            -1.6446907818317413e-01 1.4985980093479156e-01</leafValues></_>
        <_>
          <internalNodes>
            0 -1 4 -6.3031977042555809e-03</internalNodes>
          <leafValues>
            1.6951425373554230e-01 -1.3207118213176727e-01</leafValues></_>
        <_>
          <internalNodes>
            0 -1 524 1.0589379817247391e-02</internalNodes>
          <leafValues>
            -5.4794229567050934e-02 4.1314309835433960e-01</leafValues></_>
        <_>
          <internalNodes>
            0 -1 458 9.2127099633216858e-03</internalNodes>
          <leafValues>
            -1.3475725054740906e-01 1.6263850033283234e-01</leafValues></_>
        <_>
          <internalNodes>
            0 -1 293 -2.9281023889780045e-02</internalNodes>
          <leafValues>
            2.5287112593650818e-01 -9.1711170971393585e-02</leafValues></_>
        <_>
          <internalNodes>
            0 -1 274 -4.1032694280147552e-02</internalNodes>
          <leafValues>
            1.5348403155803680e-01 -1.6429075598716736e-01</leafValues></_>
        <_>
          <internalNodes>
            0 -1 396 6.5170926973223686e-04</internalNodes>
          <leafValues>
            -1.2296600639820099e-01 2.2356963157653809e-01</leafValues></_>
        <_>
          <internalNodes>
            0 -1 185 -1.9937010109424591e-01</internalNodes>
          <leafValues>
            -5.9076511859893799e-01 4.7631978988647461e-02</leafValues></_>
        <_>
          <internalNodes>
            0 -1 578 -1.0509644635021687e-03</internalNodes>
          <leafValues>
            -3.6924919486045837e-01 6.0930553823709488e-02</leafValues></_>
        <_>
          <internalNodes>
            0 -1 260 1.0911851190030575e-02</internalNodes>
          <leafValues>
            -7.3981650173664093e-02 3.2153177261352539e-01</leafValues></_>
        <_>
          <internalNodes>
            0 -1 84 -3.0021257698535919e-02</internalNodes>
          <leafValues>
            3.8154116272926331e-01 -6.3337549567222595e-02</leafValues></_>
        <_>
          <internalNodes>
            0 -1 124 -8.4941253066062927e-02</internalNodes>
          <leafValues>
            1.2578280270099640e-01 -2.1674720942974091e-01</leafValues></_>
        <_>
          <internalNodes>
            0 -1 317 -1.2012510560452938e-03</internalNodes>
          <leafValues>
            2.5424626469612122e-01 -9.1176174581050873e-02</leafValues></_>
        <_>
          <internalNodes>
            0 -1 11 1.4577802270650864e-02</internalNodes>
          <leafValues>
            4.5356526970863342e-02 -5.4945200681686401e-01</leafValues></_>
        <_>
          <internalNodes>
            0 -1 563 1.0510408319532871e-03</internalNodes>
          <leafValues>
            -1.7800749838352203e-01 1.3451538980007172e-01</leafValues></_>
        <_>
          <internalNodes>
            0 -1 357 -2.9343112837523222e-03</internalNodes>
          <leafValues>
            2.6020315289497375e-01 -9.8108261823654175e-02</leafValues></_>
        <_>
          <internalNodes>
            0 -1 53 -2.6880919933319092e-02</internalNodes>
          <leafValues>
            -3.0737748742103577e-01 7.5107693672180176e-02</leafValues></_>
        <_>
          <internalNodes>
            0 -1 175 -8.8404588401317596e-02</internalNodes>
          <leafValues>
            3.8836043328046799e-02 -5.9233796596527100e-01</leafValues></_>
        <_>
          <internalNodes>
            0 -1 79 4.3190480209887028e-03</internalNodes>
          <leafValues>
            5.0784237682819366e-02 -3.9584594964981079e-01</leafValues></_>
        <_>
          <internalNodes>
            0 -1 51 -5.2186832763254642e-03</internalNodes>
          <leafValues>
            1.5103255212306976e-01 -1.6044503450393677e-01</leafValues></_>
        <_>
          <internalNodes>
            0 -1 48 2.1754070185124874e-03</internalNodes>
          <leafValues>
            -1.1090773344039917e-01 2.7576512098312378e-01</leafValues></_>
        <_>
          <internalNodes>
            0 -1 86 4.4111479073762894e-03</internalNodes>
          <leafValues>
            3.2404854893684387e-02 -7.3048138618469238e-01</leafValues></_>
        <_>
          <internalNodes>
            0 -1 165 3.4117706120014191e-02</internalNodes>
          <leafValues>
            4.7622438520193100e-02 -4.0251636505126953e-01</leafValues></_>
        <_>
          <internalNodes>
            0 -1 153 2.2265587747097015e-01</internalNodes>
          <leafValues>
            -3.0340211465954781e-02 7.8110003471374512e-01</leafValues></_>
        <_>
          <internalNodes>
            0 -1 295 2.3344627115875483e-03</internalNodes>
          <leafValues>
            -6.5036542713642120e-02 3.2082980871200562e-01</leafValues></_>
        <_>
          <internalNodes>
            0 -1 236 -1.8627926707267761e-02</internalNodes>
          <leafValues>
            2.6292303204536438e-01 -1.0210007429122925e-01</leafValues></_>
        <_>
          <internalNodes>
            0 -1 181 -2.0766451954841614e-02</internalNodes>
          <leafValues>
            1.4570769667625427e-01 -1.6514478623867035e-01</leafValues></_>
        <_>
          <internalNodes>
            0 -1 483 1.0156357660889626e-02</internalNodes>
          <leafValues>
            2.7817806228995323e-02 -7.2964870929718018e-01</leafValues></_>
        <_>
          <internalNodes>
            0 -1 547 1.6884740907698870e-03</internalNodes>
          <leafValues>
            -9.5345094799995422e-02 2.8453451395034790e-01</leafValues></_>
        <_>
          <internalNodes>
            0 -1 615 -4.2009544558823109e-03</internalNodes>
          <leafValues>
            3.1180995702743530e-01 -6.9955945014953613e-02</leafValues></_>
        <_>
          <internalNodes>
            0 -1 619 7.5835636816918850e-03</internalNodes>
          <leafValues>
            -1.2089727818965912e-01 2.1812069416046143e-01</leafValues></_>
        <_>
          <internalNodes>
            0 -1 423 -5.3040180355310440e-03</internalNodes>
          <leafValues>
            -9.2230498790740967e-02 2.8254482150077820e-01</leafValues></_>
        <_>
          <internalNodes>
            0 -1 73 1.1726876720786095e-02</internalNodes>
          <leafValues>
            -4.9285601824522018e-02 4.9822306632995605e-01</leafValues></_>
        <_>
          <internalNodes>
            0 -1 150 -2.2691562771797180e-03</internalNodes>
          <leafValues>
            2.3254558444023132e-01 -1.0075262188911438e-01</leafValues></_>
        <_>
          <internalNodes>
            0 -1 151 -1.2193468399345875e-02</internalNodes>
          <leafValues>
            -8.3280372619628906e-01 2.5709325447678566e-02</leafValues></_>
        <_>
          <internalNodes>
            0 -1 41 -2.5969585403800011e-03</internalNodes>
          <leafValues>
            2.2400990128517151e-01 -1.1049912124872208e-01</leafValues></_></weakClassifiers></_>
    <!-- stage 12 -->
    <_>
      <maxWeakCount>43</maxWeakCount>
      <stageThreshold>-1.3951326608657837e+00</stageThreshold>
      <weakClassifiers>
        <_>
          <internalNodes>
            0 -1 68 -9.6049867570400238e-03</internalNodes>
          <leafValues>
            -3.3823528885841370e-01 -6.8150085210800171e-01</leafValues></_>
        <_>
          <internalNodes>
            0 -1 410 1.8679548054933548e-02</internalNodes>
          <leafValues>
            -2.5748291611671448e-01 1.3188625872135162e-01</leafValues></_>
        <_>
          <internalNodes>
            0 -1 562 6.7619350738823414e-04</internalNodes>
          <leafValues>
            -2.5162953138351440e-01 1.0347113758325577e-01</leafValues></_>
        <_>
          <internalNodes>
            0 -1 372 -1.6369545459747314e-01</internalNodes>
          <leafValues>
            -1.5882119536399841e-01 1.6596756875514984e-01</leafValues></_>
        <_>
          <internalNodes>
            0 -1 597 -6.8075589835643768e-02</internalNodes>
          <leafValues>
            1.7680871486663818e-01 -2.3974211513996124e-01</leafValues></_>
        <_>
          <internalNodes>
            0 -1 515 9.3892768025398254e-02</internalNodes>
          <leafValues>
            5.0099633634090424e-02 -7.1877473592758179e-01</leafValues></_>
        <_>
          <internalNodes>
            0 -1 406 -3.9140108972787857e-02</internalNodes>
          <leafValues>
            -1.2538787722587585e-01 2.0743410289287567e-01</leafValues></_>
        <_>
          <internalNodes>
            0 -1 64 2.8889274690300226e-03</internalNodes>
          <leafValues>
            -1.5766665339469910e-01 1.7844173312187195e-01</leafValues></_>
        <_>
          <internalNodes>
            0 -1 163 -4.9477741122245789e-03</internalNodes>
          <leafValues>
            3.0069883912801743e-02 -8.4195113182067871e-01</leafValues></_>
        <_>
          <internalNodes>
            0 -1 285 6.3768252730369568e-02</internalNodes>
          <leafValues>
            4.3767079710960388e-02 -5.6780254840850830e-01</leafValues></_>
        <_>
          <internalNodes>
            0 -1 52 -1.1944787111133337e-03</internalNodes>
          <leafValues>
            1.1960378848016262e-02 -9.3157124519348145e-01</leafValues></_>
        <_>
          <internalNodes>
            0 -1 580 -5.9114880859851837e-03</internalNodes>
          <leafValues>
            -3.6005082726478577e-01 6.0948669910430908e-02</leafValues></_>
        <_>
          <internalNodes>
            0 -1 493 -1.4820548240095377e-03</internalNodes>
          <leafValues>
            2.5687283277511597e-01 -8.8400267064571381e-02</leafValues></_>
        <_>
          <internalNodes>
            0 -1 281 -3.7104837596416473e-02</internalNodes>
          <leafValues>
            -6.3573992252349854e-01 3.4205045551061630e-02</leafValues></_>
        <_>
          <internalNodes>
            0 -1 10 5.5173896253108978e-03</internalNodes>
          <leafValues>
            5.5501159280538559e-02 -3.6651763319969177e-01</leafValues></_>
        <_>
          <internalNodes>
            0 -1 268 6.8572517484426498e-03</internalNodes>
          <leafValues>
            -7.2630330920219421e-02 3.1508809328079224e-01</leafValues></_>
        <_>
          <internalNodes>
            0 -1 384 -2.3434646427631378e-02</internalNodes>
          <leafValues>
            4.5260241627693176e-01 -5.0302498042583466e-02</leafValues></_>
        <_>
          <internalNodes>
            0 -1 201 -4.0904231369495392e-02</internalNodes>
          <leafValues>
            -2.1423353254795074e-01 1.0378162562847137e-01</leafValues></_>
        <_>
          <internalNodes>
            0 -1 37 -7.3157623410224915e-02</internalNodes>
          <leafValues>
            7.9257827997207642e-01 -3.1057465821504593e-02</leafValues></_>
        <_>
          <internalNodes>
            0 -1 237 4.4767238199710846e-02</internalNodes>
          <leafValues>
            -3.2929446548223495e-02 5.7956981658935547e-01</leafValues></_>
        <_>
          <internalNodes>
            0 -1 498 -1.1749740224331617e-03</internalNodes>
          <leafValues>
            2.6703590154647827e-01 -8.1270530819892883e-02</leafValues></_>
        <_>
          <internalNodes>
            0 -1 291 -8.3695286884903908e-03</internalNodes>
          <leafValues>
            2.6521664857864380e-01 -7.7678345143795013e-02</leafValues></_>
        <_>
          <internalNodes>
            0 -1 90 -2.9795970767736435e-03</internalNodes>
          <leafValues>
            -3.9355751872062683e-01 5.5063713341951370e-02</leafValues></_>
        <_>
          <internalNodes>
            0 -1 469 -3.5891137085855007e-03</internalNodes>
          <leafValues>
            2.4183146655559540e-02 -8.2878518104553223e-01</leafValues></_>
        <_>
          <internalNodes>
            0 -1 105 -6.0786027461290359e-03</internalNodes>
          <leafValues>
            -4.4583465903997421e-02 5.8583867549896240e-01</leafValues></_>
        <_>
          <internalNodes>
            0 -1 22 1.4022425748407841e-02</internalNodes>
          <leafValues>
            -2.0614734292030334e-01 1.0700570791959763e-01</leafValues></_>
        <_>
          <internalNodes>
            0 -1 279 9.0159568935632706e-04</internalNodes>
          <leafValues>
            -9.6626199781894684e-02 2.4984756112098694e-01</leafValues></_>
        <_>
          <internalNodes>
            0 -1 251 -1.0694207996129990e-01</internalNodes>
          <leafValues>
            5.2298653125762939e-01 -4.5030932873487473e-02</leafValues></_>
        <_>
          <internalNodes>
            0 -1 85 -4.2782896198332310e-03</internalNodes>
          <leafValues>
            1.6114392876625061e-01 -1.3697780668735504e-01</leafValues></_>
        <_>
          <internalNodes>
            0 -1 510 -2.4705311283469200e-02</internalNodes>
          <leafValues>
            3.6995437741279602e-01 -5.7011876255273819e-02</leafValues></_>
        <_>
          <internalNodes>
            0 -1 523 -8.2056233659386635e-03</internalNodes>
          <leafValues>
            1.9341742992401123e-01 -1.2692192196846008e-01</leafValues></_>
        <_>
          <internalNodes>
            0 -1 159 -2.5617945939302444e-03</internalNodes>
          <leafValues>
            2.0239187777042389e-01 -1.2416934221982956e-01</leafValues></_>
        <_>
          <internalNodes>
            0 -1 632 6.6269631497561932e-04</internalNodes>
          <leafValues>
            7.3533050715923309e-02 -3.0619221925735474e-01</leafValues></_>
        <_>
          <internalNodes>
            0 -1 158 2.0944211632013321e-02</internalNodes>
          <leafValues>
            -6.3024662435054779e-02 3.3252814412117004e-01</leafValues></_>
        <_>
          <internalNodes>
            0 -1 283 1.9579374790191650e-01</internalNodes>
          <leafValues>
            2.4539185687899590e-02 -8.7906122207641602e-01</leafValues></_>
        <_>
          <internalNodes>
            0 -1 607 6.8278056569397449e-03</internalNodes>
          <leafValues>
            1.9859200343489647e-02 -7.7393287420272827e-01</leafValues></_>
        <_>
          <internalNodes>
            0 -1 312 -1.5129071660339832e-02</internalNodes>
          <leafValues>
            3.2049104571342468e-01 -6.8041197955608368e-02</leafValues></_>
        <_>
          <internalNodes>
            0 -1 389 -6.3005506992340088e-02</internalNodes>
          <leafValues>
            6.2259204685688019e-02 -3.8846683502197266e-01</leafValues></_>
        <_>
          <internalNodes>
            0 -1 610 -3.7539382465183735e-03</internalNodes>
          <leafValues>
            -8.7719637155532837e-01 2.0972821861505508e-02</leafValues></_>
        <_>
          <internalNodes>
            0 -1 363 -2.2739069536328316e-02</internalNodes>
          <leafValues>
            -5.1699537783861160e-02 4.7240108251571655e-01</leafValues></_>
        <_>
          <internalNodes>
            0 -1 506 -8.8111590594053268e-03</internalNodes>
          <leafValues>
            -5.1651996374130249e-01 5.1887385547161102e-02</leafValues></_>
        <_>
          <internalNodes>
            0 -1 438 -4.1057996451854706e-02</internalNodes>
          <leafValues>
            2.7267476916313171e-01 -8.6737371981143951e-02</leafValues></_>
        <_>
          <internalNodes>
            0 -1 512 -3.3485604217275977e-04</internalNodes>
          <leafValues>
            1.7776891589164734e-01 -1.4177811145782471e-01</leafValues></_></weakClassifiers></_>
    <!-- stage 13 -->
    <_>
      <maxWeakCount>48</maxWeakCount>
      <stageThreshold>-1.3399893045425415e+00</stageThreshold>
      <weakClassifiers>
        <_>
          <internalNodes>
            0 -1 290 -1.8470880389213562e-01</internalNodes>
          <leafValues>
            -7.1105653047561646e-01 -3.8045111298561096e-01</leafValues></_>
        <_>
          <internalNodes>
            0 -1 3 -6.8056538701057434e-02</internalNodes>
          <leafValues>
            8.6376056075096130e-02 -2.6903799176216125e-01</leafValues></_>
        <_>
          <internalNodes>
            0 -1 573 -2.8685033321380615e-03</internalNodes>
          <leafValues>
            1.0534752905368805e-01 -2.7606636285781860e-01</leafValues></_>
        <_>
          <internalNodes>
            0 -1 82 -1.9400988239794970e-03</internalNodes>
          <leafValues>
            -3.6891531944274902e-01 7.5267449021339417e-02</leafValues></_>
        <_>
          <internalNodes>
            0 -1 565 -1.3314198702573776e-02</internalNodes>
          <leafValues>
            1.2408383935689926e-01 -3.0623951554298401e-01</leafValues></_>
        <_>
          <internalNodes>
            0 -1 502 -1.2696534395217896e-01</internalNodes>
          <leafValues>
            -4.1844800114631653e-01 6.2718011438846588e-02</leafValues></_>
        <_>
          <internalNodes>
            0 -1 624 6.1780125834047794e-03</internalNodes>
          <leafValues>
            -1.4360952377319336e-01 1.8447747826576233e-01</leafValues></_>
        <_>
          <internalNodes>
            0 -1 296 4.7192338854074478e-02</internalNodes>
          <leafValues>
            -7.8061603009700775e-02 3.3785402774810791e-01</leafValues></_>
        <_>
          <internalNodes>
            0 -1 299 -9.8625328391790390e-03</internalNodes>
          <leafValues>
            3.9133390784263611e-01 -8.8202446699142456e-02</leafValues></_>
        <_>
          <internalNodes>
            0 -1 609 -9.5235146582126617e-03</internalNodes>
          <leafValues>
            -7.6662510633468628e-01 2.9890077188611031e-02</leafValues></_>
        <_>
          <internalNodes>
            0 -1 475 -2.3041024804115295e-02</internalNodes>
          <leafValues>
            2.0681101083755493e-01 -1.1041028052568436e-01</leafValues></_>
        <_>
          <internalNodes>
            0 -1 387 -1.0629234835505486e-02</internalNodes>
          <leafValues>
            5.3088092803955078e-01 -4.5912206172943115e-02</leafValues></_>
        <_>
          <internalNodes>
            0 -1 440 -1.7200391739606857e-03</internalNodes>
          <leafValues>
            1.6510577499866486e-01 -1.3401268422603607e-01</leafValues></_>
        <_>
          <internalNodes>
            0 -1 412 -5.0712795928120613e-03</internalNodes>
          <leafValues>
            1.9546408951282501e-01 -1.2138864398002625e-01</leafValues></_>
        <_>
          <internalNodes>
            0 -1 336 1.4407170936465263e-02</internalNodes>
          <leafValues>
            -6.8202741444110870e-02 3.9760980010032654e-01</leafValues></_>
        <_>
          <internalNodes>
            0 -1 28 -6.5569497644901276e-02</internalNodes>
          <leafValues>
            1.5830907225608826e-01 -1.6042417287826538e-01</leafValues></_>
        <_>
          <internalNodes>
            0 -1 261 1.8849412444978952e-03</internalNodes>
          <leafValues>
            3.9708495140075684e-02 -5.9944218397140503e-01</leafValues></_>
        <_>
          <internalNodes>
            0 -1 34 -2.7023915201425552e-02</internalNodes>
          <leafValues>
            -5.2570712566375732e-01 3.8389984518289566e-02</leafValues></_>
        <_>
          <internalNodes>
            0 -1 245 -3.1755593419075012e-01</internalNodes>
          <leafValues>
            3.0047369003295898e-01 -7.0983260869979858e-02</leafValues></_>
        <_>
          <internalNodes>
            0 -1 507 1.2959320098161697e-02</internalNodes>
          <leafValues>
            6.0200933367013931e-02 -3.6551684141159058e-01</leafValues></_>
        <_>
          <internalNodes>
            0 -1 116 -1.7319539189338684e-01</internalNodes>
          <leafValues>
            -4.8937630653381348e-01 4.0780071169137955e-02</leafValues></_>
        <_>
          <internalNodes>
            0 -1 132 -7.9849272966384888e-02</internalNodes>
          <leafValues>
            4.6330264210700989e-01 -4.8353198915719986e-02</leafValues></_>
        <_>
          <internalNodes>
            0 -1 95 4.7362942248582840e-02</internalNodes>
          <leafValues>
            2.6910986751317978e-02 -9.4898605346679688e-01</leafValues></_>
        <_>
          <internalNodes>
            0 -1 583 -9.0051274746656418e-03</internalNodes>
          <leafValues>
            1.6384052112698555e-02 -7.8217035531997681e-01</leafValues></_>
        <_>
          <internalNodes>
            0 -1 87 2.2129821591079235e-03</internalNodes>
          <leafValues>
            3.1234363093972206e-02 -5.4307240247726440e-01</leafValues></_>
        <_>
          <internalNodes>
            0 -1 194 -5.3981717675924301e-02</internalNodes>
          <leafValues>
            -7.3451316356658936e-01 2.1765515208244324e-02</leafValues></_>
        <_>
          <internalNodes>
            0 -1 509 1.0406108573079109e-02</internalNodes>
          <leafValues>
            2.3844875395298004e-02 -6.3150542974472046e-01</leafValues></_>
        <_>
          <internalNodes>
            0 -1 621 -1.9383733160793781e-03</internalNodes>
          <leafValues>
            2.9963830113410950e-01 -7.0285506546497345e-02</leafValues></_>
        <_>
          <internalNodes>
            0 -1 198 4.6846945770084858e-03</internalNodes>
          <leafValues>
            5.1797926425933838e-02 -3.8524365425109863e-01</leafValues></_>
        <_>
          <internalNodes>
            0 -1 247 -4.8347372561693192e-02</internalNodes>
          <leafValues>
            -7.0869766175746918e-02 2.9048398137092590e-01</leafValues></_>
        <_>
          <internalNodes>
            0 -1 400 -6.9274917244911194e-02</internalNodes>
          <leafValues>
            2.6902422308921814e-01 -8.0269783735275269e-02</leafValues></_>
        <_>
          <internalNodes>
            0 -1 101 -1.4658063650131226e-02</internalNodes>
          <leafValues>
            -6.8185603618621826e-01 2.9412016272544861e-02</leafValues></_>
        <_>
          <internalNodes>
            0 -1 129 -6.1942398548126221e-02</internalNodes>
          <leafValues>
            6.1284166574478149e-01 -3.6053668707609177e-02</leafValues></_>
        <_>
          <internalNodes>
            0 -1 50 -1.4628808945417404e-02</internalNodes>
          <leafValues>
            3.9719435572624207e-01 -4.7438554465770721e-02</leafValues></_>
        <_>
          <internalNodes>
            0 -1 474 -6.2665790319442749e-02</internalNodes>
          <leafValues>
            -2.6099842786788940e-01 7.2179764509201050e-02</leafValues></_>
        <_>
          <internalNodes>
            0 -1 432 -1.7430880665779114e-01</internalNodes>
          <leafValues>
            3.4402257204055786e-01 -7.4407026171684265e-02</leafValues></_>
        <_>
          <internalNodes>
            0 -1 588 3.3134273253381252e-03</internalNodes>
          <leafValues>
            2.7977947145700455e-02 -6.2710171937942505e-01</leafValues></_>
        <_>
          <internalNodes>
            0 -1 222 -2.0856969058513641e-02</internalNodes>
          <leafValues>
            6.3826531171798706e-01 -3.3751700073480606e-02</leafValues></_>
        <_>
          <internalNodes>
            0 -1 488 1.0768719948828220e-03</internalNodes>
          <leafValues>
            -6.9804146885871887e-02 2.7208694815635681e-01</leafValues></_>
        <_>
          <internalNodes>
            0 -1 516 -1.9384420011192560e-03</internalNodes>
          <leafValues>
            3.0721205472946167e-01 -6.3116841018199921e-02</leafValues></_>
        <_>
          <internalNodes>
            0 -1 481 -1.3674257323145866e-02</internalNodes>
          <leafValues>
            3.3755251765251160e-01 -5.6056987494230270e-02</leafValues></_>
        <_>
          <internalNodes>
            0 -1 463 -3.2320950180292130e-02</internalNodes>
          <leafValues>
            3.3033505082130432e-02 -6.2034046649932861e-01</leafValues></_>
        <_>
          <internalNodes>
            0 -1 231 1.5986643731594086e-02</internalNodes>
          <leafValues>
            3.1407848000526428e-02 -5.2361345291137695e-01</leafValues></_>
        <_>
          <internalNodes>
            0 -1 343 -9.4449520111083984e-03</internalNodes>
          <leafValues>
            6.4520108699798584e-01 -3.3171668648719788e-02</leafValues></_>
        <_>
          <internalNodes>
            0 -1 480 -1.5031469054520130e-02</internalNodes>
          <leafValues>
            -1.1199826747179031e-01 1.7180626094341278e-01</leafValues></_>
        <_>
          <internalNodes>
            0 -1 257 -3.9606569334864616e-03</internalNodes>
          <leafValues>
            -1.7910380661487579e-01 1.1360883712768555e-01</leafValues></_>
        <_>
          <internalNodes>
            0 -1 52 -2.4876035749912262e-03</internalNodes>
          <leafValues>
            4.1118349879980087e-02 -4.8811528086662292e-01</leafValues></_>
        <_>
          <internalNodes>
            0 -1 549 -3.4464104101061821e-03</internalNodes>
          <leafValues>
            -7.9865939915180206e-02 2.8202164173126221e-01</leafValues></_></weakClassifiers></_>
    <!-- stage 14 -->
    <_>
      <maxWeakCount>55</maxWeakCount>
      <stageThreshold>-1.4859721660614014e+00</stageThreshold>
      <weakClassifiers>
        <_>
          <internalNodes>
            0 -1 625 1.0879777371883392e-02</internalNodes>
          <leafValues>
            -6.9969666004180908e-01 -4.3767312169075012e-01</leafValues></_>
        <_>
          <internalNodes>
            0 -1 72 -2.5878059677779675e-03</internalNodes>
          <leafValues>
            8.1906542181968689e-03 -3.1663900613784790e-01</leafValues></_>
        <_>
          <internalNodes>
            0 -1 356 -2.9721641540527344e-01</internalNodes>
          <leafValues>
            -7.4630242586135864e-01 2.8143245726823807e-02</leafValues></_>
        <_>
          <internalNodes>
            0 -1 352 1.0052474215626717e-02</internalNodes>
          <leafValues>
            -5.0857689231634140e-02 3.6224326491355896e-01</leafValues></_>
        <_>
          <internalNodes>
            0 -1 546 -1.2416047975420952e-02</internalNodes>
          <leafValues>
            -1.0730639100074768e-01 2.1404184401035309e-01</leafValues></_>
        <_>
          <internalNodes>
            0 -1 634 -1.4912423677742481e-02</internalNodes>
          <leafValues>
            6.1477415263652802e-02 -3.4884801506996155e-01</leafValues></_>
        <_>
          <internalNodes>
            0 -1 637 -6.1041712760925293e-03</internalNodes>
          <leafValues>
            6.3908599317073822e-02 -4.7132951021194458e-01</leafValues></_>
        <_>
          <internalNodes>
            0 -1 535 8.9758657850325108e-04</internalNodes>
          <leafValues>
            -1.3872116804122925e-01 1.5000030398368835e-01</leafValues></_>
        <_>
          <internalNodes>
            0 -1 371 1.2125507928431034e-02</internalNodes>
          <leafValues>
            -9.8730362951755524e-02 2.2973617911338806e-01</leafValues></_>
        <_>
          <internalNodes>
            0 -1 436 -2.7457666583359241e-03</internalNodes>
          <leafValues>
            1.5100009739398956e-01 -1.3425719738006592e-01</leafValues></_>
        <_>
          <internalNodes>
            0 -1 301 -1.9104886054992676e-01</internalNodes>
          <leafValues>
            -1.5418577194213867e-01 1.3046027719974518e-01</leafValues></_>
        <_>
          <internalNodes>
            0 -1 266 -8.6177159100770950e-03</internalNodes>
          <leafValues>
            3.6024710536003113e-01 -6.1790753155946732e-02</leafValues></_>
        <_>
          <internalNodes>
            0 -1 323 -1.6061381995677948e-01</internalNodes>
          <leafValues>
            3.3284913748502731e-02 -7.5650715827941895e-01</leafValues></_>
        <_>
          <internalNodes>
            0 -1 347 -2.2065374068915844e-03</internalNodes>
          <leafValues>
            -2.6920032501220703e-01 6.6231288015842438e-02</leafValues></_>
        <_>
          <internalNodes>
            0 -1 390 3.3765965700149536e-01</internalNodes>
          <leafValues>
            1.9156765192747116e-02 -9.0162873268127441e-01</leafValues></_>
        <_>
          <internalNodes>
            0 -1 304 -1.7928737401962280e-01</internalNodes>
          <leafValues>
            -6.2200295925140381e-01 2.3880673572421074e-02</leafValues></_>
        <_>
          <internalNodes>
            0 -1 282 -6.7122265696525574e-02</internalNodes>
          <leafValues>
            -6.4193242788314819e-01 2.3916753008961678e-02</leafValues></_>
        <_>
          <internalNodes>
            0 -1 44 -1.7558333929628134e-03</internalNodes>
          <leafValues>
            1.4843433164060116e-02 -9.1095721721649170e-01</leafValues></_>
        <_>
          <internalNodes>
            0 -1 538 -5.7698423042893410e-03</internalNodes>
          <leafValues>
            2.8002321720123291e-01 -6.7859567701816559e-02</leafValues></_>
        <_>
          <internalNodes>
            0 -1 142 2.1531824022531509e-02</internalNodes>
          <leafValues>
            3.4859415143728256e-02 -5.4325151443481445e-01</leafValues></_>
        <_>
          <internalNodes>
            0 -1 499 2.8222056105732918e-02</internalNodes>
          <leafValues>
            -3.9513885974884033e-02 5.8832907676696777e-01</leafValues></_>
        <_>
          <internalNodes>
            0 -1 631 -1.3321922160685062e-03</internalNodes>
          <leafValues>
            -4.7809973359107971e-01 4.3314307928085327e-02</leafValues></_>
        <_>
          <internalNodes>
            0 -1 6 -4.9378942698240280e-02</internalNodes>
          <leafValues>
            -7.7918142080307007e-01 2.0890975371003151e-02</leafValues></_>
        <_>
          <internalNodes>
            0 -1 538 3.7302700802683830e-03</internalNodes>
          <leafValues>
            -8.3000965416431427e-02 2.4442322552204132e-01</leafValues></_>
        <_>
          <internalNodes>
            0 -1 219 -1.4126051682978868e-03</internalNodes>
          <leafValues>
            2.4510003626346588e-01 -7.8942790627479553e-02</leafValues></_>
        <_>
          <internalNodes>
            0 -1 200 -4.5630168169736862e-02</internalNodes>
          <leafValues>
            -8.4675174951553345e-01 2.2432493045926094e-02</leafValues></_>
        <_>
          <internalNodes>
            0 -1 214 -3.2560431957244873e-01</internalNodes>
          <leafValues>
            -8.5879582166671753e-01 1.5276054851710796e-02</leafValues></_>
        <_>
          <internalNodes>
            0 -1 375 2.9103707522153854e-02</internalNodes>
          <leafValues>
            3.4201130270957947e-02 -4.5400190353393555e-01</leafValues></_>
        <_>
          <internalNodes>
            0 -1 146 2.8487502131611109e-03</internalNodes>
          <leafValues>
            -7.4277378618717194e-02 2.4454398453235626e-01</leafValues></_>
        <_>
          <internalNodes>
            0 -1 156 -4.8145081847906113e-02</internalNodes>
          <leafValues>
            -8.0966484546661377e-01 2.3436987772583961e-02</leafValues></_>
        <_>
          <internalNodes>
            0 -1 560 2.7407624293118715e-03</internalNodes>
          <leafValues>
            2.2398781031370163e-02 -6.2936502695083618e-01</leafValues></_>
        <_>
          <internalNodes>
            0 -1 20 9.3346387147903442e-02</internalNodes>
          <leafValues>
            1.8926611170172691e-02 -7.3908430337905884e-01</leafValues></_>
        <_>
          <internalNodes>
            0 -1 322 -5.6356661021709442e-02</internalNodes>
          <leafValues>
            -5.2420798689126968e-02 4.1068276762962341e-01</leafValues></_>
        <_>
          <internalNodes>
            0 -1 441 -1.0483724623918533e-01</internalNodes>
          <leafValues>
            6.2686824798583984e-01 -3.0174512416124344e-02</leafValues></_>
        <_>
          <internalNodes>
            0 -1 527 1.3418843969702721e-02</internalNodes>
          <leafValues>
            3.8379400968551636e-02 -5.6083416938781738e-01</leafValues></_>
        <_>
          <internalNodes>
            0 -1 263 2.1803077310323715e-02</internalNodes>
          <leafValues>
            -4.9656167626380920e-02 4.1494745016098022e-01</leafValues></_>
        <_>
          <internalNodes>
            0 -1 253 -1.6595110297203064e-02</internalNodes>
          <leafValues>
            -3.7777704000473022e-01 5.7502668350934982e-02</leafValues></_>
        <_>
          <internalNodes>
            0 -1 626 -2.1160035394132137e-03</internalNodes>
          <leafValues>
            -1.8384841084480286e-01 1.0618150979280472e-01</leafValues></_>
        <_>
          <internalNodes>
            0 -1 42 -2.4967378005385399e-02</internalNodes>
          <leafValues>
            4.4834986329078674e-01 -4.1754588484764099e-02</leafValues></_>
        <_>
          <internalNodes>
            0 -1 122 -4.1959425434470177e-03</internalNodes>
          <leafValues>
            -3.5988691449165344e-01 6.1540320515632629e-02</leafValues></_>
        <_>
          <internalNodes>
            0 -1 519 6.8009910173714161e-03</internalNodes>
          <leafValues>
            -8.6939737200737000e-02 2.2707322239875793e-01</leafValues></_>
        <_>
          <internalNodes>
            0 -1 559 -3.2334960997104645e-03</internalNodes>
          <leafValues>
            -6.4385795593261719e-01 2.9781179502606392e-02</leafValues></_>
        <_>
          <internalNodes>
            0 -1 88 -3.5675314720720053e-03</internalNodes>
          <leafValues>
            -6.0746300220489502e-01 2.6174524798989296e-02</leafValues></_>
        <_>
          <internalNodes>
            0 -1 308 -4.5193340629339218e-03</internalNodes>
          <leafValues>
            2.5201722979545593e-01 -7.8769870102405548e-02</leafValues></_>
        <_>
          <internalNodes>
            0 -1 93 6.7407451570034027e-03</internalNodes>
          <leafValues>
            2.5967989116907120e-02 -7.1876233816146851e-01</leafValues></_>
        <_>
          <internalNodes>
            0 -1 197 1.0363636538386345e-03</internalNodes>
          <leafValues>
            -9.6339181065559387e-02 1.9484041631221771e-01</leafValues></_>
        <_>
          <internalNodes>
            0 -1 476 6.4031071960926056e-03</internalNodes>
          <leafValues>
            2.9705138877034187e-02 -6.2415802478790283e-01</leafValues></_>
        <_>
          <internalNodes>
            0 -1 397 -1.2098811566829681e-03</internalNodes>
          <leafValues>
            1.9500378519296646e-02 -7.6951915025711060e-01</leafValues></_>
        <_>
          <internalNodes>
            0 -1 556 -1.8128631636500359e-03</internalNodes>
          <leafValues>
            2.7743834257125854e-01 -7.1812048554420471e-02</leafValues></_>
        <_>
          <internalNodes>
            0 -1 212 -2.3087643086910248e-02</internalNodes>
          <leafValues>
            -3.4504409879446030e-02 5.2525049448013306e-01</leafValues></_>
        <_>
          <internalNodes>
            0 -1 593 1.2010327773168683e-03</internalNodes>
          <leafValues>
            5.3477447479963303e-02 -3.4235963225364685e-01</leafValues></_>
        <_>
          <internalNodes>
            0 -1 526 -4.2809274047613144e-02</internalNodes>
          <leafValues>
            -9.1042691469192505e-01 1.7515562474727631e-02</leafValues></_>
        <_>
          <internalNodes>
            0 -1 533 -1.0927425464615226e-03</internalNodes>
          <leafValues>
            2.0183070003986359e-01 -9.6435979008674622e-02</leafValues></_>
        <_>
          <internalNodes>
            0 -1 636 -3.8280142471194267e-03</internalNodes>
          <leafValues>
            -5.1313400268554688e-01 3.5399127751588821e-02</leafValues></_>
        <_>
          <internalNodes>
            0 -1 416 -9.5933731645345688e-03</internalNodes>
          <leafValues>
            -2.3021806776523590e-01 7.6056763529777527e-02</leafValues></_></weakClassifiers></_>
    <!-- stage 15 -->
    <_>
      <maxWeakCount>54</maxWeakCount>
      <stageThreshold>-1.4999393224716187e+00</stageThreshold>
      <weakClassifiers>
        <_>
          <internalNodes>
            0 -1 453 -1.6185320913791656e-02</internalNodes>
          <leafValues>
            6.0000002384185791e-01 -6.3880598545074463e-01</leafValues></_>
        <_>
          <internalNodes>
            0 -1 536 2.7626997325569391e-03</internalNodes>
          <leafValues>
            -3.1652358174324036e-01 1.2056425213813782e-02</leafValues></_>
        <_>
          <internalNodes>
            0 -1 7 -7.6412297785282135e-02</internalNodes>
          <leafValues>
            1.5212945640087128e-01 -1.6936077177524567e-01</leafValues></_>
        <_>
          <internalNodes>
            0 -1 380 -3.3921349793672562e-02</internalNodes>
          <leafValues>
            1.1237997561693192e-01 -1.9345743954181671e-01</leafValues></_>
        <_>
          <internalNodes>
            0 -1 418 -9.7049428150057793e-03</internalNodes>
          <leafValues>
            3.3501446247100830e-01 -4.1829373687505722e-02</leafValues></_>
        <_>
          <internalNodes>
            0 -1 456 -3.9529153145849705e-03</internalNodes>
          <leafValues>
            2.3681740462779999e-01 -9.4349138438701630e-02</leafValues></_>
        <_>
          <internalNodes>
            0 -1 0 1.1057462543249130e-03</internalNodes>
          <leafValues>
            9.0910881757736206e-02 -3.1855803728103638e-01</leafValues></_>
        <_>
          <internalNodes>
            0 -1 134 -1.6200026730075479e-03</internalNodes>
          <leafValues>
            1.6496333479881287e-01 -1.3777792453765869e-01</leafValues></_>
        <_>
          <internalNodes>
            0 -1 0 -2.1890552307013422e-04</internalNodes>
          <leafValues>
            -1.6970038414001465e-01 1.2125162780284882e-01</leafValues></_>
        <_>
          <internalNodes>
            0 -1 457 6.6552711650729179e-03</internalNodes>
          <leafValues>
            -6.5375238656997681e-02 3.1471410393714905e-01</leafValues></_>
        <_>
          <internalNodes>
            0 -1 136 1.2098144507035613e-03</internalNodes>
          <leafValues>
            3.9098463952541351e-02 -4.9478113651275635e-01</leafValues></_>
        <_>
          <internalNodes>
            0 -1 273 4.1686138138175011e-03</internalNodes>
          <leafValues>
            -1.0508988052606583e-01 1.8581813573837280e-01</leafValues></_>
        <_>
          <internalNodes>
            0 -1 478 1.3730198843404651e-03</internalNodes>
          <leafValues>
            9.1534107923507690e-02 -2.2400274872779846e-01</leafValues></_>
        <_>
          <internalNodes>
            0 -1 545 5.9136154595762491e-04</internalNodes>
          <leafValues>
            -8.3189211785793304e-02 2.8736725449562073e-01</leafValues></_>
        <_>
          <internalNodes>
            0 -1 608 -5.8090187609195709e-02</internalNodes>
          <leafValues>
            -6.2321627140045166e-01 3.2742500305175781e-02</leafValues></_>
        <_>
          <internalNodes>
            0 -1 437 -4.9644038081169128e-02</internalNodes>
          <leafValues>
            1.2948167324066162e-01 -1.6642042994499207e-01</leafValues></_>
        <_>
          <internalNodes>
            0 -1 316 -2.2741240262985229e-01</internalNodes>
          <leafValues>
            4.6825181692838669e-02 -4.0616783499717712e-01</leafValues></_>
        <_>
          <internalNodes>
            0 -1 408 -2.0089305937290192e-02</internalNodes>
          <leafValues>
            5.6117659807205200e-01 -4.2125999927520752e-02</leafValues></_>
        <_>
          <internalNodes>
            0 -1 17 -1.4823979698121548e-02</internalNodes>
          <leafValues>
            2.1475610136985779e-01 -1.0141732543706894e-01</leafValues></_>
        <_>
          <internalNodes>
            0 -1 490 -1.7261845991015434e-02</internalNodes>
          <leafValues>
            -7.9413697123527527e-02 2.9143697023391724e-01</leafValues></_>
        <_>
          <internalNodes>
            0 -1 33 4.5039188116788864e-03</internalNodes>
          <leafValues>
            5.5953949689865112e-02 -3.9613130688667297e-01</leafValues></_>
        <_>
          <internalNodes>
            0 -1 471 -8.0066397786140442e-03</internalNodes>
          <leafValues>
            2.8914916515350342e-01 -7.1513660252094269e-02</leafValues></_>
        <_>
          <internalNodes>
            0 -1 74 -2.7184565551578999e-03</internalNodes>
          <leafValues>
            -6.1395269632339478e-01 3.6046314984560013e-02</leafValues></_>
        <_>
          <internalNodes>
            0 -1 530 -8.2590743899345398e-02</internalNodes>
          <leafValues>
            -9.3437135219573975e-01 1.7263343557715416e-02</leafValues></_>
        <_>
          <internalNodes>
            0 -1 477 2.1263007074594498e-03</internalNodes>
          <leafValues>
            -1.2244930863380432e-01 1.8956354260444641e-01</leafValues></_>
        <_>
          <internalNodes>
            0 -1 342 6.3095251098275185e-03</internalNodes>
          <leafValues>
            3.6039564758539200e-02 -5.8496910333633423e-01</leafValues></_>
        <_>
          <internalNodes>
