<?xml version="1.0"?>
<opencv_storage>
<cascade>
  <stageType>BOOST</stageType>
  <featureType>HAAR</featureType>
  <height>20</height>
  <width>20</width>
  <stageParams>
    <boostType>GAB</boostType>
    <minHitRate>9.9500000476837158e-01</minHitRate>
    <maxFalseAlarm>5.0000000000000000e-01</maxFalseAlarm>
    <weightTrimRate>9.4999999999999996e-01</weightTrimRate>
    <maxDepth>1</maxDepth>
    <maxWeakCount>100</maxWeakCount></stageParams>
  <featureParams>
    <maxCatCount>0</maxCatCount>
    <featSize>1</featSize>
    <mode>BASIC</mode></featureParams>
  <stageNum>20</stageNum>
  <stages>
    <!-- stage 0 -->
    <_>
      <maxWeakCount>12</maxWeakCount>
      <stageThreshold>-2.2430279254913330e+00</stageThreshold>
      <weakClassifiers>
        <_>
          <internalNodes>
            0 -1 363 -1.3048031926155090e-01</internalNodes>
          <leafValues>
            -8.3962261676788330e-01 3.2234433293342590e-01</leafValues></_>
        <_>
          <internalNodes>
            0 -1 73 -1.4147694408893585e-01</internalNodes>
          <leafValues>
            1.8433763086795807e-01 -6.4335834980010986e-01</leafValues></_>
        <_>
          <internalNodes>
            0 -1 11 -2.5579400360584259e-02</internalNodes>
          <leafValues>
            4.1137799620628357e-01 -4.6465909481048584e-01</leafValues></_>
        <_>
          <internalNodes>
            0 -1 214 -2.7503985911607742e-02</internalNodes>
          <leafValues>
            3.8862752914428711e-01 -4.4116806983947754e-01</leafValues></_>
        <_>
          <internalNodes>
            0 -1 386 -7.0156767964363098e-02</internalNodes>
          <leafValues>
            -7.9518824815750122e-01 1.4347706735134125e-01</leafValues></_>
        <_>
          <internalNodes>
            0 -1 119 -6.0551259666681290e-03</internalNodes>
          <leafValues>
            4.0759694576263428e-01 -2.8126195073127747e-01</leafValues></_>
        <_>
          <internalNodes>
            0 -1 824 7.7621650416404009e-04</internalNodes>
          <leafValues>
            -3.2098516821861267e-01 2.9705473780632019e-01</leafValues></_>
        <_>
          <internalNodes>
            0 -1 402 -8.1536523997783661e-02</internalNodes>
          <leafValues>
            1.4360728859901428e-01 -5.7990890741348267e-01</leafValues></_>
        <_>
          <internalNodes>
            0 -1 437 2.4382691830396652e-02</internalNodes>
          <leafValues>
            -1.8997246026992798e-01 4.8845374584197998e-01</leafValues></_>
        <_>
          <internalNodes>
            0 -1 370 -2.9022403061389923e-02</internalNodes>
          <leafValues>
            4.3279477953910828e-01 -1.7634505033493042e-01</leafValues></_>
        <_>
          <internalNodes>
            0 -1 576 2.2001480683684349e-02</internalNodes>
          <leafValues>
            -1.1452794075012207e-01 5.7969474792480469e-01</leafValues></_>
        <_>
          <internalNodes>
            0 -1 481 -1.4219687879085541e-01</internalNodes>
          <leafValues>
            -2.0739181339740753e-01 3.3264872431755066e-01</leafValues></_></weakClassifiers></_>
    <!-- stage 1 -->
    <_>
      <maxWeakCount>12</maxWeakCount>
      <stageThreshold>-1.9377321004867554e+00</stageThreshold>
      <weakClassifiers>
        <_>
          <internalNodes>
            0 -1 363 -1.6871127486228943e-01</internalNodes>
          <leafValues>
            -8.7552112340927124e-01 1.1363636702299118e-01</leafValues></_>
        <_>
          <internalNodes>
            0 -1 482 -2.4853828549385071e-01</internalNodes>
          <leafValues>
            -7.4357908964157104e-01 4.4455099850893021e-02</leafValues></_>
        <_>
          <internalNodes>
            0 -1 107 -2.9963636770844460e-03</internalNodes>
          <leafValues>
            2.8712010383605957e-01 -3.4855547547340393e-01</leafValues></_>
        <_>
          <internalNodes>
            0 -1 35 1.8494749069213867e-01</internalNodes>
          <leafValues>
            1.0181795805692673e-01 -8.6175251007080078e-01</leafValues></_>
        <_>
          <internalNodes>
            0 -1 356 -1.1255845427513123e-01</internalNodes>
          <leafValues>
            -7.7605074644088745e-01 1.1792845278978348e-01</leafValues></_>
        <_>
          <internalNodes>
            0 -1 821 3.9254352450370789e-03</internalNodes>
          <leafValues>
            -2.1612690389156342e-01 4.0493035316467285e-01</leafValues></_>
        <_>
          <internalNodes>
            0 -1 34 -1.2643134593963623e-01</internalNodes>
          <leafValues>
            1.4546672999858856e-01 -5.5297601222991943e-01</leafValues></_>
        <_>
          <internalNodes>
            0 -1 523 -5.5105999112129211e-02</internalNodes>
          <leafValues>
            2.9549616575241089e-01 -2.5830334424972534e-01</leafValues></_>
        <_>
          <internalNodes>
            0 -1 76 -1.2101637199521065e-02</internalNodes>
          <leafValues>
            1.9634337723255157e-01 -4.0930059552192688e-01</leafValues></_>
        <_>
          <internalNodes>
            0 -1 416 -2.1786637604236603e-02</internalNodes>
          <leafValues>
            4.4065788388252258e-01 -1.7613774538040161e-01</leafValues></_>
        <_>
          <internalNodes>
            0 -1 708 2.2132904268801212e-03</internalNodes>
          <leafValues>
            -1.1357717216014862e-01 5.6397885084152222e-01</leafValues></_>
        <_>
          <internalNodes>
            0 -1 704 -1.5311915194615722e-03</internalNodes>
          <leafValues>
            5.0146746635437012e-01 -1.3024142384529114e-01</leafValues></_></weakClassifiers></_>
    <!-- stage 2 -->
    <_>
      <maxWeakCount>18</maxWeakCount>
      <stageThreshold>-1.9819320440292358e+00</stageThreshold>
      <weakClassifiers>
        <_>
          <internalNodes>
            0 -1 364 -1.1636079847812653e-01</internalNodes>
          <leafValues>
            -7.9833334684371948e-01 4.3636362999677658e-02</leafValues></_>
        <_>
          <internalNodes>
            0 -1 524 4.5581463724374771e-02</internalNodes>
          <leafValues>
            -5.3335094451904297e-01 1.1569931358098984e-01</leafValues></_>
        <_>
          <internalNodes>
            0 -1 229 -8.9026242494583130e-02</internalNodes>
          <leafValues>
            2.6997622847557068e-01 -4.3521273136138916e-01</leafValues></_>
        <_>
          <internalNodes>
            0 -1 33 -3.1392991542816162e-02</internalNodes>
          <leafValues>
            2.2243121266365051e-01 -4.1758990287780762e-01</leafValues></_>
        <_>
          <internalNodes>
            0 -1 70 -1.6294777393341064e-02</internalNodes>
          <leafValues>
            2.4022850394248962e-01 -3.7048161029815674e-01</leafValues></_>
        <_>
          <internalNodes>
            0 -1 813 7.4669276364147663e-03</internalNodes>
          <leafValues>
            -2.3193623125553131e-01 3.4777599573135376e-01</leafValues></_>
        <_>
          <internalNodes>
            0 -1 134 -8.9095928706228733e-04</internalNodes>
          <leafValues>
            2.4429297447204590e-01 -3.0750766396522522e-01</leafValues></_>
        <_>
          <internalNodes>
            0 -1 368 1.4691902324557304e-02</internalNodes>
          <leafValues>
            -1.1585929989814758e-01 5.2326840162277222e-01</leafValues></_>
        <_>
          <internalNodes>
            0 -1 423 -1.9892394542694092e-02</internalNodes>
          <leafValues>
            3.3126950263977051e-01 -2.1741613745689392e-01</leafValues></_>
        <_>
          <internalNodes>
            0 -1 834 -6.0081001371145248e-02</internalNodes>
          <leafValues>
            -9.1410934925079346e-01 7.4407361447811127e-02</leafValues></_>
        <_>
          <internalNodes>
            0 -1 662 4.6074548736214638e-03</internalNodes>
          <leafValues>
            -1.9750285148620605e-01 3.4192883968353271e-01</leafValues></_>
        <_>
          <internalNodes>
            0 -1 538 1.0208445601165295e-02</internalNodes>
          <leafValues>
            -1.1355607956647873e-01 5.1143729686737061e-01</leafValues></_>
        <_>
          <internalNodes>
            0 -1 10 -4.5900039374828339e-02</internalNodes>
          <leafValues>
            3.2804509997367859e-01 -1.8515639007091522e-01</leafValues></_>
        <_>
          <internalNodes>
            0 -1 530 7.5066715478897095e-02</internalNodes>
          <leafValues>
            5.8203555643558502e-02 -8.0341678857803345e-01</leafValues></_>
        <_>
          <internalNodes>
            0 -1 122 -2.8884215280413628e-03</internalNodes>
          <leafValues>
            1.9317296147346497e-01 -2.2414346039295197e-01</leafValues></_>
        <_>
          <internalNodes>
            0 -1 358 -3.1488108634948730e-01</internalNodes>
          <leafValues>
            -3.5870534181594849e-01 1.3887366652488708e-01</leafValues></_>
        <_>
          <internalNodes>
            0 -1 685 -3.2870579510927200e-02</internalNodes>
          <leafValues>
            2.5108069181442261e-01 -2.1181859076023102e-01</leafValues></_>
        <_>
          <internalNodes>
            0 -1 597 -2.5876578874886036e-03</internalNodes>
          <leafValues>
            3.1859490275382996e-01 -1.3389882445335388e-01</leafValues></_></weakClassifiers></_>
    <!-- stage 3 -->
    <_>
      <maxWeakCount>19</maxWeakCount>
      <stageThreshold>-1.9095234870910645e+00</stageThreshold>
      <weakClassifiers>
        <_>
          <internalNodes>
            0 -1 440 4.1384089738130569e-02</internalNodes>
          <leafValues>
            -7.7963274717330933e-01 -8.6330935359001160e-02</leafValues></_>
        <_>
          <internalNodes>
            0 -1 644 -2.6583991944789886e-02</internalNodes>
          <leafValues>
            8.6585551500320435e-02 -4.9150845408439636e-01</leafValues></_>
        <_>
          <internalNodes>
            0 -1 74 -1.6991093754768372e-01</internalNodes>
          <leafValues>
            2.2822143137454987e-01 -3.5948830842971802e-01</leafValues></_>
        <_>
          <internalNodes>
            0 -1 260 -3.6458924412727356e-02</internalNodes>
          <leafValues>
            3.2039177417755127e-01 -3.2524117827415466e-01</leafValues></_>
        <_>
          <internalNodes>
            0 -1 40 -2.0488280802965164e-02</internalNodes>
          <leafValues>
            2.8155571222305298e-01 -2.9999068379402161e-01</leafValues></_>
        <_>
          <internalNodes>
            0 -1 118 -1.0497781913727522e-03</internalNodes>
          <leafValues>
            2.3105356097221375e-01 -3.3162301778793335e-01</leafValues></_>
        <_>
          <internalNodes>
            0 -1 780 -5.0885103642940521e-02</internalNodes>
          <leafValues>
            1.0709366202354431e-01 -7.4148505926132202e-01</leafValues></_>
        <_>
          <internalNodes>
            0 -1 159 -4.6904563903808594e-01</internalNodes>
          <leafValues>
            -5.9365975856781006e-01 1.2283768504858017e-01</leafValues></_>
        <_>
          <internalNodes>
            0 -1 794 6.0480542015284300e-04</internalNodes>
          <leafValues>
            -2.4441897869110107e-01 2.6000088453292847e-01</leafValues></_>
        <_>
          <internalNodes>
            0 -1 392 2.7175764553248882e-03</internalNodes>
          <leafValues>
            -1.4952237904071808e-01 4.0688776969909668e-01</leafValues></_>
        <_>
          <internalNodes>
            0 -1 346 9.5908297225832939e-04</internalNodes>
          <leafValues>
            -1.6214498877525330e-01 3.8537594676017761e-01</leafValues></_>
        <_>
          <internalNodes>
            0 -1 449 -2.4300547316670418e-02</internalNodes>
          <leafValues>
            2.4649105966091156e-01 -2.1689997613430023e-01</leafValues></_>
        <_>
          <internalNodes>
            0 -1 500 -6.2342742457985878e-03</internalNodes>
          <leafValues>
            5.1625639200210571e-01 -1.2593916058540344e-01</leafValues></_>
        <_>
          <internalNodes>
            0 -1 253 -6.0105142183601856e-03</internalNodes>
          <leafValues>
            2.7901694178581238e-01 -2.0686109364032745e-01</leafValues></_>
        <_>
          <internalNodes>
            0 -1 680 -2.8988635167479515e-03</internalNodes>
          <leafValues>
            4.0297847986221313e-01 -1.4400552213191986e-01</leafValues></_>
        <_>
          <internalNodes>
            0 -1 2 -1.7410188913345337e-02</internalNodes>
          <leafValues>
            7.6276622712612152e-02 -7.4752974510192871e-01</leafValues></_>
        <_>
          <internalNodes>
            0 -1 420 -9.1290161013603210e-02</internalNodes>
          <leafValues>
            -2.2789794206619263e-01 2.1833445131778717e-01</leafValues></_>
        <_>
          <internalNodes>
            0 -1 78 -3.0908877030014992e-02</internalNodes>
          <leafValues>
            3.8162374496459961e-01 -1.4968553185462952e-01</leafValues></_>
        <_>
          <internalNodes>
            0 -1 342 -2.9907825589179993e-01</internalNodes>
          <leafValues>
            -7.4709784984588623e-01 8.2165867090225220e-02</leafValues></_></weakClassifiers></_>
    <!-- stage 4 -->
    <_>
      <maxWeakCount>28</maxWeakCount>
      <stageThreshold>-1.8984485864639282e+00</stageThreshold>
      <weakClassifiers>
        <_>
          <internalNodes>
            0 -1 318 -1.5002228319644928e-01</internalNodes>
          <leafValues>
            -8.0619686841964722e-01 -2.2843822836875916e-01</leafValues></_>
        <_>
          <internalNodes>
            0 -1 317 -2.0963710546493530e-01</internalNodes>
          <leafValues>
            -6.1525434255599976e-01 -3.9673615247011185e-02</leafValues></_>
        <_>
          <internalNodes>
            0 -1 577 -2.5629360228776932e-02</internalNodes>
          <leafValues>
            2.1595717966556549e-01 -2.8978270292282104e-01</leafValues></_>
        <_>
          <internalNodes>
            0 -1 739 3.9314790628850460e-03</internalNodes>
          <leafValues>
            -2.5715592503547668e-01 2.2611325979232788e-01</leafValues></_>
        <_>
          <internalNodes>
            0 -1 463 -4.9838066101074219e-02</internalNodes>
          <leafValues>
            1.0171522200107574e-01 -6.4489072561264038e-01</leafValues></_>
        <_>
          <internalNodes>
            0 -1 607 -1.8915780819952488e-03</internalNodes>
          <leafValues>
            3.8293516635894775e-01 -1.3238605856895447e-01</leafValues></_>
        <_>
          <internalNodes>
            0 -1 606 1.4502945123240352e-03</internalNodes>
          <leafValues>
            -1.2079671770334244e-01 4.0385919809341431e-01</leafValues></_>
        <_>
          <internalNodes>
            0 -1 603 -1.2516701593995094e-02</internalNodes>
          <leafValues>
            3.2009950280189514e-01 -1.3557511568069458e-01</leafValues></_>
        <_>
          <internalNodes>
            0 -1 688 -2.5353267788887024e-02</internalNodes>
          <leafValues>
            -8.0053251981735229e-01 4.9400351941585541e-02</leafValues></_>
        <_>
          <internalNodes>
            0 -1 106 -7.8319683670997620e-03</internalNodes>
          <leafValues>
            3.9308133721351624e-01 -1.1593369394540787e-01</leafValues></_>
        <_>
          <internalNodes>
            0 -1 498 3.1912722624838352e-03</internalNodes>
          <leafValues>
            -1.2800569832324982e-01 3.4713464975357056e-01</leafValues></_>
        <_>
          <internalNodes>
            0 -1 376 -7.2333971038460732e-03</internalNodes>
          <leafValues>
            4.1240531206130981e-01 -1.0525972396135330e-01</leafValues></_>
        <_>
          <internalNodes>
            0 -1 79 -1.9165357947349548e-01</internalNodes>
          <leafValues>
            2.5834122300148010e-01 -1.7233215272426605e-01</leafValues></_>
        <_>
          <internalNodes>
            0 -1 55 2.0919494330883026e-02</internalNodes>
          <leafValues>
            -2.3096586763858795e-01 2.0676827430725098e-01</leafValues></_>
        <_>
          <internalNodes>
            0 -1 268 -4.8426542431116104e-02</internalNodes>
          <leafValues>
            3.6034002900123596e-01 -1.2020885199308395e-01</leafValues></_>
        <_>
          <internalNodes>
            0 -1 262 -1.9302645698189735e-02</internalNodes>
          <leafValues>
            4.0724551677703857e-01 -1.3196453452110291e-01</leafValues></_>
        <_>
          <internalNodes>
            0 -1 517 4.7197844833135605e-03</internalNodes>
          <leafValues>
            -7.7485933899879456e-02 5.0188380479812622e-01</leafValues></_>
        <_>
          <internalNodes>
            0 -1 137 4.2962403967976570e-03</internalNodes>
          <leafValues>
            -2.0959180593490601e-01 1.8773235380649567e-01</leafValues></_>
        <_>
          <internalNodes>
            0 -1 26 -1.4261594414710999e-01</internalNodes>
          <leafValues>
            -6.5008848905563354e-01 5.5305793881416321e-02</leafValues></_>
        <_>
          <internalNodes>
            0 -1 213 -1.7909032106399536e-01</internalNodes>
          <leafValues>
            -8.0881309509277344e-01 3.8741607218980789e-02</leafValues></_>
        <_>
          <internalNodes>
            0 -1 458 -4.0867286734282970e-03</internalNodes>
          <leafValues>
            3.4767943620681763e-01 -1.2299967557191849e-01</leafValues></_>
        <_>
          <internalNodes>
            0 -1 144 -7.0510268211364746e-02</internalNodes>
          <leafValues>
            2.6605069637298584e-01 -1.3557244837284088e-01</leafValues></_>
        <_>
          <internalNodes>
            0 -1 170 -1.6739758849143982e-01</internalNodes>
          <leafValues>
            2.0106863975524902e-01 -1.9423371553421021e-01</leafValues></_>
        <_>
          <internalNodes>
            0 -1 763 1.4532019384205341e-02</internalNodes>
          <leafValues>
            -2.0587500929832458e-01 2.4493640661239624e-01</leafValues></_>
        <_>
          <internalNodes>
            0 -1 337 -6.5656704828143120e-03</internalNodes>
          <leafValues>
            3.6846131086349487e-01 -1.0107765346765518e-01</leafValues></_>
        <_>
          <internalNodes>
            0 -1 90 -3.6528892815113068e-03</internalNodes>
          <leafValues>
            1.5762048959732056e-01 -2.4331572651863098e-01</leafValues></_>
        <_>
          <internalNodes>
            0 -1 637 5.4623093456029892e-03</internalNodes>
          <leafValues>
            -8.4979735314846039e-02 4.3258696794509888e-01</leafValues></_>
        <_>
          <internalNodes>
            0 -1 477 4.8975169658660889e-02</internalNodes>
          <leafValues>
            6.1739206314086914e-02 -7.0801818370819092e-01</leafValues></_></weakClassifiers></_>
    <!-- stage 5 -->
    <_>
      <maxWeakCount>33</maxWeakCount>
      <stageThreshold>-1.7353982925415039e+00</stageThreshold>
      <weakClassifiers>
        <_>
          <internalNodes>
            0 -1 266 -2.3089644312858582e-01</internalNodes>
          <leafValues>
            -8.0576628446578979e-01 -4.7952443361282349e-01</leafValues></_>
        <_>
          <internalNodes>
            0 -1 666 3.0599473044276237e-02</internalNodes>
          <leafValues>
            -3.7668082118034363e-01 1.4018063247203827e-01</leafValues></_>
        <_>
          <internalNodes>
            0 -1 825 4.2125666514039040e-03</internalNodes>
          <leafValues>
            -1.9599780440330505e-01 2.9970809817314148e-01</leafValues></_>
        <_>
          <internalNodes>
            0 -1 417 -1.8278960138559341e-02</internalNodes>
          <leafValues>
            2.2085596621036530e-01 -2.4935476481914520e-01</leafValues></_>
        <_>
          <internalNodes>
            0 -1 15 -3.8495379686355591e-01</internalNodes>
          <leafValues>
            1.8534412980079651e-01 -3.8636460900306702e-01</leafValues></_>
        <_>
          <internalNodes>
            0 -1 94 -2.3156106472015381e-01</internalNodes>
          <leafValues>
            -2.8073751926422119e-01 2.1476823091506958e-01</leafValues></_>
        <_>
          <internalNodes>
            0 -1 134 -1.0191181208938360e-03</internalNodes>
          <leafValues>
            1.6580350697040558e-01 -2.6226755976676941e-01</leafValues></_>
        <_>
          <internalNodes>
            0 -1 430 4.7392845153808594e-02</internalNodes>
          <leafValues>
            -8.7819851934909821e-02 5.3136473894119263e-01</leafValues></_>
        <_>
          <internalNodes>
            0 -1 438 -1.5054476447403431e-02</internalNodes>
          <leafValues>
            5.8403152227401733e-01 -6.9961681962013245e-02</leafValues></_>
        <_>
          <internalNodes>
            0 -1 160 -2.3267727345228195e-02</internalNodes>
          <leafValues>
            2.1059241890907288e-01 -2.0298896729946136e-01</leafValues></_>
        <_>
          <internalNodes>
            0 -1 718 -1.7399784177541733e-02</internalNodes>
          <leafValues>
            1.7998279631137848e-01 -2.3565594851970673e-01</leafValues></_>
        <_>
          <internalNodes>
            0 -1 460 -1.1436590924859047e-02</internalNodes>
          <leafValues>
            3.3414325118064880e-01 -1.2028669565916061e-01</leafValues></_>
        <_>
          <internalNodes>
            0 -1 517 1.9745621830224991e-03</internalNodes>
          <leafValues>
            -1.2963120639324188e-01 3.4836781024932861e-01</leafValues></_>
        <_>
          <internalNodes>
            0 -1 518 2.3375768214464188e-03</internalNodes>
          <leafValues>
            -1.0920967161655426e-01 3.0112734436988831e-01</leafValues></_>
        <_>
          <internalNodes>
            0 -1 372 -2.6592221111059189e-02</internalNodes>
          <leafValues>
            4.7109764069318771e-02 -6.7701369524002075e-01</leafValues></_>
        <_>
          <internalNodes>
            0 -1 175 -1.2050481885671616e-01</internalNodes>
          <leafValues>
            -4.0590503811836243e-01 7.2052128612995148e-02</leafValues></_>
        <_>
          <internalNodes>
            0 -1 798 -4.2524309828877449e-03</internalNodes>
          <leafValues>
            5.2590869367122650e-02 -5.8606600761413574e-01</leafValues></_>
        <_>
          <internalNodes>
            0 -1 528 1.5023511368781328e-03</internalNodes>
          <leafValues>
            -1.4388710260391235e-01 2.3917745053768158e-01</leafValues></_>
        <_>
          <internalNodes>
            0 -1 840 -4.9479659646749496e-03</internalNodes>
          <leafValues>
            -5.7845091819763184e-01 5.2416879683732986e-02</leafValues></_>
        <_>
          <internalNodes>
            0 -1 255 -1.8728864192962646e-01</internalNodes>
          <leafValues>
            -8.2800763845443726e-01 2.9648544266819954e-02</leafValues></_>
        <_>
          <internalNodes>
            0 -1 365 -1.0079745203256607e-02</internalNodes>
          <leafValues>
            2.2416435182094574e-01 -1.3786728680133820e-01</leafValues></_>
        <_>
          <internalNodes>
            0 -1 618 1.8517956137657166e-02</internalNodes>
          <leafValues>
            -8.4658756852149963e-02 4.2398113012313843e-01</leafValues></_>
        <_>
          <internalNodes>
            0 -1 140 -3.4323927015066147e-02</internalNodes>
          <leafValues>
            2.9642480611801147e-01 -1.2565228343009949e-01</leafValues></_>
        <_>
          <internalNodes>
            0 -1 622 -2.5593440979719162e-02</internalNodes>
          <leafValues>
            -1.0216467082500458e-01 3.0742719769477844e-01</leafValues></_>
        <_>
          <internalNodes>
            0 -1 693 -1.0904924012720585e-02</internalNodes>
          <leafValues>
            3.6980801820755005e-01 -9.4364941120147705e-02</leafValues></_>
        <_>
          <internalNodes>
            0 -1 743 1.2560113333165646e-02</internalNodes>
          <leafValues>
            -1.5123479068279266e-01 2.0785056054592133e-01</leafValues></_>
        <_>
          <internalNodes>
            0 -1 639 9.3580633401870728e-03</internalNodes>
          <leafValues>
            -8.7940223515033722e-02 3.7994766235351563e-01</leafValues></_>
        <_>
          <internalNodes>
            0 -1 174 -6.2035545706748962e-02</internalNodes>
          <leafValues>
            1.7770664393901825e-01 -1.6540284454822540e-01</leafValues></_>
        <_>
          <internalNodes>
            0 -1 129 -5.2659004926681519e-02</internalNodes>
          <leafValues>
            3.9997071027755737e-01 -9.3438923358917236e-02</leafValues></_>
        <_>
          <internalNodes>
            0 -1 281 -4.3545171618461609e-02</internalNodes>
          <leafValues>
            4.0933042764663696e-01 -7.2685152292251587e-02</leafValues></_>
        <_>
          <internalNodes>
            0 -1 252 -8.7600007653236389e-02</internalNodes>
          <leafValues>
            2.5449672341346741e-01 -1.2059947103261948e-01</leafValues></_>
        <_>
          <internalNodes>
            0 -1 486 -9.8481494933366776e-04</internalNodes>
          <leafValues>
            1.7982040345668793e-01 -1.5886452794075012e-01</leafValues></_>
        <_>
          <internalNodes>
            0 -1 218 9.6568185836076736e-03</internalNodes>
          <leafValues>
            -7.6042518019676208e-02 4.5514389872550964e-01</leafValues></_></weakClassifiers></_>
    <!-- stage 6 -->
    <_>
      <maxWeakCount>40</maxWeakCount>
      <stageThreshold>-1.7607314586639404e+00</stageThreshold>
      <weakClassifiers>
        <_>
          <internalNodes>
            0 -1 501 1.7524186521768570e-02</internalNodes>
          <leafValues>
            -7.4483531713485718e-01 -3.2042253017425537e-01</leafValues></_>
        <_>
          <internalNodes>
            0 -1 51 -2.8962403535842896e-01</internalNodes>
          <leafValues>
            2.1769989281892776e-02 -4.6008032560348511e-01</leafValues></_>
        <_>
          <internalNodes>
            0 -1 492 1.6623975709080696e-02</internalNodes>
          <leafValues>
            -2.3808892071247101e-01 2.1129046380519867e-01</leafValues></_>
        <_>
          <internalNodes>
            0 -1 13 -8.7298870086669922e-02</internalNodes>
          <leafValues>
            3.4064817428588867e-01 -1.3968805968761444e-01</leafValues></_>
        <_>
          <internalNodes>
            0 -1 826 5.0585054850671440e-05</internalNodes>
          <leafValues>
            -2.4122394621372223e-01 2.0805291831493378e-01</leafValues></_>
        <_>
          <internalNodes>
            0 -1 280 2.2407781332731247e-02</internalNodes>
          <leafValues>
            -9.0471476316452026e-02 4.8753425478935242e-01</leafValues></_>
        <_>
          <internalNodes>
            0 -1 107 -4.2370748706161976e-03</internalNodes>
          <leafValues>
            2.2265286743640900e-01 -1.7524507641792297e-01</leafValues></_>
        <_>
          <internalNodes>
            0 -1 131 -1.0047140531241894e-03</internalNodes>
          <leafValues>
            -4.3981680274009705e-01 8.5315600037574768e-02</leafValues></_>
        <_>
          <internalNodes>
            0 -1 808 -2.2644419223070145e-02</internalNodes>
          <leafValues>
            3.0733576416969299e-01 -1.0842825472354889e-01</leafValues></_>
        <_>
          <internalNodes>
            0 -1 426 -1.5244653448462486e-02</internalNodes>
          <leafValues>
            3.7188369035720825e-01 -7.6768592000007629e-02</leafValues></_>
        <_>
          <internalNodes>
            0 -1 212 -5.3698636591434479e-02</internalNodes>
          <leafValues>
            1.7359836399555206e-01 -2.3332013189792633e-01</leafValues></_>
        <_>
          <internalNodes>
            0 -1 503 -3.4211422316730022e-03</internalNodes>
          <leafValues>
            3.5328006744384766e-01 -1.0461087524890900e-01</leafValues></_>
        <_>
          <internalNodes>
            0 -1 588 -6.4397051930427551e-02</internalNodes>
          <leafValues>
            2.3203110694885254e-01 -1.9442020356655121e-01</leafValues></_>
        <_>
          <internalNodes>
            0 -1 146 -8.0745679140090942e-01</internalNodes>
          <leafValues>
            -5.0703120231628418e-01 6.9877840578556061e-02</leafValues></_>
        <_>
          <internalNodes>
            0 -1 445 5.4425071924924850e-02</internalNodes>
          <leafValues>
            -8.7300233542919159e-02 3.8911616802215576e-01</leafValues></_>
        <_>
          <internalNodes>
            0 -1 103 4.7996841371059418e-02</internalNodes>
          <leafValues>
            -8.7308526039123535e-02 3.4693637490272522e-01</leafValues></_>
        <_>
          <internalNodes>
            0 -1 646 -1.8452012445777655e-03</internalNodes>
          <leafValues>
            3.4044566750526428e-01 -8.9581996202468872e-02</leafValues></_>
        <_>
          <internalNodes>
            0 -1 646 1.4273740816861391e-03</internalNodes>
          <leafValues>
            -9.4168595969676971e-02 3.3296015858650208e-01</leafValues></_>
        <_>
          <internalNodes>
            0 -1 132 5.2570214029401541e-04</internalNodes>
          <leafValues>
            8.9192733168601990e-02 -3.5940182209014893e-01</leafValues></_>
        <_>
          <internalNodes>
            0 -1 3 -7.4551170691847801e-03</internalNodes>
          <leafValues>
            1.0843399912118912e-01 -2.6355013251304626e-01</leafValues></_>
        <_>
          <internalNodes>
            0 -1 466 -2.4694264866411686e-03</internalNodes>
          <leafValues>
            2.4727813899517059e-01 -1.0666818916797638e-01</leafValues></_>
        <_>
          <internalNodes>
            0 -1 470 1.0234755463898182e-03</internalNodes>
          <leafValues>
            -1.0582958161830902e-01 2.6681861281394958e-01</leafValues></_>
        <_>
          <internalNodes>
            0 -1 401 -6.6097569651901722e-03</internalNodes>
          <leafValues>
            -3.1722518801689148e-01 8.4669537842273712e-02</leafValues></_>
        <_>
          <internalNodes>
            0 -1 536 4.4266387820243835e-02</internalNodes>
          <leafValues>
            -6.3532307744026184e-02 4.4931724667549133e-01</leafValues></_>
        <_>
          <internalNodes>
            0 -1 309 -3.3114232122898102e-02</internalNodes>
          <leafValues>
            1.6508170962333679e-01 -1.8512722849845886e-01</leafValues></_>
        <_>
          <internalNodes>
            0 -1 17 8.4904469549655914e-03</internalNodes>
          <leafValues>
            5.3112827241420746e-02 -5.2925246953964233e-01</leafValues></_>
        <_>
          <internalNodes>
            0 -1 367 -9.5334820449352264e-02</internalNodes>
          <leafValues>
            4.3762505054473877e-02 -5.6993019580841064e-01</leafValues></_>
        <_>
          <internalNodes>
            0 -1 554 -1.0409427806735039e-02</internalNodes>
          <leafValues>
            -1.4522497355937958e-01 2.0208866894245148e-01</leafValues></_>
        <_>
          <internalNodes>
            0 -1 811 9.6432771533727646e-03</internalNodes>
          <leafValues>
            -1.0133354365825653e-01 2.9885256290435791e-01</leafValues></_>
        <_>
          <internalNodes>
            0 -1 597 -2.4600070901215076e-03</internalNodes>
          <leafValues>
            2.4736668169498444e-01 -1.1020046472549438e-01</leafValues></_>
        <_>
          <internalNodes>
            0 -1 596 -4.7280674334615469e-04</internalNodes>
          <leafValues>
            1.9402822852134705e-01 -1.3577106595039368e-01</leafValues></_>
        <_>
          <internalNodes>
            0 -1 841 -9.4846845604479313e-04</internalNodes>
          <leafValues>
            -3.7205073237419128e-01 6.8829149007797241e-02</leafValues></_>
        <_>
          <internalNodes>
            0 -1 454 1.8361099064350128e-02</internalNodes>
          <leafValues>
            5.1400918513536453e-02 -4.8305520415306091e-01</leafValues></_>
        <_>
          <internalNodes>
            0 -1 697 1.5551943331956863e-02</internalNodes>
          <leafValues>
            -1.0649173706769943e-01 2.5895339250564575e-01</leafValues></_>
        <_>
          <internalNodes>
            0 -1 286 -1.7495498061180115e-02</internalNodes>
          <leafValues>
            -2.4993485212326050e-01 1.1343958973884583e-01</leafValues></_>
        <_>
          <internalNodes>
            0 -1 21 -4.5839697122573853e-02</internalNodes>
          <leafValues>
            1.4540727436542511e-01 -1.7766636610031128e-01</leafValues></_>
        <_>
          <internalNodes>
            0 -1 709 7.6520297443494201e-04</internalNodes>
          <leafValues>
            -1.0977385938167572e-01 2.4071165919303894e-01</leafValues></_>
        <_>
          <internalNodes>
            0 -1 271 5.4610580205917358e-02</internalNodes>
          <leafValues>
            -8.7651781737804413e-02 3.6022520065307617e-01</leafValues></_>
        <_>
          <internalNodes>
            0 -1 405 1.0891543701291084e-02</internalNodes>
          <leafValues>
            -9.2245429754257202e-02 2.9804956912994385e-01</leafValues></_>
        <_>
          <internalNodes>
            0 -1 667 3.0071034561842680e-03</internalNodes>
          <leafValues>
            -9.1155886650085449e-02 2.8657114505767822e-01</leafValues></_></weakClassifiers></_>
    <!-- stage 7 -->
    <_>
      <maxWeakCount>43</maxWeakCount>
      <stageThreshold>-1.7009208202362061e+00</stageThreshold>
      <weakClassifiers>
        <_>
          <internalNodes>
            0 -1 432 -1.1306015402078629e-01</internalNodes>
          <leafValues>
            -8.1422019004821777e-01 -4.6936115622520447e-01</leafValues></_>
        <_>
          <internalNodes>
            0 -1 126 -8.4046153351664543e-03</internalNodes>
          <leafValues>
            2.1487420424818993e-02 -3.7162357568740845e-01</leafValues></_>
        <_>
          <internalNodes>
            0 -1 279 2.9089223593473434e-02</internalNodes>
          <leafValues>
            -1.7504207789897919e-01 2.4824152886867523e-01</leafValues></_>
        <_>
          <internalNodes>
            0 -1 825 2.2563640959560871e-03</internalNodes>
          <leafValues>
            -2.0393721759319305e-01 1.8654011189937592e-01</leafValues></_>
        <_>
          <internalNodes>
            0 -1 4 -5.7396367192268372e-02</internalNodes>
          <leafValues>
            2.4885904788970947e-01 -1.4412862062454224e-01</leafValues></_>
        <_>
          <internalNodes>
            0 -1 406 -5.6003309786319733e-02</internalNodes>
          <leafValues>
            1.6202808916568756e-01 -1.9398711621761322e-01</leafValues></_>
        <_>
          <internalNodes>
            0 -1 781 -1.6274288296699524e-02</internalNodes>
          <leafValues>
            -8.7325710058212280e-01 2.5938287377357483e-02</leafValues></_>
        <_>
          <internalNodes>
            0 -1 195 1.3958432711660862e-02</internalNodes>
          <leafValues>
            -1.2204771488904953e-01 2.6163691282272339e-01</leafValues></_>
        <_>
          <internalNodes>
            0 -1 456 1.0392552940174937e-03</internalNodes>
          <leafValues>
            -9.5876418054103851e-02 2.7860781550407410e-01</leafValues></_>
        <_>
          <internalNodes>
            0 -1 352 -4.2671943083405495e-03</internalNodes>
          <leafValues>
            3.0810511112213135e-01 -1.0328572243452072e-01</leafValues></_>
        <_>
          <internalNodes>
            0 -1 553 -1.1186404153704643e-02</internalNodes>
          <leafValues>
            -1.6366386413574219e-01 1.8034556508064270e-01</leafValues></_>
        <_>
          <internalNodes>
            0 -1 304 -8.5700735449790955e-02</internalNodes>
          <leafValues>
            7.4516959488391876e-02 -4.4381049275398254e-01</leafValues></_>
        <_>
          <internalNodes>
            0 -1 831 1.2196300085633993e-03</internalNodes>
          <leafValues>
            5.8569516986608505e-02 -3.8090932369232178e-01</leafValues></_>
        <_>
          <internalNodes>
            0 -1 600 -4.6873609535396099e-03</internalNodes>
          <leafValues>
            2.1889844536781311e-01 -1.1708775907754898e-01</leafValues></_>
        <_>
          <internalNodes>
            0 -1 233 -1.9542530179023743e-02</internalNodes>
          <leafValues>
            2.4510568380355835e-01 -1.0493816435337067e-01</leafValues></_>
        <_>
          <internalNodes>
            0 -1 699 -2.0423396490514278e-03</internalNodes>
          <leafValues>
            2.4114529788494110e-01 -1.0549015551805496e-01</leafValues></_>
        <_>
          <internalNodes>
            0 -1 831 -8.5690995911136270e-04</internalNodes>
          <leafValues>
            -2.6346564292907715e-01 1.0760307312011719e-01</leafValues></_>
        <_>
          <internalNodes>
            0 -1 101 -1.7121065175160766e-03</internalNodes>
          <leafValues>
            1.3959611952304840e-01 -1.8025070428848267e-01</leafValues></_>
        <_>
          <internalNodes>
            0 -1 498 -3.5904669202864170e-03</internalNodes>
          <leafValues>
            3.8156455755233765e-01 -6.2777698040008545e-02</leafValues></_>
        <_>
          <internalNodes>
            0 -1 289 5.5906131863594055e-02</internalNodes>
          <leafValues>
            -5.6428972631692886e-02 4.1098979115486145e-01</leafValues></_>
        <_>
          <internalNodes>
            0 -1 698 3.8376271259039640e-03</internalNodes>
          <leafValues>
            -1.7552159726619720e-01 1.4902934432029724e-01</leafValues></_>
        <_>
          <internalNodes>
            0 -1 624 -2.1561861038208008e-02</internalNodes>
          <leafValues>
            2.4680726230144501e-01 -9.5298811793327332e-02</leafValues></_>
        <_>
          <internalNodes>
            0 -1 490 -3.9473958313465118e-02</internalNodes>
          <leafValues>
            4.6043226122856140e-01 -6.0734849423170090e-02</leafValues></_>
        <_>
          <internalNodes>
            0 -1 751 1.2098294682800770e-03</internalNodes>
          <leafValues>
            -1.3783809542655945e-01 2.0956379175186157e-01</leafValues></_>
        <_>
          <internalNodes>
            0 -1 615 -3.8185115903615952e-02</internalNodes>
          <leafValues>
            -3.6340415477752686e-01 6.8540953099727631e-02</leafValues></_>
        <_>
          <internalNodes>
            0 -1 519 6.4954729750752449e-03</internalNodes>
          <leafValues>
            -6.4509131014347076e-02 4.0005978941917419e-01</leafValues></_>
        <_>
          <internalNodes>
            0 -1 424 -2.4485629051923752e-02</internalNodes>
          <leafValues>
            1.7388923466205597e-01 -1.3480129837989807e-01</leafValues></_>
        <_>
          <internalNodes>
            0 -1 526 -6.7022740840911865e-02</internalNodes>
          <leafValues>
            -3.5090264678001404e-01 7.1492388844490051e-02</leafValues></_>
        <_>
          <internalNodes>
            0 -1 455 4.5972689986228943e-03</internalNodes>
          <leafValues>
            4.0538664907217026e-02 -5.5796140432357788e-01</leafValues></_>
        <_>
          <internalNodes>
            0 -1 510 3.2100873067975044e-03</internalNodes>
          <leafValues>
            3.6053720861673355e-02 -5.4443562030792236e-01</leafValues></_>
        <_>
          <internalNodes>
            0 -1 404 -3.2266010530292988e-03</internalNodes>
          <leafValues>
            1.8761779367923737e-01 -1.1941611021757126e-01</leafValues></_>
        <_>
          <internalNodes>
            0 -1 203 7.8047692775726318e-02</internalNodes>
          <leafValues>
            4.6860340982675552e-02 -4.9640312790870667e-01</leafValues></_>
        <_>
          <internalNodes>
            0 -1 403 6.3221075106412172e-04</internalNodes>
          <leafValues>
            -1.2091615051031113e-01 1.9747373461723328e-01</leafValues></_>
        <_>
          <internalNodes>
            0 -1 23 4.5086510479450226e-02</internalNodes>
          <leafValues>
            4.8445168882608414e-02 -4.9526160955429077e-01</leafValues></_>
        <_>
          <internalNodes>
            0 -1 699 3.8601518608629704e-03</internalNodes>
          <leafValues>
            -7.9538896679878235e-02 2.9973721504211426e-01</leafValues></_>
        <_>
          <internalNodes>
            0 -1 640 1.1096526868641376e-03</internalNodes>
          <leafValues>
            -9.5701344311237335e-02 2.4516509473323822e-01</leafValues></_>
        <_>
          <internalNodes>
            0 -1 135 3.0237805098295212e-02</internalNodes>
          <leafValues>
            -3.1689066439867020e-02 7.1942144632339478e-01</leafValues></_>
        <_>
          <internalNodes>
            0 -1 122 -3.3135144039988518e-03</internalNodes>
          <leafValues>
            1.5310524404048920e-01 -1.4813600480556488e-01</leafValues></_>
        <_>
          <internalNodes>
            0 -1 795 -7.3174398858100176e-04</internalNodes>
          <leafValues>
            -3.5837897658348083e-01 6.6807664930820465e-02</leafValues></_>
        <_>
          <internalNodes>
            0 -1 583 4.3537290766835213e-03</internalNodes>
          <leafValues>
            5.3444232791662216e-02 -4.2641952633857727e-01</leafValues></_>
        <_>
          <internalNodes>
            0 -1 480 -8.0273328348994255e-03</internalNodes>
          <leafValues>
            2.1660855412483215e-01 -1.1502332240343094e-01</leafValues></_>
        <_>
          <internalNodes>
            0 -1 86 -9.8622953519225121e-03</internalNodes>
          <leafValues>
            2.7392095327377319e-01 -9.7595192492008209e-02</leafValues></_>
        <_>
          <internalNodes>
            0 -1 730 -4.6053836122155190e-03</internalNodes>
          <leafValues>
            -3.7232469767332077e-02 6.5539121627807617e-01</leafValues></_></weakClassifiers></_>
    <!-- stage 8 -->
    <_>
      <maxWeakCount>43</maxWeakCount>
      <stageThreshold>-1.7974205017089844e+00</stageThreshold>
      <weakClassifiers>
        <_>
          <internalNodes>
            0 -1 362 -6.8135976791381836e-02</internalNodes>
          <leafValues>
            -7.5280898809432983e-01 -3.9583334326744080e-01</leafValues></_>
        <_>
          <internalNodes>
            0 -1 20 -5.0143563747406006e-01</internalNodes>
          <leafValues>
            -4.1169799864292145e-02 -5.2275651693344116e-01</leafValues></_>
        <_>
          <internalNodes>
            0 -1 267 -3.0808299779891968e-01</internalNodes>
          <leafValues>
            -2.8457966446876526e-01 1.7067454755306244e-01</leafValues></_>
        <_>
          <internalNodes>
            0 -1 772 -2.0442726090550423e-03</internalNodes>
          <leafValues>
            -3.4440615773200989e-01 1.1882613599300385e-01</leafValues></_>
        <_>
          <internalNodes>
            0 -1 147 -7.3703631758689880e-02</internalNodes>
          <leafValues>
            6.5261192619800568e-02 -6.2776172161102295e-01</leafValues></_>
        <_>
          <internalNodes>
            0 -1 1 -6.0942640993744135e-04</internalNodes>
          <leafValues>
            -2.6430755853652954e-01 1.1672624945640564e-01</leafValues></_>
        <_>
          <internalNodes>
            0 -1 223 3.1327359378337860e-02</internalNodes>
          <leafValues>
            -6.5812379121780396e-02 4.9406826496124268e-01</leafValues></_>
        <_>
          <internalNodes>
            0 -1 820 1.1173491366207600e-02</internalNodes>
          <leafValues>
            -1.0063635557889938e-01 3.2213786244392395e-01</leafValues></_>
        <_>
          <internalNodes>
            0 -1 483 -4.0821984410285950e-02</internalNodes>
          <leafValues>
            3.1161344051361084e-01 -1.0401222854852676e-01</leafValues></_>
        <_>
          <internalNodes>
            0 -1 744 -6.8450197577476501e-02</internalNodes>
          <leafValues>
            1.2054030597209930e-01 -2.7540057897567749e-01</leafValues></_>
        <_>
          <internalNodes>
            0 -1 835 1.6705160960555077e-03</internalNodes>
          <leafValues>
            6.7571654915809631e-02 -4.2966809868812561e-01</leafValues></_>
        <_>
          <internalNodes>
            0 -1 377 3.6269485950469971e-02</internalNodes>
          <leafValues>
            -5.2664823830127716e-02 6.0889315605163574e-01</leafValues></_>
        <_>
          <internalNodes>
            0 -1 802 2.2284032311290503e-03</internalNodes>
          <leafValues>
            6.4051702618598938e-02 -5.5274707078933716e-01</leafValues></_>
        <_>
          <internalNodes>
            0 -1 726 6.0518980026245117e-03</internalNodes>
          <leafValues>
            5.6601446121931076e-02 -4.3463093042373657e-01</leafValues></_>
        <_>
          <internalNodes>
            0 -1 537 1.3682924211025238e-02</internalNodes>
          <leafValues>
            -6.2257550656795502e-02 4.9954819679260254e-01</leafValues></_>
        <_>
          <internalNodes>
            0 -1 397 1.3250226154923439e-02</internalNodes>
          <leafValues>
            6.7210644483566284e-02 -4.2708960175514221e-01</leafValues></_>
        <_>
          <internalNodes>
            0 -1 196 1.8630881095305085e-04</internalNodes>
          <leafValues>
            8.9989289641380310e-02 -3.1957879662513733e-01</leafValues></_>
        <_>
          <internalNodes>
            0 -1 106 -8.4621496498584747e-03</internalNodes>
          <leafValues>
            2.8361886739730835e-01 -9.1267339885234833e-02</leafValues></_>
        <_>
          <internalNodes>
            0 -1 68 -4.2504005134105682e-02</internalNodes>
          <leafValues>
            -8.1048983335494995e-01 3.4136559814214706e-02</leafValues></_>
        <_>
          <internalNodes>
            0 -1 802 -1.0128556750714779e-03</internalNodes>
          <leafValues>
            -2.7326107025146484e-01 9.3296281993389130e-02</leafValues></_>
        <_>
          <internalNodes>
            0 -1 69 1.9196376204490662e-02</internalNodes>
          <leafValues>
            -1.3704013824462891e-01 2.1348719298839569e-01</leafValues></_>
        <_>
          <internalNodes>
            0 -1 487 1.1035186238586903e-02</internalNodes>
          <leafValues>
            -1.2641556560993195e-01 2.1713875234127045e-01</leafValues></_>
        <_>
          <internalNodes>
            0 -1 366 -5.7841804809868336e-03</internalNodes>
          <leafValues>
            3.3307451009750366e-01 -9.2639848589897156e-02</leafValues></_>
        <_>
          <internalNodes>
            0 -1 594 3.9005355210974813e-04</internalNodes>
          <leafValues>
            -2.1863964200019836e-01 1.3205546140670776e-01</leafValues></_>
        <_>
          <internalNodes>
            0 -1 775 -9.6293492242693901e-04</internalNodes>
          <leafValues>
            -3.9783126115798950e-01 6.6489532589912415e-02</leafValues></_>
        <_>
          <internalNodes>
            0 -1 333 -2.1366864442825317e-02</internalNodes>
          <leafValues>
            7.4703747034072876e-01 -3.6563698202371597e-02</leafValues></_>
        <_>
          <internalNodes>
            0 -1 378 2.0860958844423294e-02</internalNodes>
          <leafValues>
            4.1512213647365570e-02 -6.7568212747573853e-01</leafValues></_>
        <_>
          <internalNodes>
            0 -1 209 -1.8445171415805817e-01</internalNodes>
          <leafValues>
            -6.2453597784042358e-01 3.3987022936344147e-02</leafValues></_>
        <_>
          <internalNodes>
            0 -1 148 -1.4358137547969818e-01</internalNodes>
          <leafValues>
            2.5592243671417236e-01 -1.0420479625463486e-01</leafValues></_>
        <_>
          <internalNodes>
            0 -1 241 -8.2883723080158234e-03</internalNodes>
          <leafValues>
            -1.0488841682672501e-01 2.5166174769401550e-01</leafValues></_>
        <_>
          <internalNodes>
            0 -1 197 9.4196212012320757e-04</internalNodes>
          <leafValues>
            8.0982305109500885e-02 -2.9412737488746643e-01</leafValues></_>
        <_>
          <internalNodes>
            0 -1 398 -7.3721483349800110e-02</internalNodes>
          <leafValues>
            6.7570663988590240e-02 -3.4683868288993835e-01</leafValues></_>
        <_>
          <internalNodes>
            0 -1 422 -1.2150237709283829e-01</internalNodes>
          <leafValues>
            -9.8881065845489502e-02 2.6513963937759399e-01</leafValues></_>
        <_>
          <internalNodes>
            0 -1 237 -3.9231753908097744e-04</internalNodes>
          <leafValues>
            2.7432650327682495e-02 -8.7427037954330444e-01</leafValues></_>
        <_>
          <internalNodes>
            0 -1 543 -2.9401345178484917e-02</internalNodes>
          <leafValues>
            -4.9448442459106445e-01 4.2436372488737106e-02</leafValues></_>
        <_>
          <internalNodes>
            0 -1 508 1.3671660795807838e-02</internalNodes>
          <leafValues>
            6.8266242742538452e-02 -3.2524850964546204e-01</leafValues></_>
        <_>
          <internalNodes>
            0 -1 227 -3.3075682818889618e-02</internalNodes>
          <leafValues>
            -2.1452702581882477e-01 1.1960284411907196e-01</leafValues></_>
        <_>
          <internalNodes>
            0 -1 47 -1.3091620057821274e-02</internalNodes>
          <leafValues>
            5.1985073834657669e-02 -4.1188466548919678e-01</leafValues></_>
        <_>
          <internalNodes>
            0 -1 830 -3.5115733044221997e-04</internalNodes>
          <leafValues>
            -2.8890424966812134e-01 7.9710625112056732e-02</leafValues></_>
        <_>
          <internalNodes>
            0 -1 489 -6.0315217822790146e-02</internalNodes>
          <leafValues>
            7.9888999462127686e-01 -3.2305132597684860e-02</leafValues></_>
        <_>
          <internalNodes>
            0 -1 651 1.9400682067498565e-03</internalNodes>
          <leafValues>
            -6.8233661353588104e-02 3.1715032458305359e-01</leafValues></_>
        <_>
          <internalNodes>
            0 -1 204 -1.7920106649398804e-01</internalNodes>
          <leafValues>
            -8.3005934953689575e-01 2.8355753049254417e-02</leafValues></_>
        <_>
          <internalNodes>
            0 -1 689 2.4073899257928133e-03</internalNodes>
          <leafValues>
            6.0246761888265610e-02 -3.4384262561798096e-01</leafValues></_></weakClassifiers></_>
    <!-- stage 9 -->
    <_>
      <maxWeakCount>47</maxWeakCount>
      <stageThreshold>-1.6255559921264648e+00</stageThreshold>
      <weakClassifiers>
        <_>
          <internalNodes>
            0 -1 273 -1.6123171150684357e-01</internalNodes>
          <leafValues>
            -7.8594881296157837e-01 -4.1304346919059753e-01</leafValues></_>
        <_>
          <internalNodes>
            0 -1 320 -1.0889331996440887e-01</internalNodes>
          <leafValues>
            -3.2799926400184631e-01 8.7848089635372162e-02</leafValues></_>
        <_>
          <internalNodes>
            0 -1 72 4.3652415275573730e-02</internalNodes>
          <leafValues>
            -1.3260480761528015e-01 2.6785266399383545e-01</leafValues></_>
        <_>
          <internalNodes>
            0 -1 107 -1.4291707193478942e-03</internalNodes>
          <leafValues>
            1.2072390317916870e-01 -2.0751167833805084e-01</leafValues></_>
        <_>
          <internalNodes>
            0 -1 30 -6.0623474419116974e-02</internalNodes>
          <leafValues>
            -2.2245590388774872e-01 1.0331188887357712e-01</leafValues></_>
        <_>
          <internalNodes>
            0 -1 16 -8.6556132882833481e-03</internalNodes>
          <leafValues>
            1.1244438588619232e-01 -2.3899255692958832e-01</leafValues></_>
        <_>
          <internalNodes>
            0 -1 327 -2.5328207761049271e-02</internalNodes>
          <leafValues>
            1.2929856777191162e-01 -2.4431322515010834e-01</leafValues></_>
        <_>
          <internalNodes>
            0 -1 444 -1.5448521822690964e-02</internalNodes>
          <leafValues>
            3.7601161003112793e-01 -7.8136190772056580e-02</leafValues></_>
        <_>
          <internalNodes>
            0 -1 706 -1.1835059151053429e-02</internalNodes>
          <leafValues>
            -2.8087633848190308e-01 8.4430903196334839e-02</leafValues></_>
        <_>
          <internalNodes>
            0 -1 430 -2.2156149148941040e-02</internalNodes>
          <leafValues>
            3.1340295076370239e-01 -9.2760570347309113e-02</leafValues></_>
        <_>
          <internalNodes>
            0 -1 302 -2.8682287782430649e-02</internalNodes>
          <leafValues>
            1.2734651565551758e-01 -2.0867644250392914e-01</leafValues></_>
        <_>
          <internalNodes>
            0 -1 462 -9.1664463281631470e-02</internalNodes>
          <leafValues>
            -4.7501966357231140e-01 5.2869576960802078e-02</leafValues></_>
        <_>
          <internalNodes>
            0 -1 350 2.0701183378696442e-01</internalNodes>
          <leafValues>
            3.0534483492374420e-02 -6.9636601209640503e-01</leafValues></_>
        <_>
          <internalNodes>
            0 -1 450 4.5106243342161179e-02</internalNodes>
          <leafValues>
            6.5729402005672455e-02 -3.1621855497360229e-01</leafValues></_>
        <_>
          <internalNodes>
            0 -1 186 -9.5892406534403563e-04</internalNodes>
          <leafValues>
            -1.4760783314704895e-01 1.6937834024429321e-01</leafValues></_>
        <_>
          <internalNodes>
            0 -1 602 -3.8718611001968384e-02</internalNodes>
          <leafValues>
            -7.2114711999893188e-01 2.9717553406953812e-02</leafValues></_>
        <_>
          <internalNodes>
            0 -1 393 4.3644495308399200e-03</internalNodes>
          <leafValues>
            -8.5442736744880676e-02 2.7734267711639404e-01</leafValues></_>
        <_>
          <internalNodes>
            0 -1 25 -7.6886124908924103e-02</internalNodes>
          <leafValues>
            -4.6494781970977783e-01 4.8352908343076706e-02</leafValues></_>
        <_>
          <internalNodes>
            0 -1 742 3.8478127680718899e-04</internalNodes>
          <leafValues>
            -1.6762198507785797e-01 1.2654915452003479e-01</leafValues></_>
        <_>
          <internalNodes>
            0 -1 673 -1.4375996543094516e-03</internalNodes>
          <leafValues>
            2.5673040747642517e-01 -7.8907012939453125e-02</leafValues></_>
        <_>
          <internalNodes>
            0 -1 151 -3.9184443652629852e-02</internalNodes>
          <leafValues>
            -4.9225243926048279e-01 4.3272107839584351e-02</leafValues></_>
        <_>
          <internalNodes>
            0 -1 200 -1.0146607458591461e-01</internalNodes>
          <leafValues>
            3.8565225899219513e-02 -4.7705951333045959e-01</leafValues></_>
        <_>
          <internalNodes>
            0 -1 827 5.6409994140267372e-03</internalNodes>
          <leafValues>
            3.3706810325384140e-02 -5.1392209529876709e-01</leafValues></_>
        <_>
          <internalNodes>
            0 -1 12 6.7718876525759697e-03</internalNodes>
          <leafValues>
            4.0714140981435776e-02 -4.3068259954452515e-01</leafValues></_>
        <_>
          <internalNodes>
            0 -1 563 -9.7660748288035393e-03</internalNodes>
          <leafValues>
            1.8829616904258728e-01 -1.0424368083477020e-01</leafValues></_>
        <_>
          <internalNodes>
            0 -1 292 2.7357578277587891e-02</internalNodes>
          <leafValues>
            -9.9951297044754028e-02 1.9438624382019043e-01</leafValues></_>
        <_>
          <internalNodes>
            0 -1 556 -2.1472224034368992e-03</internalNodes>
          <leafValues>
            -9.3001499772071838e-02 2.8385773301124573e-01</leafValues></_>
        <_>
          <internalNodes>
            0 -1 300 -4.4674694538116455e-01</internalNodes>
          <leafValues>
            -5.0925320386886597e-01 4.9001459032297134e-02</leafValues></_>
        <_>
          <internalNodes>
            0 -1 133 -1.9871501717716455e-03</internalNodes>
          <leafValues>
            -3.7503963708877563e-01 5.0872422754764557e-02</leafValues></_>
        <_>
          <internalNodes>
            0 -1 101 -1.4861500822007656e-02</internalNodes>
          <leafValues>
            3.0915609002113342e-01 -7.5173266232013702e-02</leafValues></_>
        <_>
          <internalNodes>
            0 -1 388 -4.4700231403112411e-02</internalNodes>
          <leafValues>
            6.3810306787490845e-01 -3.1662017107009888e-02</leafValues></_>
        <_>
          <internalNodes>
            0 -1 42 -2.2509568929672241e-01</internalNodes>
          <leafValues>
            -6.4744430780410767e-01 3.4458182752132416e-02</leafValues></_>
        <_>
          <internalNodes>
            0 -1 71 4.6487540006637573e-02</internalNodes>
          <leafValues>
            3.7706356495618820e-02 -4.8222550749778748e-01</leafValues></_>
        <_>
          <internalNodes>
            0 -1 87 2.6116289664059877e-03</internalNodes>
          <leafValues>
            5.1116786897182465e-02 -3.5770466923713684e-01</leafValues></_>
        <_>
          <internalNodes>
            0 -1 584 2.2137556225061417e-02</internalNodes>
          <leafValues>
            2.0599769428372383e-02 -7.9598772525787354e-01</leafValues></_>
        <_>
          <internalNodes>
            0 -1 559 1.2856170069426298e-03</internalNodes>
          <leafValues>
            -9.3471191823482513e-02 2.0284292101860046e-01</leafValues></_>
        <_>
          <internalNodes>
            0 -1 567 1.9249063916504383e-03</internalNodes>
          <leafValues>
            -7.1604736149311066e-02 2.7369400858879089e-01</leafValues></_>
        <_>
          <internalNodes>
            0 -1 290 -1.8737640231847763e-02</internalNodes>
          <leafValues>
            -1.6481420397758484e-01 1.2241787463426590e-01</leafValues></_>
        <_>
          <internalNodes>
            0 -1 837 -2.3742225021123886e-02</internalNodes>
          <leafValues>
            9.9503278732299805e-02 -2.1732729673385620e-01</leafValues></_>
        <_>
          <internalNodes>
            0 -1 654 1.4729130268096924e-01</internalNodes>
          <leafValues>
            2.7434071525931358e-02 -6.4477270841598511e-01</leafValues></_>
        <_>
          <internalNodes>
            0 -1 258 -1.0934228077530861e-02</internalNodes>
          <leafValues>
            6.9691044092178345e-01 -3.2192759215831757e-02</leafValues></_>
        <_>
          <internalNodes>
            0 -1 836 2.8163706883788109e-03</internalNodes>
          <leafValues>
            4.7302167862653732e-02 -4.6148350834846497e-01</leafValues></_>
        <_>
          <internalNodes>
            0 -1 50 -1.9062647223472595e-01</internalNodes>
          <leafValues>
            -7.8146618604660034e-01 1.9985344260931015e-02</leafValues></_>
        <_>
          <internalNodes>
            0 -1 189 -1.0871873237192631e-03</internalNodes>
          <leafValues>
            -3.6595401167869568e-01 4.5184332877397537e-02</leafValues></_>
        <_>
          <internalNodes>
            0 -1 323 -1.1869446374475956e-02</internalNodes>
          <leafValues>
            2.5091094896197319e-02 -6.4351212978363037e-01</leafValues></_>
        <_>
          <internalNodes>
            0 -1 517 3.6276178434491158e-03</internalNodes>
          <leafValues>
            -6.9839678704738617e-02 2.8247168660163879e-01</leafValues></_>
        <_>
          <internalNodes>
            0 -1 61 3.2428423874080181e-03</internalNodes>
          <leafValues>
            4.9874711781740189e-02 -3.9777511358261108e-01</leafValues></_></weakClassifiers></_>
    <!-- stage 10 -->
    <_>
      <maxWeakCount>52</maxWeakCount>
      <stageThreshold>-1.5780723094940186e+00</stageThreshold>
      <weakClassifiers>
        <_>
          <internalNodes>
            0 -1 410 -1.7317476868629456e-01</internalNodes>
          <leafValues>
            -7.7845448255538940e-01 -5.2856206893920898e-01</leafValues></_>
        <_>
          <internalNodes>
            0 -1 627 1.2644503265619278e-02</internalNodes>
          <leafValues>
            -3.3225849270820618e-01 5.2323058247566223e-02</leafValues></_>
        <_>
          <internalNodes>
            0 -1 831 6.3782592769712210e-04</internalNodes>
          <leafValues>
            7.5821541249752045e-02 -3.2870924472808838e-01</leafValues></_>
        <_>
          <internalNodes>
            0 -1 354 -5.3653724491596222e-02</internalNodes>
          <leafValues>
            2.9104000329971313e-01 -7.3638767004013062e-02</leafValues></_>
        <_>
          <internalNodes>
            0 -1 815 4.5572305098176003e-03</internalNodes>
          <leafValues>
            -1.2055749446153641e-01 2.2217835485935211e-01</leafValues></_>
        <_>
          <internalNodes>
            0 -1 125 -5.2447512280195951e-04</internalNodes>
          <leafValues>
            1.1888383328914642e-01 -2.1117781102657318e-01</leafValues></_>
        <_>
          <internalNodes>
            0 -1 6 -1.5713781118392944e-01</internalNodes>
          <leafValues>
            -8.7890177965164185e-01 3.4257311373949051e-02</leafValues></_>
        <_>
          <internalNodes>
            0 -1 41 4.6658061444759369e-02</internalNodes>
          <leafValues>
            -1.8546676635742188e-01 1.2404527515172958e-01</leafValues></_>
        <_>
          <internalNodes>
            0 -1 797 -1.3275139499455690e-03</internalNodes>
          <leafValues>
            -2.8207498788833618e-01 9.2439442873001099e-02</leafValues></_>
        <_>
          <internalNodes>
            0 -1 44 8.4756016731262207e-02</internalNodes>
          <leafValues>
            5.8171384036540985e-02 -3.6906683444976807e-01</leafValues></_>
        <_>
          <internalNodes>
            0 -1 810 3.4164586104452610e-03</internalNodes>
          <leafValues>
            -1.3979195058345795e-01 1.7120034992694855e-01</leafValues></_>
        <_>
          <internalNodes>
            0 -1 715 -1.2609814293682575e-02</internalNodes>
          <leafValues>
            1.0827307403087616e-01 -2.4594849348068237e-01</leafValues></_>
        <_>
          <internalNodes>
            0 -1 614 -9.9138310179114342e-04</internalNodes>
          <leafValues>
            2.2371995449066162e-01 -9.7313322126865387e-02</leafValues></_>
        <_>
          <internalNodes>
            0 -1 614 1.0956337209790945e-03</internalNodes>
          <leafValues>
            -9.7414314746856689e-02 2.6515087485313416e-01</leafValues></_>
        <_>
          <internalNodes>
            0 -1 757 -1.5321929822675884e-04</internalNodes>
          <leafValues>
            -2.3186531662940979e-01 9.2145554721355438e-02</leafValues></_>
        <_>
          <internalNodes>
            0 -1 139 -2.4849403416737914e-04</internalNodes>
          <leafValues>
            -1.8259704113006592e-01 1.0318946838378906e-01</leafValues></_>
        <_>
          <internalNodes>
            0 -1 529 -2.7491841465234756e-02</internalNodes>
          <leafValues>
            3.4065791964530945e-01 -5.9739932417869568e-02</leafValues></_>
        <_>
          <internalNodes>
            0 -1 620 2.2553954273462296e-02</internalNodes>
          <leafValues>
            -6.0881398618221283e-02 3.2902359962463379e-01</leafValues></_>
        <_>
          <internalNodes>
            0 -1 565 1.5484439209103584e-02</internalNodes>
          <leafValues>
            7.3010727763175964e-02 -3.8038045167922974e-01</leafValues></_>
        <_>
          <internalNodes>
            0 -1 167 -3.0229883268475533e-03</internalNodes>
          <leafValues>
            8.2687161862850189e-02 -2.2767001390457153e-01</leafValues></_>
        <_>
          <internalNodes>
            0 -1 555 -1.7802789807319641e-02</internalNodes>
          <leafValues>
            7.3441034555435181e-01 -3.0147537589073181e-02</leafValues></_>
        <_>
          <internalNodes>
            0 -1 337 -5.2202567458152771e-03</internalNodes>
          <leafValues>
            2.5004011392593384e-01 -7.7741928398609161e-02</leafValues></_>
        <_>
          <internalNodes>
            0 -1 515 6.7165237851440907e-04</internalNodes>
          <leafValues>
            6.9554716348648071e-02 -2.9190492630004883e-01</leafValues></_>
        <_>
          <internalNodes>
            0 -1 298 3.0982503667473793e-03</internalNodes>
          <leafValues>
            -1.6803297400474548e-01 1.2075014412403107e-01</leafValues></_>
        <_>
          <internalNodes>
            0 -1 221 -1.4200647361576557e-02</internalNodes>
          <leafValues>
            3.5347661375999451e-01 -5.4468102753162384e-02</leafValues></_>
        <_>
          <internalNodes>
            0 -1 653 -1.2489397078752518e-02</internalNodes>
          <leafValues>
            1.7090596258640289e-01 -1.2289171665906906e-01</leafValues></_>
        <_>
          <internalNodes>
            0 -1 138 3.6082853330299258e-04</internalNodes>
          <leafValues>
            6.5542787313461304e-02 -2.8004336357116699e-01</leafValues></_>
        <_>
          <internalNodes>
            0 -1 676 4.3041491881012917e-03</internalNodes>
          <leafValues>
            -4.8846457153558731e-02 3.9564225077629089e-01</leafValues></_>
        <_>
          <internalNodes>
            0 -1 643 -2.8095049783587456e-02</internalNodes>
          <leafValues>
            -5.8745440095663071e-02 3.3761766552925110e-01</leafValues></_>
        <_>
          <internalNodes>
            0 -1 235 1.7827674746513367e-02</internalNodes>
          <leafValues>
            6.6826283931732178e-02 -2.9713571071624756e-01</leafValues></_>
        <_>
          <internalNodes>
            0 -1 343 -5.8685675263404846e-02</internalNodes>
          <leafValues>
            4.0038701146841049e-02 -4.7948473691940308e-01</leafValues></_>
        <_>
          <internalNodes>
            0 -1 121 2.9778253287076950e-02</internalNodes>
          <leafValues>
            -4.2499519884586334e-02 5.0403952598571777e-01</leafValues></_>
        <_>
          <internalNodes>
            0 -1 62 -5.9372754767537117e-03</internalNodes>
          <leafValues>
            4.0083881467580795e-02 -4.7588816285133362e-01</leafValues></_>
        <_>
          <internalNodes>
            0 -1 677 -2.2327182814478874e-03</internalNodes>
          <leafValues>
            -2.9651876538991928e-02 7.2513657808303833e-01</leafValues></_>
        <_>
          <internalNodes>
            0 -1 819 -8.5547007620334625e-03</internalNodes>
          <leafValues>
            4.1323763132095337e-01 -4.0421605110168457e-02</leafValues></_>
        <_>
          <internalNodes>
            0 -1 381 -1.9050857517868280e-03</internalNodes>
          <leafValues>
            1.6759005188941956e-01 -1.0841853171586990e-01</leafValues></_>
        <_>
          <internalNodes>
            0 -1 219 -1.8832641839981079e-01</internalNodes>
          <leafValues>
            -1.4492978155612946e-01 1.5078660845756531e-01</leafValues></_>
        <_>
          <internalNodes>
            0 -1 333 1.2791772373020649e-02</internalNodes>
          <leafValues>
            -8.2350842654705048e-02 2.3562066256999969e-01</leafValues></_>
        <_>
          <internalNodes>
            0 -1 769 4.1685074567794800e-02</internalNodes>
          <leafValues>
            2.5087958201766014e-02 -7.5362122058868408e-01</leafValues></_>
        <_>
          <internalNodes>
            0 -1 572 -9.0159952640533447e-02</internalNodes>
          <leafValues>
            -2.9022800922393799e-01 6.3778713345527649e-02</leafValues></_>
        <_>
          <internalNodes>
            0 -1 228 2.3767776787281036e-02</internalNodes>
          <leafValues>
            2.6780087500810623e-02 -6.8883424997329712e-01</leafValues></_>
        <_>
          <internalNodes>
            0 -1 805 -6.0344384983181953e-03</internalNodes>
          <leafValues>
            -2.2935940325260162e-01 8.0830775201320648e-02</leafValues></_>
        <_>
          <internalNodes>
            0 -1 436 6.1000779271125793e-02</internalNodes>
          <leafValues>
            1.8362304195761681e-02 -9.2131710052490234e-01</leafValues></_>
        <_>
          <internalNodes>
            0 -1 99 2.0660681184381247e-04</internalNodes>
          <leafValues>
            -1.1849725246429443e-01 1.5298725664615631e-01</leafValues></_>
        <_>
          <internalNodes>
            0 -1 256 1.8862843280658126e-03</internalNodes>
          <leafValues>
            -6.1679795384407043e-02 2.8620108962059021e-01</leafValues></_>
        <_>
          <internalNodes>
            0 -1 113 -1.6124518588185310e-03</internalNodes>
          <leafValues>
            -3.6447638273239136e-01 5.1308225840330124e-02</leafValues></_>
        <_>
          <internalNodes>
            0 -1 380 -6.5350700169801712e-03</internalNodes>
          <leafValues>
            2.4167453870177269e-02 -6.6854202747344971e-01</leafValues></_>
        <_>
          <internalNodes>
            0 -1 312 -1.9253809005022049e-02</internalNodes>
          <leafValues>
            -3.5036657005548477e-02 5.6385010480880737e-01</leafValues></_>
        <_>
          <internalNodes>
            0 -1 322 -2.5878343731164932e-03</internalNodes>
          <leafValues>
            1.8245512247085571e-01 -9.6917979419231415e-02</leafValues></_>
        <_>
          <internalNodes>
            0 -1 737 -3.1039551831781864e-03</internalNodes>
          <leafValues>
            -3.9875251054763794e-01 4.4412374496459961e-02</leafValues></_>
        <_>
          <internalNodes>
            0 -1 84 -1.2698550522327423e-01</internalNodes>
          <leafValues>
            -7.1903800964355469e-01 2.1823752671480179e-02</leafValues></_>
        <_>
          <internalNodes>
            0 -1 733 4.5644366182386875e-03</internalNodes>
          <leafValues>
            -9.1524019837379456e-02 2.0066249370574951e-01</leafValues></_></weakClassifiers></_>
    <!-- stage 11 -->
    <_>
      <maxWeakCount>45</maxWeakCount>
      <stageThreshold>-1.6715203523635864e+00</stageThreshold>
      <weakClassifiers>
        <_>
          <internalNodes>
            0 -1 457 5.4367370903491974e-03</internalNodes>
          <leafValues>
            -7.1811389923095703e-01 -2.3420074582099915e-01</leafValues></_>
        <_>
          <internalNodes>
            0 -1 828 3.8635567761957645e-04</internalNodes>
          <leafValues>
            -4.1415151953697205e-01 1.7838038504123688e-02</leafValues></_>
        <_>
          <internalNodes>
            0 -1 18 -1.1554615572094917e-02</internalNodes>
          <leafValues>
            1.6877128183841705e-01 -2.1920455992221832e-01</leafValues></_>
        <_>
          <internalNodes>
            0 -1 118 -2.2940686903893948e-03</internalNodes>
          <leafValues>
            1.7714484035968781e-01 -1.9736109673976898e-01</leafValues></_>
        <_>
          <internalNodes>
            0 -1 717 -4.2611248791217804e-03</internalNodes>
          <leafValues>
            2.4554884433746338e-01 -8.2912936806678772e-02</leafValues></_>
        <_>
          <internalNodes>
            0 -1 261 9.4522058498114347e-04</internalNodes>
          <leafValues>
            -9.5378912985324860e-02 2.6676550507545471e-01</leafValues></_>
        <_>
          <internalNodes>
            0 -1 248 2.4497411213815212e-03</internalNodes>
          <leafValues>
            -9.6184693276882172e-02 2.6041668653488159e-01</leafValues></_>
        <_>
          <internalNodes>
            0 -1 788 -5.8571819681674242e-04</internalNodes>
          <leafValues>
            2.3796738684177399e-01 -9.9976859986782074e-02</leafValues></_>
        <_>
          <internalNodes>
            0 -1 419 1.1290695983916521e-03</internalNodes>
          <leafValues>
            -7.6178155839443207e-02 2.7158972620964050e-01</leafValues></_>
        <_>
          <internalNodes>
            0 -1 306 -2.2968087345361710e-02</internalNodes>
          <leafValues>
            2.3589761927723885e-02 -7.9593479633331299e-01</leafValues></_>
        <_>
          <internalNodes>
            0 -1 234 -1.1284025385975838e-02</internalNodes>
          <leafValues>
            -1.3580319285392761e-01 1.7447789013385773e-01</leafValues></_>
        <_>
          <internalNodes>
            0 -1 567 -1.0529339779168367e-03</internalNodes>
          <leafValues>
            2.4462875723838806e-01 -8.9363448321819305e-02</leafValues></_>
        <_>
          <internalNodes>
            0 -1 567 4.1178008541464806e-04</internalNodes>
          <leafValues>
            -1.3200780749320984e-01 1.8203707039356232e-01</leafValues></_>
        <_>
          <internalNodes>
            0 -1 153 -4.1801530122756958e-01</internalNodes>
          <leafValues>
            9.3020327389240265e-02 -2.3559217154979706e-01</leafValues></_>
        <_>
          <internalNodes>
            0 -1 303 -7.1081027388572693e-02</internalNodes>
          <leafValues>
            1.5550233423709869e-01 -1.3875919580459595e-01</leafValues></_>
        <_>
          <internalNodes>
            0 -1 566 -3.0518684070557356e-03</internalNodes>
          <leafValues>
            1.3753038644790649e-01 -1.5660940110683441e-01</leafValues></_>
        <_>
          <internalNodes>
            0 -1 32 -2.0893272757530212e-01</internalNodes>
          <leafValues>
            -4.9218505620956421e-01 4.6873420476913452e-02</leafValues></_>
        <_>
          <internalNodes>
            0 -1 538 -5.4781059734523296e-03</internalNodes>
          <leafValues>
            1.8639576435089111e-01 -1.4259941875934601e-01</leafValues></_>
        <_>
          <internalNodes>
            0 -1 759 5.0320959417149425e-04</internalNodes>
          <leafValues>
            -1.6922996938228607e-01 1.2204223871231079e-01</leafValues></_>
        <_>
          <internalNodes>
            0 -1 664 -3.9368253201246262e-03</internalNodes>
          <leafValues>
            2.7111133933067322e-01 -6.9164760410785675e-02</leafValues></_>
        <_>
          <internalNodes>
            0 -1 379 5.7667144574224949e-04</internalNodes>
          <leafValues>
            -1.0342252999544144e-01 1.9119884073734283e-01</leafValues></_>
        <_>
          <internalNodes>
            0 -1 53 -1.6656272113323212e-02</internalNodes>
          <leafValues>
            1.3320615887641907e-01 -1.4891342818737030e-01</leafValues></_>
        <_>
          <internalNodes>
            0 -1 684 -4.0782891213893890e-02</internalNodes>
          <leafValues>
            1.0621525347232819e-01 -1.8926796317100525e-01</leafValues></_>
        <_>
          <internalNodes>
            0 -1 442 -2.6454763486981392e-02</internalNodes>
          <leafValues>
            3.1445533037185669e-01 -6.8546265363693237e-02</leafValues></_>
        <_>
          <internalNodes>
            0 -1 542 6.5926439128816128e-04</internalNodes>
          <leafValues>
            -1.3907220959663391e-01 1.5729236602783203e-01</leafValues></_>
        <_>
          <internalNodes>
            0 -1 605 -3.2881411910057068e-01</internalNodes>
          <leafValues>
            -3.5564374923706055e-01 5.4893486201763153e-02</leafValues></_>
        <_>
          <internalNodes>
            0 -1 353 -2.7822390198707581e-02</internalNodes>
          <leafValues>
            3.8543882966041565e-01 -5.6930445134639740e-02</leafValues></_>
        <_>
          <internalNodes>
            0 -1 632 -4.0812739171087742e-03</internalNodes>
          <leafValues>
            4.1298534721136093e-02 -4.4163525104522705e-01</leafValues></_>
        <_>
          <internalNodes>
            0 -1 691 8.2315462350379676e-05</internalNodes>
          <leafValues>
            -1.1882998794317245e-01 1.6399233043193817e-01</leafValues></_>
        <_>
          <internalNodes>
            0 -1 334 9.2647178098559380e-04</internalNodes>
          <leafValues>
            -9.1662637889385223e-02 2.1010680496692657e-01</leafValues></_>
        <_>
          <internalNodes>
            0 -1 451 -2.8868278022855520e-03</internalNodes>
          <leafValues>
            8.2583367824554443e-02 -2.7390614151954651e-01</leafValues></_>
        <_>
          <internalNodes>
            0 -1 102 2.0700402092188597e-04</internalNodes>
          <leafValues>
            -1.2999774515628815e-01 1.6023574769496918e-01</leafValues></_>
        <_>
          <internalNodes>
            0 -1 671 1.2596382293850183e-03</internalNodes>
          <leafValues>
            -8.2748495042324066e-02 2.2058680653572083e-01</leafValues></_>
        <_>
          <internalNodes>
            0 -1 236 -3.2968811690807343e-02</internalNodes>
          <leafValues>
            -7.2280809283256531e-02 2.5749674439430237e-01</leafValues></_>
        <_>
          <internalNodes>
            0 -1 505 6.1158139258623123e-02</internalNodes>
          <leafValues>
            -4.2596284300088882e-02 4.5249491930007935e-01</leafValues></_>
        <_>
          <internalNodes>
            0 -1 285 -9.1820620000362396e-03</internalNodes>
          <leafValues>
            1.3945390284061432e-01 -1.6269758343696594e-01</leafValues></_>
        <_>
          <internalNodes>
            0 -1 243 -7.9088490456342697e-03</internalNodes>
          <leafValues>
            2.9820352792739868e-01 -7.7199645340442657e-02</leafValues></_>
        <_>
          <internalNodes>
            0 -1 645 -6.3064523041248322e-02</internalNodes>
          <leafValues>
            1.7886073887348175e-01 -1.0912821441888809e-01</leafValues></_>
        <_>
          <internalNodes>
            0 -1 735 3.8081677630543709e-03</internalNodes>
          <leafValues>
            3.4386854618787766e-02 -5.6730794906616211e-01</leafValues></_>
        <_>
          <internalNodes>
            0 -1 116 -9.4523746520280838e-04</internalNodes>
          <leafValues>
            2.2983459755778313e-02 -7.0441251993179321e-01</leafValues></_>
        <_>
          <internalNodes>
            0 -1 558 1.5548365190625191e-03</internalNodes>
          <leafValues>
            -7.7259175479412079e-02 2.4951188266277313e-01</leafValues></_>
        <_>
          <internalNodes>
            0 -1 719 2.7799805626273155e-02</internalNodes>
          <leafValues>
            2.5942288339138031e-02 -8.0224746465682983e-01</leafValues></_>
        <_>
          <internalNodes>
            0 -1 347 7.7451385557651520e-02</internalNodes>
          <leafValues>
            1.7111441120505333e-02 -8.0342721939086914e-01</leafValues></_>
        <_>
          <internalNodes>
            0 -1 250 3.1626548618078232e-02</internalNodes>
          <leafValues>
            -6.7931607365608215e-02 3.1374555826187134e-01</leafValues></_>
        <_>
          <internalNodes>
            0 -1 636 -1.6671834746375680e-03</internalNodes>
          <leafValues>
            3.0872139334678650e-01 -5.9651494026184082e-02</leafValues></_></weakClassifiers></_>
    <!-- stage 12 -->
    <_>
      <maxWeakCount>51</maxWeakCount>
      <stageThreshold>-1.4957031011581421e+00</stageThreshold>
      <weakClassifiers>
        <_>
          <internalNodes>
            0 -1 411 -7.3186278343200684e-02</internalNodes>
          <leafValues>
            -7.2931081056594849e-01 -4.0037244558334351e-01</leafValues></_>
        <_>
          <internalNodes>
            0 -1 821 5.7911751791834831e-03</internalNodes>
          <leafValues>
            -2.8797119855880737e-01 1.0091909766197205e-01</leafValues></_>
        <_>
          <internalNodes>
            0 -1 649 -9.4836011528968811e-02</internalNodes>
          <leafValues>
            -1.6097509860992432e-01 1.5659226477146149e-01</leafValues></_>
        <_>
          <internalNodes>
            0 -1 833 -1.8111962825059891e-02</internalNodes>
          <leafValues>
            7.4985049664974213e-02 -3.0353993177413940e-01</leafValues></_>
        <_>
          <internalNodes>
            0 -1 98 -4.3554017320275307e-03</internalNodes>
          <leafValues>
            1.7916882038116455e-01 -1.1357627809047699e-01</leafValues></_>
        <_>
          <internalNodes>
            0 -1 412 -3.9920903742313385e-02</internalNodes>
          <leafValues>
            1.3877843320369720e-01 -1.6699557006359100e-01</leafValues></_>
        <_>
          <internalNodes>
            0 -1 56 -3.6461301147937775e-02</internalNodes>
          <leafValues>
            8.8288217782974243e-02 -2.4166952073574066e-01</leafValues></_>
        <_>
          <internalNodes>
            0 -1 435 1.7821234650909901e-03</internalNodes>
          <leafValues>
            -9.4396695494651794e-02 2.3430946469306946e-01</leafValues></_>
        <_>
          <internalNodes>
            0 -1 465 1.3955878093838692e-03</internalNodes>
          <leafValues>
            -9.7753614187240601e-02 2.2557108104228973e-01</leafValues></_>
        <_>
          <internalNodes>
            0 -1 24 -9.9793225526809692e-02</internalNodes>
          <leafValues>
            -3.9007034897804260e-01 5.6240979582071304e-02</leafValues></_>
        <_>
          <internalNodes>
            0 -1 191 -1.5020702267065644e-03</internalNodes>
          <leafValues>
            1.0110023617744446e-01 -1.7047688364982605e-01</leafValues></_>
        <_>
          <internalNodes>
            0 -1 637 6.4741005189716816e-03</internalNodes>
          <leafValues>
            -5.0893902778625488e-02 3.1442832946777344e-01</leafValues></_>
        <_>
          <internalNodes>
            0 -1 513 -2.8044259175658226e-02</internalNodes>
          <leafValues>
            7.1826046705245972e-01 -2.2853465750813484e-02</leafValues></_>
        <_>
          <internalNodes>
            0 -1 282 5.4804007522761822e-03</internalNodes>
          <leafValues>
            -5.5294740945100784e-02 3.0877950787544250e-01</leafValues></_>
        <_>
          <internalNodes>
            0 -1 648 -4.2450953274965286e-02</internalNodes>
          <leafValues>
            -6.0875159502029419e-01 3.2797694206237793e-02</leafValues></_>
        <_>
          <internalNodes>
            0 -1 520 7.0901764556765556e-03</internalNodes>
          <leafValues>
            -6.0170304030179977e-02 3.1079286336898804e-01</leafValues></_>
        <_>
          <internalNodes>
            0 -1 589 3.7315057124942541e-03</internalNodes>
          <leafValues>
            2.1907636895775795e-02 -8.1888169050216675e-01</leafValues></_>
        <_>
          <internalNodes>
            0 -1 321 -1.2215041788294911e-03</internalNodes>
          <leafValues>
            2.4114429950714111e-01 -7.2569563984870911e-02</leafValues></_>
        <_>
          <internalNodes>
            0 -1 182 -6.7493098322302103e-04</internalNodes>
          <leafValues>
            2.0114978775382042e-02 -7.6982754468917847e-01</leafValues></_>
        <_>
          <internalNodes>
            0 -1 133 2.4483419838361442e-04</internalNodes>
          <leafValues>
            -1.4261806011199951e-01 1.0605483502149582e-01</leafValues></_>
        <_>
          <internalNodes>
            0 -1 610 -7.5071454048156738e-02</internalNodes>
          <leafValues>
            -1.4183381199836731e-01 1.1887401342391968e-01</leafValues></_>
        <_>
          <internalNodes>
            0 -1 710 -3.1041249632835388e-02</internalNodes>
          <leafValues>
            4.7070030122995377e-02 -4.3234080076217651e-01</leafValues></_>
        <_>
          <internalNodes>
            0 -1 838 -1.3683002907782793e-03</internalNodes>
          <leafValues>
            -3.2717284560203552e-01 4.7156754881143570e-02</leafValues></_>
        <_>
          <internalNodes>
            0 -1 8 1.2687373906373978e-02</internalNodes>
          <leafValues>
            -8.6385473608970642e-02 1.9671608507633209e-01</leafValues></_>
        <_>
          <internalNodes>
            0 -1 163 -8.6954170837998390e-03</internalNodes>
          <leafValues>
            2.4058322608470917e-01 -7.0780061185359955e-02</leafValues></_>
        <_>
          <internalNodes>
            0 -1 145 -5.1044579595327377e-02</internalNodes>
          <leafValues>
            -5.5707120895385742e-01 3.1292617321014404e-02</leafValues></_>
        <_>
          <internalNodes>
            0 -1 211 -8.2789786159992218e-02</internalNodes>
          <leafValues>
            1.4506995677947998e-01 -1.1429367959499359e-01</leafValues></_>
        <_>
          <internalNodes>
            0 -1 793 -6.0598831623792648e-03</internalNodes>
          <leafValues>
            -6.9488829374313354e-01 2.1981827914714813e-02</leafValues></_>
        <_>
          <internalNodes>
            0 -1 206 6.2431232072412968e-03</internalNodes>
          <leafValues>
            -1.0091460496187210e-01 1.5879701077938080e-01</leafValues></_>
        <_>
          <internalNodes>
            0 -1 154 -4.5590251684188843e-02</internalNodes>
          <leafValues>
            -8.3055055141448975e-01 1.9054975360631943e-02</leafValues></_>
        <_>
          <internalNodes>
            0 -1 519 -5.2063744515180588e-03</internalNodes>
          <leafValues>
            2.7327355742454529e-01 -6.5158307552337646e-02</leafValues></_>
        <_>
          <internalNodes>
            0 -1 284 4.3791182339191437e-02</internalNodes>
          <leafValues>
            1.7745375633239746e-02 -9.1121840476989746e-01</leafValues></_>
        <_>
          <internalNodes>
            0 -1 620 2.2440629079937935e-02</internalNodes>
          <leafValues>
            -6.3695684075355530e-02 2.7809059619903564e-01</leafValues></_>
        <_>
          <internalNodes>
            0 -1 681 -1.6653283964842558e-03</internalNodes>
          <leafValues>
            1.5771584212779999e-01 -1.4544542133808136e-01</leafValues></_>
        <_>
          <internalNodes>
            0 -1 230 5.7680178433656693e-03</internalNodes>
          <leafValues>
            -1.3253934681415558e-01 1.2364023923873901e-01</leafValues></_>
        <_>
          <internalNodes>
            0 -1 265 -6.0114324092864990e-02</internalNodes>
          <leafValues>
            2.2709393501281738e-01 -9.8032929003238678e-02</leafValues></_>
        <_>
          <internalNodes>
            0 -1 297 2.5041589513421059e-02</internalNodes>
          <leafValues>
            -1.0262195020914078e-01 1.7274951934814453e-01</leafValues></_>
        <_>
          <internalNodes>
            0 -1 287 5.0046734511852264e-02</internalNodes>
          <leafValues>
            4.4371679425239563e-02 -3.6944204568862915e-01</leafValues></_>
        <_>
          <internalNodes>
            0 -1 533 4.2861081659793854e-02</internalNodes>
          <leafValues>
            1.9767291843891144e-02 -7.2307568788528442e-01</leafValues></_>
        <_>
          <internalNodes>
            0 -1 745 5.1266076043248177e-03</internalNodes>
          <leafValues>
            -5.7333283126354218e-02 2.8378832340240479e-01</leafValues></_>
        <_>
          <internalNodes>
            0 -1 331 -7.4147875420749187e-04</internalNodes>
          <leafValues>
            -4.2229063808917999e-02 3.7103387713432312e-01</leafValues></_>
        <_>
          <internalNodes>
            0 -1 111 6.2942998483777046e-03</internalNodes>
          <leafValues>
            -9.0910255908966064e-02 1.9138318300247192e-01</leafValues></_>
        <_>
          <internalNodes>
            0 -1 232 -1.6352543607354164e-02</internalNodes>
          <leafValues>
            2.2278173267841339e-01 -1.0996660590171814e-01</leafValues></_>
        <_>
          <internalNodes>
            0 -1 249 -5.2833579480648041e-02</internalNodes>
          <leafValues>
            4.1371574997901917e-01 -4.0924660861492157e-02</leafValues></_>
        <_>
          <internalNodes>
            0 -1 188 -7.1294352412223816e-02</internalNodes>
          <leafValues>
            6.5259701013565063e-01 -2.4900676682591438e-02</leafValues></_>
        <_>
          <internalNodes>
            0 -1 764 -1.5719696879386902e-01</internalNodes>
          <leafValues>
            3.9032819867134094e-01 -4.1548486799001694e-02</leafValues></_>
        <_>
          <internalNodes>
            0 -1 707 -5.8698095381259918e-04</internalNodes>
          <leafValues>
            1.9021064043045044e-01 -9.7041673958301544e-02</leafValues></_>
        <_>
          <internalNodes>
            0 -1 157 5.8849286288022995e-03</internalNodes>
          <leafValues>
            2.5086304172873497e-02 -6.5357989072799683e-01</leafValues></_>
        <_>
          <internalNodes>
            0 -1 817 1.9795724656432867e-03</internalNodes>
          <leafValues>
            -9.0432740747928619e-02 2.0004901289939880e-01</leafValues></_>
        <_>
          <internalNodes>
            0 -1 773 1.3845238834619522e-02</internalNodes>
          <leafValues>
            2.2911088541150093e-02 -7.6081269979476929e-01</leafValues></_>
        <_>
          <internalNodes>
            0 -1 210 7.5310468673706055e-02</internalNodes>
          <leafValues>
            1.1482384987175465e-02 -9.6936732530593872e-01</leafValues></_></weakClassifiers></_>
    <!-- stage 13 -->
    <_>
      <maxWeakCount>55</maxWeakCount>
      <stageThreshold>-1.5040569305419922e+00</stageThreshold>
      <weakClassifiers>
        <_>
          <internalNodes>
            0 -1 360 -4.0380649268627167e-02</internalNodes>
          <leafValues>
            -7.4146342277526855e-01 -4.8045977950096130e-01</leafValues></_>
        <_>
          <internalNodes>
            0 -1 612 -5.8618232607841492e-02</internalNodes>
          <leafValues>
            -2.7452295646071434e-02 -3.0851921439170837e-01</leafValues></_>
        <_>
          <internalNodes>
            0 -1 355 -3.3305615186691284e-02</internalNodes>
          <leafValues>
            2.0253856480121613e-01 -9.7884438931941986e-02</leafValues></_>
        <_>
          <internalNodes>
            0 -1 433 4.2681805789470673e-02</internalNodes>
          <leafValues>
            -8.5014455020427704e-02 2.5194633007049561e-01</leafValues></_>
        <_>
          <internalNodes>
            0 -1 205 -3.8720887154340744e-02</internalNodes>
          <leafValues>
            2.5429022312164307e-01 -7.5178079307079315e-02</leafValues></_>
        <_>
          <internalNodes>
            0 -1 839 -1.8848318140953779e-03</internalNodes>
          <leafValues>
            -4.5890158414840698e-01 3.7452150136232376e-02</leafValues></_>
        <_>
          <internalNodes>
            0 -1 176 -1.0138711333274841e-01</internalNodes>
          <leafValues>
            1.1981277912855148e-01 -1.4892199635505676e-01</leafValues></_>
        <_>
          <internalNodes>
            0 -1 675 4.4637778773903847e-03</internalNodes>
          <leafValues>
            -2.0923347771167755e-01 1.1534097045660019e-01</leafValues></_>
        <_>
          <internalNodes>
            0 -1 85 1.2927964329719543e-02</internalNodes>
          <leafValues>
            -6.7608319222927094e-02 3.0486705899238586e-01</leafValues></_>
        <_>
          <internalNodes>
            0 -1 46 -5.6928079575300217e-03</internalNodes>
          <leafValues>
            3.4999895840883255e-02 -6.2886816263198853e-01</leafValues></_>
        <_>
          <internalNodes>
            0 -1 117 -2.3493804037570953e-03</internalNodes>
          <leafValues>
            -3.1116244196891785e-01 3.9670411497354507e-02</leafValues></_>
        <_>
          <internalNodes>
            0 -1 196 -1.7392558511346579e-03</internalNodes>
          <leafValues>
            -2.4449037015438080e-01 6.9081276655197144e-02</leafValues></_>
        <_>
          <internalNodes>
            0 -1 672 -1.3317589182406664e-03</internalNodes>
          <leafValues>
            2.0431227982044220e-01 -7.8700192272663116e-02</leafValues></_>
        <_>
          <internalNodes>
            0 -1 672 1.3975012116134167e-03</internalNodes>
          <leafValues>
            -7.9112187027931213e-02 2.4069172143936157e-01</leafValues></_>
        <_>
          <internalNodes>
            0 -1 806 1.3464295770972967e-03</internalNodes>
          <leafValues>
            6.6292434930801392e-02 -2.5172430276870728e-01</leafValues></_>
        <_>
          <internalNodes>
            0 -1 123 -6.5955817699432373e-02</internalNodes>
          <leafValues>
            6.7519354820251465e-01 -2.5659674778580666e-02</leafValues></_>
        <_>
          <internalNodes>
            0 -1 682 1.5969184460118413e-03</internalNodes>
          <leafValues>
            -9.3699440360069275e-02 1.6965985298156738e-01</leafValues></_>
        <_>
          <internalNodes>
            0 -1 682 -3.9448663592338562e-03</internalNodes>
          <leafValues>
            1.8948131799697876e-01 -9.2073336243629456e-02</leafValues></_>
        <_>
          <internalNodes>
            0 -1 109 -3.0109598301351070e-03</internalNodes>
          <leafValues>
            1.0435690730810165e-01 -1.6309535503387451e-01</leafValues></_>
        <_>
          <internalNodes>
            0 -1 172 -2.1506350487470627e-02</internalNodes>
          <leafValues>
            1.5378840267658234e-01 -1.2087364494800568e-01</leafValues></_>
        <_>
          <internalNodes>
            0 -1 184 -1.5001858118921518e-03</internalNodes>
          <leafValues>
            -1.8341445922851563e-01 8.6524605751037598e-02</leafValues></_>
        <_>
          <internalNodes>
            0 -1 183 2.5284130126237869e-02</internalNodes>
          <leafValues>
            2.2758543491363525e-02 -6.5004336833953857e-01</leafValues></_>
        <_>
          <internalNodes>
            0 -1 270 8.3140537142753601e-02</internalNodes>
          <leafValues>
            1.7534112557768822e-02 -7.1612262725830078e-01</leafValues></_>
        <_>
          <internalNodes>
            0 -1 242 1.4842900447547436e-02</internalNodes>
          <leafValues>
            -3.7683028727769852e-02 4.8885732889175415e-01</leafValues></_>
        <_>
          <internalNodes>
            0 -1 395 -1.0257758200168610e-02</internalNodes>
          <leafValues>
            2.4942524731159210e-01 -6.1314322054386139e-02</leafValues></_>
        <_>
          <internalNodes>
            0 -1 207 -3.5300210118293762e-02</internalNodes>
          <leafValues>
            2.9476786032319069e-02 -5.3352123498916626e-01</leafValues></_>
        <_>
          <internalNodes>
            0 -1 141 9.4074802473187447e-03</internalNodes>
          <leafValues>
            -6.2470484524965286e-02 2.5868642330169678e-01</leafValues></_>
        <_>
          <internalNodes>
            0 -1 407 -5.9260260313749313e-03</internalNodes>
          <leafValues>
            -5.4591450840234756e-02 3.5463196039199829e-01</leafValues></_>
        <_>
          <internalNodes>
            0 -1 741 2.2678531240671873e-03</internalNodes>
          <leafValues>
            -8.2134731113910675e-02 1.9208489358425140e-01</leafValues></_>
        <_>
          <internalNodes>
            0 -1 344 -7.6558314263820648e-02</internalNodes>
          <leafValues>
            1.6615107655525208e-01 -9.1620527207851410e-02</leafValues></_>
        <_>
          <internalNodes>
            0 -1 604 -2.6269394159317017e-01</internalNodes>
          <leafValues>
            -4.5712387561798096e-01 3.9137247949838638e-02</leafValues></_>
        <_>
          <internalNodes>
            0 -1 818 -1.6412738710641861e-02</internalNodes>
          <leafValues>
            6.3520556688308716e-01 -2.8939902782440186e-02</leafValues></_>
        <_>
          <internalNodes>
            0 -1 52 -1.0650942102074623e-02</internalNodes>
          <leafValues>
            1.7625410854816437e-01 -8.9273780584335327e-02</leafValues></_>
        <_>
          <internalNodes>
            0 -1 771 2.1301474771462381e-04</internalNodes>
          <leafValues>
            -1.3088445365428925e-01 1.2166570872068405e-01</leafValues></_>
        <_>
          <internalNodes>
            0 -1 544 2.8543744236230850e-02</internalNodes>
          <leafValues>
            -7.0636093616485596e-02 2.2585387527942657e-01</leafValues></_>
        <_>
          <internalNodes>
            0 -1 504 -3.4395987167954445e-03</internalNodes>
          <leafValues>
            2.3416477441787720e-01 -9.7420655190944672e-02</leafValues></_>
        <_>
          <internalNodes>
            0 -1 596 8.0690793693065643e-03</internalNodes>
          <leafValues>
            -2.9238345101475716e-02 5.3702157735824585e-01</leafValues></_>
        <_>
          <internalNodes>
            0 -1 582 -5.4996674880385399e-03</internalNodes>
          <leafValues>
            -7.9671001434326172e-01 2.1113894879817963e-02</leafValues></_>
        <_>
          <internalNodes>
            0 -1 484 -2.0533978939056396e-02</internalNodes>
          <leafValues>
            2.4963964521884918e-01 -6.4430169761180878e-02</leafValues></_>
        <_>
          <internalNodes>
            0 -1 795 -7.1101632784120739e-05</internalNodes>
          <leafValues>
            -1.8485303223133087e-01 8.3597727119922638e-02</leafValues></_>
        <_>
          <internalNodes>
            0 -1 549 -5.3584109991788864e-02</internalNodes>
          <leafValues>
            -6.3312876224517822e-01 2.3314250633120537e-02</leafValues></_>
        <_>
          <internalNodes>
            0 -1 546 3.8042711094021797e-03</internalNodes>
          <leafValues>
            9.0744487941265106e-02 -1.8483914434909821e-01</leafValues></_>
        <_>
          <internalNodes>
            0 -1 629 -2.9752255068160594e-04</internalNodes>
          <leafValues>
            1.4797382056713104e-01 -1.0764037072658539e-01</leafValues></_>
        <_>
          <internalNodes>
            0 -1 580 -6.3991509377956390e-03</internalNodes>
          <leafValues>
            -2.3204028606414795e-01 7.2458095848560333e-02</leafValues></_>
        <_>
          <internalNodes>
            0 -1 224 -1.1085881851613522e-03</internalNodes>
          <leafValues>
            1.6381826251745224e-02 -8.9492285251617432e-01</leafValues></_>
        <_>
          <internalNodes>
            0 -1 790 -1.8608200480230153e-04</internalNodes>
          <leafValues>
            1.5776097774505615e-01 -1.0132916271686554e-01</leafValues></_>
        <_>
          <internalNodes>
            0 -1 27 -4.7975137829780579e-02</internalNodes>
          <leafValues>
            -6.4957475662231445e-01 2.5889532640576363e-02</leafValues></_>
        <_>
          <internalNodes>
            0 -1 495 -6.2303468585014343e-03</internalNodes>
          <leafValues>
